svm_type nu_svc
kernel_type rbf
gamma 2.9726516052318666E-4
nr_class 2
total_sv 297
rho -7.5181069137424785
label 1 -1
probA -2.064681787920745
probB -0.20415897277564476
nr_sv 186 111
SV
72.50845466770507 26:0.4045559775591105 27:0.673215206159461 8:0.12024030511326557 28:0.5108715463422548 13:0.1400059210398091 29:0.7278881101834944 30:0.6043354931023148 8:0.12024030511326557 31:0.5589655859717706 32:0.3583133167506706 33:0.45619864231822127 34:0.5797512593994011 35:0.5589655859717706 12:0.27068141409424146 36:0.7278881101834944 37:0.46550163921171067 38:0.4108287351876771 39:0.5589655859717706 12:0.27068141409424146 13:0.1400059210398091 40:0.673215206159461 23:0.16022808931511603 20:0.1484422642158932 41:0.278573745691591 42:0.1925340577723419 43:0.4045559775591105 23:0.16022808931511603 44:0.36730597985356844 45:0.5589655859717706 46:0.38203040937834465 25:3.0541343179975826E-4 3348:0.2 3349:-0.7 3357:0.0 3358:1.0 3359:0.0 3360:0.0 3361:1.0 3362:0.0 3363:0.0 3364:0.2 
393.284287886881 47:0.5863545170538376 8:0.1716127427232838 13:0.19982317979406375 48:1.0388768962835573 8:0.1716127427232838 49:0.24460951355437593 13:0.19982317979406375 14:0.5774017358706672 15:0.5309900763968158 19:0.43545075308048764 50:0.07076866693101598 20:0.2118639342618676 21:0.08044156154458608 22:0.5052919479044713 25:4.359007293462417E-4 3348:-0.6 3349:0.1 3357:2.0 3358:1.0 3359:1.0 3360:1.0 3361:1.0 3362:0.0 3363:4.0 3364:0.4 
218.9577691311231 67:0.29416445898242555 68:0.27081429851426614 69:0.3152583319666344 18:0.2488397302670163 70:0.3958124932967266 71:0.18594574239678532 72:0.3660823491237849 73:0.3152583319666344 74:0.3958124932967266 75:0.3039554557290105 76:0.18807121172380412 77:0.2199902813571156 65:0.2778027799645015 20:0.08072023967405159 41:0.1514834042575589 42:0.10469656583921312 58:0.22340129439891823 21:0.06129653119353644 78:0.328626797121652 18:0.2488397302670163 79:0.21673091998780208 80:0.152804585182041 81:0.24807263579155972 49:0.0931963178605817 82:0.2347041706365421 12:0.07359584797635763 83:0.23889522888095463 84:0.3958124932967266 35:0.3039554557290105 21:0.06129653119353644 13:0.19033176908570998 85:0.3449884761395761 86:0.3660823491237849 50:0.026962889063619634 13:0.19033176908570998 87:0.3660823491237849 88:0.34170387492331306 89:0.3958124932967266 13:0.19033176908570998 88:0.34170387492331306 90:0.3958124932967266 91:0.1489103838512517 13:0.19033176908570998 92:0.3958124932967266 93:0.27081429851426614 13:0.19033176908570998 94:0.3660823491237849 25:1.660783439593451E-4 3348:1.05 3349:-0.7 3357:0.0 3358:1.0 3359:0.0 3360:0.0 3361:1.0 3362:0.0 3363:0.0 3364:0.2 
43.48331331897227 129:0.4437722061113438 68:0.4209036579779206 69:0.48997924356561967 18:0.1933752266668239 110:0.5689706958336038 130:0.6151777332878796 112:0.2620335328358112 131:1.2303554665757592 77:1.0257366171298095 114:0.5361862810198955 88:0.2655406521913684 21:0.04763399558712388 121:0.5689706958336038 122:0.40186607818976905 8:0.1016216054563314 132:0.3712945596340788 133:0.3712945596340788 112:0.2620335328358112 131:1.2303554665757592 77:1.0257366171298095 134:0.5107567132788774 118:0.5361862810198955 135:0.273782356474925 119:0.5689706958336038 120:0.5689706958336038 8:0.1016216054563314 75:0.4724121432308603 76:0.29230310736609466 77:1.0257366171298095 65:0.43176526101089324 20:0.12545661118359677 41:0.23543778642690788 42:0.16272097810644076 58:0.3472136535086003 25:2.581214613368033E-4 3348:0.4 3349:-0.7 3357:0.0 3358:1.0 3359:0.0 3360:0.0 3361:1.0 3362:0.0 3363:0.0 3364:0.2 
181.23558139244395 1:0.5774017358706672 2:0.23849947371492825 152:0.6386881849992427 153:0.7107979729654388 154:0.6160208292185146 21:0.08044156154458608 155:0.905480659188786 156:0.8625366627157233 50:0.07076866693101598 20:0.2118639342618676 82:0.6160208292185146 12:0.19316476215347203 157:0.9608450998458077 8:0.0858063713616419 158:0.905480659188786 159:0.905480659188786 160:0.6056155876336051 33:0.6511086291832018 161:0.59574418852618 162:0.7291404256209516 23:0.11434261516043304 71:0.48804607992375315 163:0.6511086291832018 42:0.2747938612666534 44:0.5242367487503972 88:0.4484298336210856 25:4.359007293462417E-4 3348:0.0 3349:-0.7 3357:0.0 3358:0.0 3359:1.0 3360:0.0 3361:0.0 3362:0.0 3363:1.0 3364:0.2 
140.663979314713 164:0.8064162781674729 2:0.27711134693314515 165:0.7565198632195442 166:1.0021770390573959 167:0.7157515237440571 160:0.7036617255325712 50:0.08222576053713732 20:0.24616364671745883 82:0.7157515237440571 12:0.22443717206835417 157:1.1164011209963447 8:0.09969799418463843 13:0.11608677712929288 168:0.5316783387846745 169:0.45029320629680364 170:1.1164011209963447 171:0.4873033598661597 172:1.20706587541976 173:1.20706587541976 25:5.064708796072982E-4 3348:-0.35 3349:-0.7 3357:0.0 3358:0.0 3359:1.0 3360:0.0 3361:0.0 3362:0.0 3363:1.0 3364:0.2 
267.46227276279046 95:0.11698763605634946 198:0.2687219008031027 199:0.2590874833138991 12:0.18819629003349636 200:0.294063470059863 52:0.10158761021394465 201:0.23679529931772828 23:0.14853541419612404 202:0.294063470059863 144:0.32435029007640226 50:0.04596559751566467 203:0.422907460121936 20:0.27521932382474046 4:0.12546419335566425 204:0.21576578452890247 205:0.3120435995880993 169:0.12586077738574866 115:0.1966794314319536 21:0.07837249029491355 206:0.3120435995880993 207:0.20363103362634263 6:0.12469496015886697 21:0.07837249029491355 23:0.14853541419612404 208:0.3120435995880993 144:0.32435029007640226 50:0.04596559751566467 209:0.5014835425497328 20:0.27521932382474046 4:0.12546419335566425 210:0.5602339962054498 12:0.18819629003349636 211:0.33738516884485953 212:0.21576578452890247 23:0.14853541419612404 203:0.422907460121936 20:0.27521932382474046 21:0.07837249029491355 210:0.5602339962054498 12:0.18819629003349636 213:0.33738516884485953 23:0.14853541419612404 209:0.5014835425497328 20:0.27521932382474046 6:0.12469496015886697 25:1.4156291442825385E-4 3348:0.95 3349:-0.5 3357:1.0 3358:1.0 3359:1.0 3360:0.0 3361:0.0 3362:0.0 3363:1.0 3364:0.4 
17.47185197194315 1:0.8661026038060009 2:0.3577492105723924 214:1.0937106384314275 49:0.36691427033156393 98:0.32175041713168717 215:0.9766629437748028 19:0.6531761296207316 50:0.10615300039652398 216:1.5583153444253361 23:0.17151392274064958 217:1.5583153444253361 25:6.538510940193626E-4 3348:-0.75 3349:-0.4 3357:1.0 3358:1.0 3359:1.0 3360:0.0 3361:1.0 3362:0.0 3363:1.0 3364:0.2 
202.74795895807273 189:0.732810065487258 218:0.9542693630478738 219:0.281340147996609 220:0.6883835313753957 144:0.4587005791856955 50:0.130010342818472 13:0.1835493109784542 154:0.5658512634418273 20:0.1946094501900503 221:0.8317370951143056 41:0.3652132616865528 42:0.25241427920716913 13:0.1835493109784542 222:0.9542693630478738 50:0.130010342818472 223:0.882592581178419 224:0.9542693630478738 225:0.5562934387417959 37:0.6102777975536895 25:4.0040038702699696E-4 3348:-0.35 3349:-0.2 3357:2.0 3358:0.0 3359:1.0 3360:0.0 3361:2.0 3362:0.0 3363:2.0 3364:0.0 
38.9171078946165 26:0.43305130190300045 235:0.5620627997349648 20:0.3177959013928014 8:0.12870955704246287 57:0.6469024970367925 52:0.4692130728268138 236:0.3835514908079393 112:0.1659402043006576 99:0.5089862995367028 5:0.3330041240819218 237:0.7206338248843558 23:0.17151392274064958 225:0.4542116907252039 8:0.12870955704246287 238:0.7206338248843558 23:0.17151392274064958 239:0.6469024970367925 20:0.3177959013928014 13:0.07493369242277391 240:0.7791576722126681 241:0.7206338248843558 52:0.4692130728268138 201:0.5468553192157137 25:3.269255470096813E-4 3348:-0.15 3349:-0.3 3357:1.0 3358:2.0 3359:1.0 3360:0.0 3361:1.0 3362:0.0 3363:1.0 3364:0.2 
223.95343571349989 242:0.4935532876867424 2:0.1656057049128419 58:0.4071440981106526 38:0.4071440981106526 243:0.7213598338264813 171:0.2912194585684038 98:0.29788300329071865 244:0.3467450453618975 23:0.23818655559619478 13:0.06937511859517821 61:0.5539523404354976 62:0.5203690373290646 8:0.05958094747136693 245:0.6287341456742082 23:0.23818655559619478 246:0.7213598338264813 247:0.5745515915016364 248:0.6671772796539096 249:0.6671772796539096 21:0.05585581090130139 250:0.5745515915016364 23:0.23818655559619478 98:0.29788300329071865 251:0.6671772796539096 252:0.5203690373290646 25:3.026742425506991E-4 3348:-0.05 3349:0.8 3357:4.0 3358:2.0 3359:3.0 3360:0.0 3361:3.0 3362:0.0 3363:5.0 3364:0.2 
33.17304077066996 253:1.765185162356838 254:1.3767670627507913 59:1.3395164952053111 255:1.765185162356838 20:0.3892189003801006 112:0.40646882834980574 139:0.9282805826272007 25:8.008007740539939E-4 3348:-0.95 3349:-0.8 3357:0.0 3358:0.0 3359:0.0 3360:0.0 3361:1.0 3362:0.0 3363:0.0 3364:0.0 
203.67094031500326 95:0.1835453043385898 273:0.5293334029343801 169:0.19746663381104307 274:0.4394837044353315 23:0.11652076545317282 13:0.15272225822513125 239:0.4394837044353315 275:0.5293334029343801 21:0.12296087918234626 276:0.5293334029343801 93:0.36216909931738395 277:0.4895742779666006 278:0.4895742779666006 23:0.11652076545317282 13:0.15272225822513125 279:0.5293334029343801 280:0.5293334029343801 219:0.15605943529975405 13:0.15272225822513125 281:0.5293334029343801 21:0.12296087918234626 282:0.3317559064008791 50:0.07211676267271575 20:0.10794990020770487 8:0.0874409253084627 283:0.28166533286961004 8:0.0874409253084627 21:0.12296087918234626 284:0.29876208908715274 285:0.4064898871216051 41:0.20258386792158684 42:0.1400142502062665 80:0.2043507277516625 286:0.5293334029343801 50:0.07211676267271575 287:0.46136472986770743 139:0.25745871066768916 25:2.221021732525329E-4 3348:0.55 3349:-0.7 3357:0.0 3358:0.0 3359:1.0 3360:0.0 3361:1.0 3362:0.0 3363:0.0 3364:0.4 
546.442830109614 297:0.3008278461492751 298:0.23101409536290596 299:0.3008278461492751 4:0.27967384566181214 300:0.3008278461492751 6:0.27795913805795286 4:0.27967384566181214 220:0.21700888982422795 144:0.2892053598433194 6:0.27795913805795286 52:0.09058009894372597 13:0.05786284881605463 14:0.3343967339849574 15:0.3075178619921752 301:0.262200263965866 142:0.21113737784004685 302:0.35676261528163755 239:0.24976496002345602 303:0.41165189835177574 20:0.12269898627779886 4:0.27967384566181214 304:0.3008278461492751 6:0.27795913805795286 21:0.023293483363535258 3:0.1298519405714924 4:0.27967384566181214 305:0.2782321590784561 144:0.2892053598433194 6:0.27795913805795286 13:0.05786284881605463 14:0.3343967339849574 15:0.3075178619921752 302:0.35676261528163755 235:0.21700888982422795 303:0.41165189835177574 20:0.12269898627779886 4:0.27967384566181214 306:0.3008278461492751 6:0.27795913805795286 25:1.262238846712559E-4 3348:0.65 3349:-0.5 3357:1.0 3358:0.0 3359:0.0 3360:0.0 3361:0.0 3362:0.0 3363:3.0 3364:0.8 
365.2493162875493 318:0.3226122036588537 319:0.25383298484371425 98:0.16045789214677483 320:0.3226122036588537 321:0.30948841083072254 322:0.3885682537656602 8:0.06418783977434893 323:0.20676232773663727 324:0.35938223664613234 52:0.1169989790606661 271:0.2388867763194308 4:0.2889955281036379 325:0.30948841083072254 326:0.25383298484371425 327:0.3226122036588537 6:0.2872236683562668 42:0.2055607766423221 328:0.3226122036588537 329:0.2983924020978946 50:0.026469408867480393 330:0.2727183778434438 3:0.1677249710816662 4:0.2889955281036379 331:0.4969971525649695 332:0.28030239371119464 333:0.24849857628248476 4:0.2889955281036379 334:0.28878060213484064 6:0.2872236683562668 335:0.33867442795025043 336:0.35938223664613234 6:0.2872236683562668 337:0.2983924020978946 331:0.4969971525649695 338:0.3226122036588537 8:0.06418783977434893 145:0.3226122036588537 42:0.2055607766423221 339:0.28878060213484064 340:0.33867442795025043 4:0.2889955281036379 341:0.3885682537656602 342:0.30948841083072254 343:0.3226122036588537 344:0.3885682537656602 98:0.16045789214677483 345:0.35938223664613234 6:0.2872236683562668 25:1.6303874484375477E-4 3348:1.1 3349:0.3 3357:2.0 3358:2.0 3359:3.0 3360:0.0 3361:2.0 3362:0.0 3363:3.0 3364:0.2 
210.58442586787714 346:0.44523295555009595 347:0.3880631396523368 348:0.44523295555009595 349:0.2974511252812562 2:0.10221406016354066 350:0.4117907570767747 351:0.3880631396523368 103:0.537446546649283 352:0.44523295555009595 52:0.13406087795051821 353:0.44523295555009595 354:0.4117907570767747 8:0.07354831830997877 132:0.2687232733246415 355:0.3308933237545776 356:0.3211787427056941 357:0.3308933237545776 4:0.08278489806577373 358:0.35462094117901544 359:0.2974511252812562 360:0.44523295555009595 6:0.08227733578778458 12:0.16556979613154746 331:0.5694739829927892 361:0.6617866475091552 362:0.6423574854113882 363:0.44523295555009595 364:0.8235815141535494 331:0.5694739829927892 338:0.7393171394706199 365:0.49491577360342903 13:0.12845775843904098 366:0.44523295555009595 50:0.03032942868472113 367:0.44523295555009595 23:0.09800795585179974 13:0.12845775843904098 368:0.3880631396523368 369:0.5816986280419459 8:0.07354831830997877 21:0.03447495494767975 12:0.16556979613154746 370:0.44523295555009595 361:0.6617866475091552 362:0.6423574854113882 371:0.44523295555009595 364:0.8235815141535494 103:0.537446546649283 342:0.35462094117901544 338:0.7393171394706199 365:0.49491577360342903 5:0.1902880709039553 23:0.09800795585179974 13:0.12845775843904098 20:0.09079882896937182 369:0.5816986280419459 25:1.8681459829124642E-4 3348:1.5 3349:-0.7 3357:0.0 3358:0.0 3359:0.0 3360:0.0 3361:1.0 3362:0.0 3363:1.0 3364:0.0 
70.4641337584963 386:0.517929975651257 2:0.15999031074735112 152:0.42844505942528044 387:0.4891222670494731 388:0.5786071832754496 389:0.555069571504863 390:1.3937996162064195 391:1.3937996162064195 392:1.3937996162064195 393:0.6074148918772334 394:1.2148297837544668 75:0.535168804312279 395:0.4655846552788866 91:0.2621837857268333 154:0.4132393349065162 20:0.1421226476970248 365:0.38733285951995716 396:0.6445544877308395 397:0.555069571504863 112:0.2968428616131786 115:0.40625928665466654 171:0.28134472599573634 263:0.517929975651257 112:0.2968428616131786 99:0.45525118615205473 390:1.3937996162064195 391:1.3937996162064195 392:1.3937996162064195 394:1.2148297837544668 25:2.9241109867798014E-4 3348:0.15 3349:-0.8 3357:0.0 3358:0.0 3359:0.0 3360:0.0 3361:1.0 3362:0.0 3363:0.0 3364:0.0 
156.5952882396666 386:0.5054479010202937 2:0.3122691118587969 398:0.6801045735657412 50:0.1389869027324995 399:0.5416924353231068 160:0.7929369349646163 50:0.1389869027324995 400:0.6290207715958307 401:0.3838591369254979 112:0.14484448515127615 402:0.5927762372930174 302:0.40328029708047247 403:0.5646627923670565 20:0.13869750225516517 25:5.70728025061603E-4 404:0.6801045735657412 2:0.3122691118587969 405:0.6801045735657412 50:0.1389869027324995 160:0.7929369349646163 25:5.70728025061603E-4 3348:-0.3 3349:-0.8 3357:0.0 3358:0.0 3359:0.0 3360:0.0 3361:1.0 3362:0.0 3363:0.0 3364:0.2 
116.42044119716566 416:0.9782445340989462 4:0.25915772341964527 369:0.9105023723041095 417:0.9311693105577732 418:1.289108975461679 8:0.11512132756033347 419:1.3937996162064195 6:0.2575688021606875 49:0.32817810015044446 13:0.13404546404990667 215:0.8735538933542054 244:0.6699750782951737 50:0.09494612996087587 109:1.110139143009726 25:5.848221973559603E-4 3348:-0.6 3349:-0.4 3357:3.0 3358:0.0 3359:0.0 3360:0.0 3361:0.0 3362:0.0 3363:2.0 3364:0.2 
561.5628781293956 95:0.17379246912014143 68:0.3429249374490943 78:0.4161313655346087 18:0.15754956330743894 433:0.4635603340119733 50:0.10242716610217927 13:0.1928096422275259 434:0.4635603340119733 435:0.37249262409599443 103:0.3025066692206905 13:0.1928096422275259 436:0.4161313655346087 50:0.10242716610217927 43:0.27856783739881974 21:0.038809082904244493 13:0.1928096422275259 437:0.5012068241965435 438:0.436849724146269 50:0.10242716610217927 439:0.5012068241965435 440:0.3848907026513262 39:0.3848907026513262 12:0.09319246325716439 13:0.1928096422275259 441:0.5012068241965435 442:0.3992032339616987 23:0.055164667940835445 168:0.2207674138610631 112:0.10674394383856772 323:0.2666988068223994 443:0.5012068241965435 25:2.1030058614466922E-4 3348:0.25 3349:0.1 3357:2.0 3358:1.0 3359:1.0 3360:0.0 3361:1.0 3362:0.0 3363:5.0 3364:0.4 
64.67323101726515 444:0.5055842594851034 88:0.21823477466233174 445:0.5055842594851034 13:0.04862340030159134 446:0.5055842594851034 16:0.3647145045509646 147:0.467608972750549 8:0.16703557805231414 447:0.40268979128551907 3:0.21823477466233174 8:0.16703557805231414 448:0.44066507802007354 21:0.11744409988566407 449:0.44066507802007354 8:0.16703557805231414 21:0.11744409988566407 450:0.38825225732833085 451:0.32333307586330085 452:0.40268979128551907 8:0.16703557805231414 98:0.10438961983303587 215:0.316871301409805 453:0.38825225732833085 62:0.3647145045509646 244:0.24302550373437207 21:0.11744409988566407 19:0.21191831999153243 50:0.03444058116323703 22:0.2459075336249837 25:2.1213730735944965E-4 3348:0.15 3349:0.2 3357:5.0 3358:0.0 3359:2.0 3360:0.0 3361:1.0 3362:0.0 3363:3.0 3364:1.6 
707.3113478344807 454:0.14471833816285554 13:0.015968357917286666 455:0.16603837581758435 159:0.14471833816285554 456:0.1233983005081267 8:0.13713993050239903 457:0.16603837581758435 458:0.09679243893113733 161:0.09521474374828418 80:0.1281992133688703 356:0.11977549307889673 459:0.1233983005081267 50:0.022621187472811565 460:0.10846489934249096 461:0.16603837581758435 462:0.16603837581758435 80:0.1281992133688703 463:0.12750550082385675 50:0.022621187472811565 464:0.15356695327560496 112:0.03536183109982774 465:0.09091590223567886 8:0.13713993050239903 466:0.15356695327560496 467:0.13224691562087615 8:0.13713993050239903 468:0.13785481905774186 8:0.13713993050239903 469:0.16603837581758435 8:0.13713993050239903 470:0.15356695327560496 8:0.13713993050239903 471:0.16603837581758435 8:0.13713993050239903 472:0.14471833816285554 8:0.13713993050239903 473:0.16603837581758435 8:0.13713993050239903 22:0.08075822519866903 8:0.13713993050239903 474:0.16603837581758435 475:0.16603837581758435 23:0.018274794805708573 476:0.12750550082385675 168:0.14627040599337543 135:0.07389470609355536 477:0.13785481905774186 168:0.14627040599337543 25:6.966778198385844E-5 3348:1.1 3349:-0.8 3357:0.0 3358:0.0 3359:0.0 3360:0.0 3361:1.0 3362:0.0 3363:0.0 3364:0.0 
116.39655434954324 165:0.7213133876010279 166:0.9555383145421458 98:0.4752568628155393 460:0.7518225899763118 50:0.07839918654442699 20:0.23470782797736553 82:0.6824423010854868 12:0.21399244720325147 464:1.0644467034618565 23:0.1266714268431638 98:0.4752568628155393 478:1.00311267953247 479:0.8838021926607287 480:1.150892154967722 481:1.150892154967722 25:4.8290103624786717E-4 3348:-0.55 3349:-0.7 3357:0.0 3358:0.0 3359:1.0 3360:0.0 3361:0.0 3362:0.0 3363:1.0 3364:0.2 
303.54357093812894 482:0.299436190978761 324:0.2769450334757528 52:0.0901610677115635 271:0.18408952785789123 23:0.03295704936039427 483:0.2769450334757528 4:0.2783800506945082 325:0.23849614576879619 326:0.19560728749654865 484:0.26098730327180447 6:0.27667327547368253 42:0.0792040206268808 485:0.2769450334757528 329:0.22994540453395296 50:0.020397700769239274 330:0.21016063839480917 5:0.2559520108738478 4:0.2783800506945082 372:0.2769450334757528 331:0.5744895504809889 332:0.21600498826578793 333:0.1914965168269963 4:0.2783800506945082 334:0.22253841556484785 6:0.27667327547368253 335:0.26098730327180447 336:0.2769450334757528 6:0.27667327547368253 337:0.22994540453395296 331:0.5744895504809889 486:0.299436190978761 487:0.299436190978761 169:0.11170399666069546 488:0.299436190978761 331:0.5744895504809889 489:0.23849614576879619 490:0.2486095261017658 5:0.2559520108738478 134:0.2486095261017658 112:0.06377207653608787 491:0.1876694808918009 343:0.2486095261017658 492:0.299436190978761 493:0.299436190978761 73:0.23849614576879619 4:0.2783800506945082 494:0.299436190978761 6:0.27667327547368253 135:0.13326286298089599 495:0.2769450334757528 4:0.2783800506945082 496:0.299436190978761 497:0.299436190978761 6:0.27667327547368253 25:1.2563996225850837E-4 3348:1.4 3349:0.5 3357:4.0 3358:2.0 3359:2.0 3360:0.0 3361:3.0 3362:0.0 3363:3.0 3364:0.4 
224.40167035144466 152:0.24465936986957573 387:0.27930849711752187 13:0.07654535405850436 498:0.3680665498310785 499:0.39795783417709074 50:0.08132709136245934 500:0.3468583460745858 4:0.22198423314906462 501:0.736133099662157 6:0.2206232261817637 21:0.06162876414833464 502:0.3680665498310785 503:0.3680665498310785 50:0.08132709136245934 504:0.2545034347378994 12:0.07399474438302155 13:0.07654535405850436 197:0.2658675736260685 50:0.08132709136245934 505:0.3169670617285735 8:0.09860836590311596 44:0.20081698021687897 96:0.20608500493404389 506:0.39795783417709074 263:0.2957588579720808 507:0.3680665498310785 508:0.3169670617285735 42:0.10526403105704349 509:0.24465936986957573 501:0.736133099662157 8:0.09860836590311596 264:0.2870757773825612 510:0.33040798522002696 417:0.2658675736260685 511:0.7959156683541815 4:0.22198423314906462 512:0.4639808016921632 513:0.7959156683541815 6:0.2206232261817637 8:0.09860836590311596 21:0.06162876414833464 514:0.39795783417709074 515:0.3468583460745858 511:0.7959156683541815 4:0.22198423314906462 512:0.4639808016921632 513:0.7959156683541815 516:0.33040798522002696 517:0.39795783417709074 518:0.33040798522002696 6:0.2206232261817637 25:1.6697850417832046E-4 3348:1.25 3349:-0.5 3357:1.0 3358:0.0 3359:0.0 3360:0.0 3361:1.0 3362:0.0 3363:2.0 3364:0.6 
120.00152017692155 95:0.2923263874780036 519:0.8430513763827879 520:0.8430513763827879 49:0.19850127365047723 18:0.26500512319991587 502:0.7797283651349657 521:0.8430513763827879 50:0.11485792450366267 522:0.6999508058023373 38:0.4758282568597792 523:0.7797283651349657 98:0.17406754864153337 106:0.5088291929390587 23:0.09278933763476381 13:0.08107852208534914 197:0.5632255596739105 50:0.11485792450366267 505:0.6714769624044381 42:0.22299595244744078 524:0.8430513763827879 525:0.8430513763827879 526:0.8430513763827879 8:0.13926419913202143 527:0.8430513763827879 8:0.13926419913202143 21:0.06527854206898623 528:0.8430513763827879 529:0.6081539511566157 25:3.537346062428037E-4 3348:0.1 3349:-0.1 3357:2.0 3358:1.0 3359:0.0 3360:0.0 3361:2.0 3362:0.0 3363:3.0 3364:0.2 
116.29021252859702 543:0.9695386423957671 4:0.1802722747295181 544:0.9695386423957671 6:0.17916700784439973 545:0.9695386423957671 427:0.6333530470789821 20:0.19772339911658912 112:0.20648637128817587 3:0.4185000683469607 135:0.43148924261274557 47:0.5472191791546352 52:0.291930774634461 546:0.772222050479205 23:0.10671099171346787 98:0.4003675683899091 184:0.6633568464097165 46:0.5088601383655056 21:0.07507261221337831 547:0.8450457336822907 42:0.25645316412777625 98:0.4003675683899091 548:0.9695386423957671 549:0.9695386423957671 550:0.9695386423957671 25:4.0680720002683236E-4 3348:-0.1 3349:-0.8 3357:0.0 3358:0.0 3359:0.0 3360:0.0 3361:1.0 3362:0.0 3363:0.0 3364:0.0 
87.76193972329976 122:0.2898650495602427 46:0.23288870229143338 50:0.06045358145968735 551:0.4437262407195351 52:0.26721440387110196 185:0.2964445196015968 23:0.04883814334564916 32:0.218430578569888 552:0.4103972141392154 483:0.4103972141392154 169:0.16553107474945675 553:0.4437262407195351 112:0.09450208303726342 554:0.4103972141392154 3:0.1915338429519373 4:0.24751423596905686 491:0.5562044653434164 332:0.6401836805801727 333:0.8513202353207399 4:0.24751423596905686 334:0.3297735461819165 6:0.24599670206639526 555:0.8874524814390702 6:0.24599670206639526 8:0.03664971155898479 21:0.03435828809888728 556:0.4437262407195351 52:0.26721440387110196 271:0.27279719891310716 557:0.38674989345072586 489:0.35342086687040614 558:0.38674989345072586 42:0.11737025577222614 329:0.3407497590423893 50:0.06045358145968735 330:0.3114312592520279 5:0.18964411619454802 103:0.2678138856969111 491:0.5562044653434164 332:0.6401836805801727 333:0.8513202353207399 4:0.24751423596905686 333:0.8513202353207399 6:0.24599670206639526 555:0.8874524814390702 25:1.8618239817599908E-4 3348:0.95 3349:0.0 3357:2.0 3358:2.0 3359:1.0 3360:1.0 3361:2.0 3362:0.0 3363:1.0 3364:0.2 
137.97488139678302 559:1.0586668058687603 560:0.9791485559332012 52:0.31876751188933017 561:0.7430300627373174 12:0.1968444215931416 562:1.0586668058687603 563:0.7867921136020694 564:1.0586668058687603 135:0.942310740941253 102:0.5796831446259502 20:0.21589980041540974 565:0.878967408870663 566:1.0586668058687603 112:0.22546833884507625 409:0.7430300627373174 135:0.942310740941253 3:0.45697212183099367 23:0.11652076545317282 76:0.5030279548105251 25:4.442043465050658E-4 3348:-0.35 3349:-0.8 3357:0.0 3358:0.0 3359:0.0 3360:0.0 3361:0.0 3362:0.0 3363:1.0 3364:0.0 
707.3113478344807 26:0.15270959133120984 27:0.2541216165704688 8:0.15885679870955205 98:0.11346086363188418 71:0.12907705811374492 154:0.16292346080259054 575:0.2541216165704688 50:0.03743339700838944 58:0.15507739778350274 8:0.15885679870955205 512:0.16017151169779953 576:0.2541216165704688 8:0.15885679870955205 577:0.16891845947126352 568:0.1422858301815457 308:0.11516679361470378 23:0.03024101409491204 98:0.11346086363188418 578:0.2541216165704688 50:0.03743339700838944 579:0.2747592471915136 580:0.228121276900711 8:0.15885679870955205 571:0.16292346080259054 581:0.2747592471915136 8:0.15885679870955205 582:0.2747592471915136 583:0.2747592471915136 8:0.15885679870955205 21:0.021274958536442044 13:0.02642433701627233 584:0.23947898461809694 585:0.2747592471915136 586:0.2747592471915136 8:0.15885679870955205 587:0.2747592471915136 588:0.2541216165704688 25:1.1528580207516229E-4 3348:0.55 3349:-0.3 3357:2.0 3358:1.0 3359:0.0 3360:1.0 3361:0.0 3362:0.0 3363:2.0 3364:0.2 
8.553027811344249 47:0.4758282568597792 49:0.39700254730095447 13:0.08107852208534914 603:0.7347999736522606 301:0.7347999736522606 142:0.5916994030718096 8:0.06963209956601071 604:0.8430513763827879 219:0.24855057511510975 605:0.8430513763827879 144:0.40524003976713885 50:0.057428962251831334 606:0.5916994030718096 91:0.3171681192219843 225:0.49145866708544556 607:0.7347999736522606 23:0.18557867526952762 162:0.5916994030718096 608:0.8430513763827879 310:0.48344800034128205 609:0.626548570921733 49:0.39700254730095447 610:0.7347999736522606 15:0.43089986537707403 23:0.18557867526952762 611:0.6081539511566157 112:0.1795478920660956 612:0.8430513763827879 25:3.537346062428037E-4 3348:0.1 3349:1.7 3357:7.0 3358:5.0 3359:2.0 3360:1.0 3361:6.0 3362:0.0 3363:5.0 3364:0.2 
26.5443890628879 621:0.7060740649427353 622:0.5673638617445897 112:0.1625875313399223 13:0.14683944878276337 16:0.5507068251003167 623:0.7634154904382991 624:1.172496104779613 625:1.330779352182889 626:0.7634154904382991 627:0.7634154904382991 628:0.7060740649427353 629:0.7634154904382991 23:0.08402431889954551 308:0.31998964594735946 630:0.7634154904382991 8:0.06305454795473582 21:0.0591122339690776 13:0.14683944878276337 631:0.7634154904382991 512:0.44503475099343676 632:0.7634154904382991 633:0.7634154904382991 634:0.7634154904382991 635:0.7634154904382991 49:0.179750548331588 636:0.7060740649427353 251:0.7060740649427353 12:0.1419465310686246 637:0.7060740649427353 624:1.172496104779613 625:1.330779352182889 25:3.203203096215976E-4 3348:0.25 3349:-0.2 3357:3.0 3358:1.0 3359:2.0 3360:0.0 3361:1.0 3362:0.0 3363:0.0 3364:0.0 
14.082459782191865 139:0.7017141624347768 49:0.3396966063663414 646:0.841036625650135 50:0.09827858141826551 13:0.13875023719035642 14:0.8018551990689383 198:1.1491031830032727 17:0.8869655387393232 23:0.15879103706412986 71:0.6777643056129177 20:0.29422183313479133 21:0.11171162180260279 468:1.1978306686994318 25:6.053484851013982E-4 3348:-0.65 3349:0.0 3357:1.0 3358:1.0 3359:2.0 3360:1.0 3361:2.0 3362:0.0 3363:2.0 3364:0.4 
222.5695667414974 43:0.2611397606158494 647:0.2611397606158494 648:0.4698497547738439 649:0.4345585469781975 8:0.116422174811644 620:0.2944749573768175 12:0.0873620507429059 13:0.1807468668525371 650:0.37422782876610944 50:0.06401266776103963 651:0.4698497547738439 21:0.03638106507186461 652:0.4698497547738439 23:0.10342678691867983 20:0.09581906953024594 8:0.116422174811644 257:0.40951903656175587 23:0.10342678691867983 468:0.3900968833845521 13:0.1807468668525371 653:0.31389711055402136 654:0.40951903656175587 655:0.4345585469781975 656:0.4698497547738439 270:0.22325018589598883 13:0.1807468668525371 657:0.4698497547738439 436:0.3900968833845521 50:0.06401266776103963 13:0.1807468668525371 658:0.4698497547738439 8:0.116422174811644 659:0.4698497547738439 660:0.4345585469781975 661:0.4698497547738439 25:1.9714352251141976E-4 3348:0.45 3349:-0.8 3357:0.0 3358:0.0 3359:0.0 3360:0.0 3361:0.0 3362:0.0 3363:1.0 3364:0.8 
74.73024427910647 662:0.8321162655682648 271:0.5531201933063195 42:0.23797846466093847 43:0.5000445714532303 52:0.2709002939038524 185:0.6010672053816163 12:0.3345711822817713 663:0.6908999555037308 388:0.7469786616072663 664:0.784169253492968 665:0.899693783586292 12:0.3345711822817713 666:0.784169253492968 667:0.784169253492968 668:0.899693783586292 112:0.19161124324473228 40:0.8321162655682648 23:0.19804721892816537 209:0.6686447233996438 669:0.899693783586292 20:0.18347954921649362 23:0.19804721892816537 76:0.42749155957692275 25:3.7750110514201025E-4 3348:-0.15 3349:-0.7 3357:0.0 3358:1.0 3359:0.0 3360:0.0 3361:1.0 3362:0.0 3363:0.0 3364:0.2 
35.3133442543501 670:0.6240871991761986 20:0.13760966191237023 671:0.588126940119726 427:0.4407950655770202 13:0.1297889624749834 672:0.48676066309268484 673:0.588126940119726 21:0.0522483268632757 674:0.6747703376897191 23:0.07426770709806202 13:0.1297889624749834 675:0.6747703376897191 50:0.04596559751566467 676:0.6747703376897191 154:0.40011726552269167 677:0.588126940119726 4:0.12546419335566425 678:0.6747703376897191 8:0.16719861916292267 679:0.6747703376897191 8:0.16719861916292267 680:0.6747703376897191 6:0.12469496015886697 310:0.3869472010654634 681:0.47359059863545655 682:0.6240871991761986 88:0.291263720798017 683:0.30030380349547026 509:0.4148401449797396 8:0.16719861916292267 79:0.3694769582685685 171:0.272410859581194 139:0.32819674740974647 25:2.831258288565077E-4 3348:0.35 3349:0.1 3357:1.0 3358:2.0 3359:2.0 3360:1.0 3361:1.0 3362:0.0 3363:3.0 3364:0.8 
116.26284695851989 684:0.8430513763827879 20:0.17192814858459274 671:0.7347999736522606 365:0.4685630510149612 80:0.3254624804345103 685:0.8430513763827879 50:0.11485792450366267 686:1.3429539248088762 687:0.7347999736522606 12:0.15675372046938832 686:1.3429539248088762 688:0.8430513763827879 112:0.1795478920660956 689:0.7797283651349657 539:0.6714769624044381 154:0.49990254842608817 677:0.7347999736522606 310:0.48344800034128205 690:0.6714769624044381 49:0.19850127365047723 509:0.5182971681912054 23:0.09278933763476381 691:0.5632255596739105 375:0.5632255596739105 220:0.6081539511566157 144:0.40524003976713885 50:0.11485792450366267 160:0.49145866708544556 25:3.537346062428037E-4 3348:0.1 3349:0.7 3357:4.0 3358:1.0 3359:5.0 3360:0.0 3361:3.0 3362:0.0 3363:3.0 3364:0.0 
47.57761675832449 692:0.9189007348110524 2:0.3005694567847582 693:1.3092467648604278 694:1.3092467648604278 695:1.1411338801811497 52:0.39421783262698284 696:1.0870136194903308 23:0.1441005180883502 697:1.2109070314349901 698:1.2109070314349901 21:0.10137664490309758 13:0.12591378854674906 459:0.9730209955018714 50:0.08918635938904196 477:1.0870136194903308 699:1.3092467648604278 25:5.493447989251435E-4 3348:-0.5 3349:-0.4 3357:0.0 3358:2.0 3359:1.0 3360:0.0 3361:1.0 3362:0.0 3363:1.0 3364:0.0 
141.46226956689816 710:0.6923625836893821 26:0.41606223285970123 646:0.43639247683508464 711:0.7485904774469025 712:0.7485904774469025 52:0.22540266927890876 713:0.7485904774469025 103:0.451816697240314 13:0.14398792590548437 714:0.5563460389121196 50:0.10198850384619638 642:0.6524682581795112 687:0.6524682581795112 314:0.5400124706644699 282:0.46917370222950233 672:0.5400124706644699 219:0.44140273987439743 101:0.6524682581795112 20:0.1526642129305584 21:0.05796431432699788 53:0.6215238152544146 219:0.44140273987439743 715:0.6923625836893821 8:0.06183007123884038 594:0.46022381964472814 41:0.2864968535327079 42:0.198010051567202 13:0.14398792590548437 716:0.6524682581795112 717:0.7485904774469025 451:0.47874129206749083 50:0.10198850384619638 139:0.3641016003773367 25:3.140999056462709E-4 3348:0.35 3349:0.0 3357:2.0 3358:1.0 3359:1.0 3360:0.0 3361:2.0 3362:0.0 3363:3.0 3364:0.4 
270.4461332646945 26:0.3586005466459544 98:0.26643465787993614 184:0.44144748071442635 46:0.3386337645163958 50:0.1318545532700936 283:0.34332153636032575 82:0.3825852822730937 12:0.23993342935320328 98:0.26643465787993614 178:0.5967415001398116 512:0.376123013304149 50:0.1318545532700936 47:0.3641607520053052 8:0.05329081948392826 718:0.5967415001398116 723:0.6452038498695857 724:0.5356861601491918 21:0.09991791209094697 725:0.6452038498695857 726:0.6452038498695857 12:0.23993342935320328 31:0.4954700358035512 50:0.1318545532700936 727:0.6452038498695857 728:0.6452038498695857 21:0.09991791209094697 729:0.6452038498695857 25:2.7072007255264896E-4 3348:0.05 3349:-0.3 3357:1.0 3358:0.0 3359:2.0 3360:0.0 3361:1.0 3362:0.0 3363:2.0 3364:0.2 
109.68289561653867 253:0.467608972750549 673:0.44066507802007354 558:0.44066507802007354 8:0.16703557805231414 758:0.5055842594851034 52:0.3044656459483908 759:0.5055842594851034 12:0.0940063866867659 760:0.44066507802007354 761:0.40268979128551907 21:0.0782960665904427 52:0.3044656459483908 762:0.5055842594851034 170:0.467608972750549 112:0.21535244611505397 20:0.10310660550694384 236:0.24888107166274606 112:0.21535244611505397 763:0.4197657696093895 207:0.30514869902743574 50:0.03444058116323703 88:0.21823477466233174 4:0.0940063866867659 764:0.5055842594851034 8:0.16703557805231414 765:0.5055842594851034 8:0.16703557805231414 766:0.5055842594851034 8:0.16703557805231414 21:0.0782960665904427 767:0.5055842594851034 768:0.467608972750549 769:0.3647145045509646 770:0.4197657696093895 6:0.09343002436843154 25:2.1213730735944965E-4 3348:0.45 3349:-0.2 3357:2.0 3358:1.0 3359:0.0 3360:0.0 3361:2.0 3362:0.0 3363:2.0 3364:0.6 
42.97099879040895 95:0.3258389353678015 167:0.5572118055167498 620:0.588949914753635 568:0.48662938992545696 50:0.06401266776103963 771:0.9396995095476878 23:0.10342678691867983 772:0.869117093956395 683:0.41820945749657573 47:0.5303776165084434 4:0.3494482029716236 773:0.9396995095476878 6:0.3473057019831151 21:0.07276213014372922 450:0.7216214685239125 451:0.6009600320997363 452:0.7484556575322189 4:0.3494482029716236 774:0.8190380731235117 6:0.3473057019831151 25:3.942870450228395E-4 3348:-0.3 3349:-0.6 3357:1.0 3358:1.0 3359:0.0 3360:0.0 3361:1.0 3362:0.0 3363:0.0 3364:0.0 
137.28606580676214 242:0.6155691015465545 2:0.2065466030263468 808:0.899693783586292 803:0.8321162655682648 695:0.784169253492968 49:0.21183805274544354 80:0.3473294494742045 696:0.7469786616072663 809:0.899693783586292 12:0.3345711822817713 810:0.7469786616072663 698:0.8321162655682648 8:0.07431049740574341 12:0.3345711822817713 811:0.8321162655682648 13:0.08652597498332226 459:0.6686447233996438 50:0.12257492670843911 812:0.899693783586292 21:0.06966443581770093 813:0.899693783586292 50:0.12257492670843911 814:0.899693783586292 25:3.7750110514201025E-4 3348:-0.15 3349:-0.2 3357:1.0 3358:2.0 3359:1.0 3360:0.0 3361:0.0 3362:0.0 3363:3.0 3364:0.0 
606.6453423454739 349:0.186732481108646 2:0.06416746630384694 95:0.09691824294852501 237:0.7755362467751203 50:0.07616026953739814 5:0.11945815828289495 169:0.1042691844331883 13:0.1612852257882433 840:0.5590125395060586 23:0.09229046661340595 13:0.1612852257882433 841:0.2795062697530293 21:0.043285053081590696 225:0.162938799013926 643:0.23206253405321237 489:0.22262228168350973 365:0.15534795885775868 13:0.1612852257882433 303:0.19123775943262242 50:0.07616026953739814 20:0.057001265667354396 8:0.02308591024223674 721:0.22262228168350973 23:0.09229046661340595 241:0.25851208225837347 112:0.059527524607975356 13:0.1612852257882433 840:0.5590125395060586 237:0.7755362467751203 50:0.07616026953739814 842:0.2795062697530293 37:0.17875086145751978 23:0.09229046661340595 13:0.1612852257882433 843:0.25851208225837347 21:0.043285053081590696 13:0.1612852257882433 844:0.2795062697530293 237:0.7755362467751203 50:0.07616026953739814 845:0.2795062697530293 846:0.24361646917816562 25:1.1727759783478516E-4 3348:0.8 3349:0.5 3357:4.0 3358:1.0 3359:1.0 3360:0.0 3361:3.0 3362:0.0 3363:5.0 3364:0.0 
168.09877323396987 26:0.1857118915992132 98:0.0689905310592342 854:0.3341378827976957 50:0.02276159246715095 168:0.29435655181475084 112:0.14232525845142366 323:0.17779920454826625 20:0.06814259388065964 135:0.14870671025585674 855:0.2565938017675508 8:0.08279467767518676 41:0.1278796016670017 42:0.08838298294813712 284:0.18859140827765428 88:0.14423017368611782 375:0.2232307559409495 504:0.21368906840070107 8:0.08279467767518676 13:0.06426988074250864 856:0.6682757655953914 52:0.20121968675495447 857:0.3341378827976957 4:0.24851323535243838 858:0.3341378827976957 310:0.5748343308681193 859:0.3341378827976957 6:0.246989576487198 4:0.24851323535243838 860:0.3341378827976957 326:0.4365524734352028 861:0.3341378827976957 310:0.5748343308681193 862:0.2565938017675508 359:0.2232307559409495 863:0.29123314943084605 6:0.246989576487198 8:0.08279467767518676 864:0.24832841606399633 23:0.0367764452938903 168:0.29435655181475084 112:0.14232525845142366 505:0.2661354893077992 4:0.24851323535243838 325:0.2661354893077992 326:0.4365524734352028 865:0.2661354893077992 6:0.246989576487198 13:0.06426988074250864 856:0.6682757655953914 52:0.20121968675495447 866:0.3341378827976957 4:0.24851323535243838 867:0.3341378827976957 310:0.5748343308681193 868:0.3341378827976957 6:0.246989576487198 25:1.4020039076311283E-4 3348:1.5 3349:-0.3 3357:1.0 3358:1.0 3359:1.0 3360:0.0 3361:2.0 3362:0.0 3363:1.0 3364:0.4 
258.74737528514197 869:0.24873420765010118 50:0.016943863472670413 870:0.24873420765010118 706:0.19811282547877543 225:0.14500015725585963 607:0.21679567147130008 3:0.10736579064509591 52:0.07489455988876625 561:0.17457522318696636 12:0.046248678964798125 195:0.12098006293489666 603:0.21679567147130008 4:0.13874603689439435 871:0.49746841530020236 144:0.358686539242922 8:0.12326569125747222 325:0.5943384764363262 326:0.4874583480407411 872:0.24873420765010118 8:0.12326569125747222 358:0.5943384764363262 359:0.49852286789992284 863:0.6503870144139001 6:0.1378953714204557 594:0.1529185991136978 23:0.02737660244858109 235:0.1794299794862508 303:0.3403671238379329 4:0.13874603689439435 871:0.49746841530020236 144:0.358686539242922 8:0.12326569125747222 325:0.5943384764363262 326:0.4874583480407411 873:0.24873420765010118 8:0.12326569125747222 358:0.5943384764363262 359:0.49852286789992284 863:0.6503870144139001 6:0.1378953714204557 21:0.019259806570448755 239:0.20651375936576755 303:0.3403671238379329 20:0.0507257481678321 4:0.13874603689439435 874:0.24873420765010118 144:0.358686539242922 8:0.12326569125747222 325:0.5943384764363262 326:0.4874583480407411 875:0.2300513616575766 8:0.12326569125747222 358:0.5943384764363262 359:0.49852286789992284 863:0.6503870144139001 6:0.1378953714204557 25:1.0436599650633186E-4 3348:1.5 3349:2.7 3357:8.0 3358:3.0 3359:7.0 3360:0.0 3361:1.0 3362:0.0 3363:17.0 3364:0.0 
113.01568465091222 951:1.0796325403035505 456:0.8023736680795726 365:0.6000534857438765 952:1.0796325403035505 8:0.08917259688689211 953:1.0796325403035505 954:0.9985395186819178 112:0.4598669837873575 203:0.6766519361950976 20:0.22017545905979238 112:0.4598669837873575 955:1.0796325403035505 21:0.08359732298124112 956:0.8599100825699287 957:1.0796325403035505 23:0.11882833135689924 13:0.10383116997998672 958:1.0796325403035505 25:4.530013261704123E-4 3348:-0.4 3349:-0.8 3357:0.0 3358:0.0 3359:0.0 3360:0.0 3361:1.0 3362:0.0 3363:0.0 3364:0.0 
255.33778462304073 963:0.6392494223086422 8:0.057086905404557686 98:0.4281205541080495 964:0.6392494223086422 329:0.5307640478908462 50:0.09416466704251165 965:0.6911639096724659 966:0.6911639096724659 52:0.20811137042612268 174:0.4850965009186902 77:0.38414488053752205 80:0.2668258741169255 328:0.5738449032518694 967:0.5738449032518694 112:0.14719983447071228 98:0.4281205541080495 968:0.5738449032518694 512:0.4029155319603726 50:0.09416466704251165 43:0.38414488053752205 23:0.07607204397284842 98:0.4281205541080495 45:0.5307640478908462 20:0.14095289407904443 46:0.36275579675720443 4:0.12851235088445462 862:0.5307640478908462 359:0.46175261764228404 969:0.6911639096724659 6:0.12772442913678478 25:2.900043820416186E-4 3348:0.2 3349:-0.6 3357:0.0 3358:0.0 3359:1.0 3360:0.0 3361:1.0 3362:0.0 3363:1.0 3364:0.0 
163.47943811723454 1:0.41606223285970123 2:0.17185716184255365 139:0.3641016003773367 49:0.17625991413880196 646:0.43639247683508464 50:0.10198850384619638 13:0.14398792590548437 14:0.41606223285970123 15:0.3826190728000993 88:0.32312808615990074 23:0.16478524680197137 71:0.35167462987500264 20:0.1526642129305584 8:0.06183007123884038 98:0.30912780168788245 970:0.6524682581795112 23:0.16478524680197137 32:0.368504352673585 13:0.14398792590548437 433:0.6923625836893821 50:0.10198850384619638 649:0.6923625836893821 971:0.6524682581795112 98:0.30912780168788245 972:0.6524682581795112 973:0.7485904774469025 106:0.451816697240314 25:3.140999056462709E-4 3348:0.05 3349:0.0 3357:1.0 3358:1.0 3359:2.0 3360:1.0 3361:2.0 3362:0.0 3363:2.0 3364:0.0 
72.01725956653884 318:0.7575746328585528 825:0.7267566649679251 8:0.07536459966414773 1017:0.9124560349809023 1018:0.9124560349809023 112:0.19432926897852745 5:0.38997449878045176 1019:1.8249120699618047 529:1.316441105431221 1020:0.7267566649679251 23:0.10042826982857338 1021:0.9124560349809023 144:0.43860164428879983 1022:0.9124560349809023 1023:0.7267566649679251 50:0.062156832498404035 1019:1.8249120699618047 529:1.316441105431221 135:0.40608485957656487 250:0.7267566649679251 91:0.34327915545237037 20:0.18608222601118782 25:3.8285599821058443E-4 3348:-0.2 3349:0.3 3357:7.0 3358:1.0 3359:0.0 3360:0.0 3361:2.0 3362:0.0 3363:2.0 3364:0.0 
126.32416992387337 1040:0.5509476736351028 1041:0.5509476736351028 50:0.15012301284736074 20:0.11235781845407063 42:0.1457314520475645 1042:0.5509476736351028 98:0.22751190180341632 1043:0.509565064328127 50:0.15012301284736074 795:0.509565064328127 1044:0.5509476736351028 1045:0.5509476736351028 1046:0.4802036357592418 50:0.15012301284736074 214:0.3866851045453653 23:0.060639328918909455 98:0.22751190180341632 655:0.509565064328127 1047:0.5509476736351028 314:0.39743841714529 908:0.509565064328127 93:0.3769575500531356 13:0.05298612205149045 914:0.4802036357592418 915:0.4802036357592418 50:0.15012301284736074 76:0.2617840475775141 49:0.12972378433278148 162:0.3866851045453653 25:2.3117127123366708E-4 3348:0.15 3349:0.1 3357:3.0 3358:2.0 3359:0.0 3360:0.0 3361:3.0 3362:0.0 3363:2.0 3364:0.0 
148.6229781139313 203:0.5802242484569919 88:0.39961052816162107 169:0.34535912394547463 14:1.029083238149054 705:0.7686347015837464 561:0.6497609408221965 171:0.7474892319300706 98:0.19114823098479602 19:0.38804444392498855 50:0.06306427951333207 235:0.6678301201873988 303:0.6334153798360768 20:0.18879889855928383 8:0.07646487099792641 112:0.19716634268321215 1048:0.8069035049178082 171:0.7474892319300706 13:0.08903449372629528 14:1.029083238149054 15:0.47318266754037336 616:0.5069182046865383 25:3.884454325295293E-4 3348:-0.25 3349:-0.7 3357:0.0 3358:0.0 3359:0.0 3360:0.0 3361:1.0 3362:0.0 3363:1.0 3364:0.0 
277.81259996823434 349:0.3348461339114242 2:0.11506422389489628 1075:0.5012068241965435 50:0.06828477740145285 397:0.3992032339616987 21:0.038809082904244493 20:0.10221389082098944 52:0.3018295301324317 313:0.4161313655346087 23:0.11032933588167089 1076:0.37249262409599443 184:0.3429249374490943 7:0.2874171654340596 565:0.4161313655346087 13:0.1928096422275259 34:0.3992032339616987 58:0.28288711241648135 512:0.5843592565156305 132:0.3025066692206905 133:0.3025066692206905 13:0.1928096422275259 1077:0.5012068241965435 512:0.5843592565156305 52:0.3018295301324317 1078:0.5012068241965435 23:0.11032933588167089 13:0.1928096422275259 1079:0.5012068241965435 50:0.06828477740145285 13:0.1928096422275259 76:0.23814956917041596 25:2.1030058614466922E-4 3348:0.25 3349:0.0 3357:2.0 3358:2.0 3359:1.0 3360:0.0 3361:1.0 3362:1.0 3363:2.0 3364:0.0 
57.42747766986747 67:0.6048119087911603 369:0.5316188516214834 561:0.571171752695858 18:0.2558113797405809 98:0.3360573505023126 1081:0.7093077779916178 102:0.44560597791223344 1082:0.6048119087911603 1083:0.7526774822295449 91:0.3061647005469161 13:0.07826568917437031 3:0.3512772643381298 1084:0.8138036471920752 2:0.18682843198933025 1085:0.7526774822295449 8:0.06721637396714433 1086:0.8138036471920752 4:0.15131551054012338 1087:0.8138036471920752 1088:0.8138036471920752 6:0.15038778039828257 515:0.7093077779916178 271:0.5003160395907027 174:0.571171752695858 1089:0.7526774822295449 565:0.6756676218963156 1090:0.6756676218963156 1091:0.8138036471920752 171:0.32853985819964066 282:0.5100455877333274 219:0.23992768436988204 20:0.16596349676036087 23:0.0895702249033768 98:0.3360573505023126 1092:0.8138036471920752 1093:0.8138036471920752 46:0.42712298242102587 25:3.414625973728777E-4 3348:0.55 3349:1.0 3357:8.0 3358:2.0 3359:1.0 3360:1.0 3361:2.0 3362:1.0 3363:4.0 3364:0.4 
139.94487901288565 1126:1.0586668058687603 50:0.07211676267271575 1127:1.0586668058687603 77:0.5884008525014224 643:0.878967408870663 1128:0.878967408870663 509:0.6508547674687237 88:0.45697212183099367 4:0.1968444215931416 1129:0.9791485559332012 1130:1.0586668058687603 331:0.6770424281098646 8:0.0874409253084627 1131:0.9791485559332012 708:0.7243381986347679 21:0.08197391945489751 43:0.5884008525014224 491:0.6635118128017582 6:0.19563754926053464 91:0.39828576182488934 611:0.7636929598642964 112:0.22546833884507625 1132:0.9791485559332012 169:0.39493326762208614 546:0.8432112097998556 25:4.442043465050658E-4 3348:-0.05 3349:-0.4 3357:1.0 3358:0.0 3359:0.0 3360:0.0 3361:2.0 3362:0.0 3363:2.0 3364:0.0 
106.56472483930587 165:1.0200911754666548 1133:1.3513352437926311 79:0.8912119558244669 98:0.3360573505023126 254:1.1741108961331137 1134:1.2498850473158818 1135:1.5053549644590898 20:0.33192699352072175 91:0.6123294010938322 115:0.9488172771494143 25:6.829251947457554E-4 3348:-0.8 3349:-0.8 3357:0.0 3358:0.0 3359:0.0 3360:0.0 3361:1.0 3362:0.0 3363:0.0 3364:0.0 
55.68759196605306 1136:0.7088134883326992 20:0.14455227066196608 427:0.46303382146468797 368:0.6177988046065989 1137:0.7088134883326992 1138:0.6555733113379345 23:0.1560292431314755 342:0.5645586276118341 160:0.4132043929313315 4:0.1317940454492382 1139:0.7088134883326992 144:0.34071423669558915 6:0.13098600331236834 8:0.11708935606055801 23:0.1560292431314755 32:0.34892356175192457 646:0.4132043929313315 52:0.2134257075189918 41:0.27127360054251426 42:0.3749772395047365 115:0.4132043929313315 21:0.10976866277288877 284:0.4000627909999503 116:0.4974839371417791 1140:0.6555733113379345 42:0.3749772395047365 3:0.3059584015955023 8:0.11708935606055801 709:0.4974839371417791 1141:0.7088134883326992 21:0.10976866277288877 1142:0.7088134883326992 1143:0.7088134883326992 25:2.974099411008026E-4 3348:0.35 3349:0.9 3357:5.0 3358:3.0 3359:0.0 3360:0.0 3361:4.0 3362:1.0 3363:5.0 3364:0.8 
52.940753575757675 416:1.012579292394885 4:0.26825372905420297 1054:1.2574682913484163 417:0.9638518066987263 1144:1.4427196676529626 6:0.26660903929823254 49:0.3396966063663414 13:0.13875023719035642 215:0.9042141840497416 204:0.9226533045664487 616:0.789974965799061 50:0.09827858141826551 109:1.1491031830032727 25:6.053484851013982E-4 3348:-0.65 3349:-0.6 3357:2.0 3358:0.0 3359:0.0 3360:0.0 3361:0.0 3362:0.0 3363:1.0 3364:0.4 
154.9795578545329 692:0.5468553192157137 2:0.1788746052861962 26:0.43305130190300045 825:0.6205866470632772 12:0.14487357161510403 1170:0.7791576722126681 8:0.06435477852123143 20:0.1588979506964007 112:0.1659402043006576 1171:0.7791576722126681 5:0.3330041240819218 23:0.17151392274064958 1172:0.7791576722126681 21:0.06033117115843957 43:0.43305130190300045 23:0.17151392274064958 533:0.5790633165705109 38:0.43976588779037823 133:0.4702657283181227 982:0.6469024970367925 98:0.32175041713168717 1173:0.7791576722126681 1174:0.7791576722126681 50:0.05307650019826199 88:0.33632237521581426 270:0.370218550497044 32:0.3835514908079393 1175:0.7791576722126681 1176:0.7206338248843558 647:0.43305130190300045 1177:0.7206338248843558 98:0.32175041713168717 1178:0.7206338248843558 1179:0.6469024970367925 81:0.4883314718874014 25:3.269255470096813E-4 3348:0.45 3349:-0.7 3357:0.0 3358:0.0 3359:1.0 3360:0.0 3361:1.0 3362:0.0 3363:0.0 3364:0.0 
650.4320212506301 203:0.11954160297816703 88:0.08233038041830996 169:0.0711531505092512 13:0.018343470009560988 19:0.07994745992937069 50:0.025985832490576084 20:0.03889758663880117 23:0.04198592644100215 288:0.1662435492537432 144:0.5500969917766949 50:0.025985832490576084 168:0.08401323478355825 4:0.07092894878597981 1207:0.1907347006512741 8:0.1260303515396898 1208:0.1907347006512741 8:0.1260303515396898 1209:0.1907347006512741 1210:0.3814694013025482 144:0.5500969917766949 8:0.1260303515396898 1211:0.1907347006512741 1210:0.3814694013025482 144:0.5500969917766949 6:0.07049407648846748 8:0.1260303515396898 769:0.13759073891966292 23:0.04198592644100215 875:0.17640829548423398 144:0.5500969917766949 4:0.07092894878597981 1212:0.1907347006512741 1213:0.1907347006512741 710:0.35281659096846796 484:0.1662435492537432 144:0.5500969917766949 8:0.1260303515396898 1214:0.1907347006512741 8:0.1260303515396898 1215:0.1907347006512741 8:0.1260303515396898 709:0.13386800814520716 369:0.1245978226743749 417:0.12742599268917215 710:0.35281659096846796 708:0.13050038852735352 144:0.5500969917766949 8:0.1260303515396898 1216:0.1907347006512741 6:0.07049407648846748 25:8.003007423011777E-5 3348:1.2 3349:-0.3 3357:2.0 3358:0.0 3359:0.0 3360:0.0 3361:2.0 3362:0.0 3363:2.0 3364:0.0 
151.26884029775147 165:0.5043465754796962 1133:0.668118026038264 13:0.07739118475286193 672:0.5804959634389953 162:0.5647897450953067 460:0.5256787897475705 50:0.10963434738284976 401:0.45418825590460116 82:0.47716768249603814 12:0.14962478137890278 1240:0.8047105836131735 23:0.17713881771126433 98:0.33230240191635035 1241:0.8047105836131735 8:0.06646532945642562 18:0.25295306232186004 50:0.10963434738284976 755:0.5980540217272591 23:0.17713881771126433 98:0.33230240191635035 1242:0.8047105836131735 1243:0.8047105836131735 1244:0.668118026038264 1245:0.8047105836131735 219:0.2372468439781713 1246:0.8047105836131735 25:3.3764725307153216E-4 3348:0.0 3349:-0.7 3357:0.0 3358:0.0 3359:1.0 3360:0.0 3361:0.0 3362:0.0 3363:1.0 3364:0.2 
57.74892152797115 1258:0.7526774822295449 13:0.15653137834874062 1259:0.6756676218963156 50:0.11087319289014692 593:0.5003160395907027 219:0.23992768436988204 337:0.6249425236579409 865:0.6481816130290874 456:0.6048119087911603 319:0.5316188516214834 98:0.1680286752511563 1260:0.6481816130290874 50:0.11087319289014692 1261:0.6756676218963156 21:0.06301385313793897 822:0.6481816130290874 1225:0.6249425236579409 1262:0.6756676218963156 8:0.06721637396714433 1263:0.8138036471920752 1264:0.8138036471920752 49:0.1916147283480417 1265:0.6481816130290874 1266:0.7526774822295449 13:0.15653137834874062 883:0.6481816130290874 42:0.2152596205814141 32:0.4006064667489567 402:0.7093077779916178 568:0.42143341390356887 308:0.341110108711776 25:3.414625973728777E-4 3348:0.25 3349:-0.8 3357:0.0 3358:1.0 3359:0.0 3360:0.0 3361:0.0 3362:0.0 3363:0.0 3364:0.2 
62.79649102790869 1:0.2526680978809333 2:0.10436617111704101 1258:0.42046098695940715 1278:0.45460730893128054 102:0.4978491683131025 1279:0.45460730893128054 112:0.19363893191579445 98:0.09386424371871516 102:0.4978491683131025 1280:0.45460730893128054 435:0.33786026299320077 4:0.16905585833525413 1281:0.45460730893128054 8:0.07509687377478648 1282:0.45460730893128054 6:0.16801936039216459 50:0.0929040390018898 1283:0.45460730893128054 4:0.16905585833525413 1284:0.9092146178625611 6:0.16801936039216459 1285:0.45460730893128054 8:0.07509687377478648 167:0.2695676190494538 160:0.2650143376235047 50:0.0929040390018898 1286:0.33786026299320077 20:0.09271059290945342 752:0.42046098695940715 12:0.16905585833525413 1287:0.45460730893128054 1284:0.9092146178625611 30:0.37744170892095397 223:0.42046098695940715 112:0.19363893191579445 1151:0.42046098695940715 169:0.16959023273973398 162:0.319068185951914 12:0.16905585833525413 13:0.13116242889784513 1288:0.45460730893128054 1289:0.45460730893128054 1290:0.45460730893128054 23:0.05003575376467079 13:0.13116242889784513 1291:0.45460730893128054 1292:0.45460730893128054 50:0.0929040390018898 13:0.13116242889784513 1293:0.45460730893128054 25:1.9074796854004676E-4 3348:1.2 3349:-0.2 3357:2.0 3358:3.0 3359:0.0 3360:0.0 3361:1.0 3362:0.0 3363:1.0 3364:0.0 
173.07609205224125 815:0.6499938625425746 2:0.16134046388873183 1299:0.7027809234078984 52:0.423218570972732 271:0.8641213872966302 42:0.37178588581315275 13:0.06758833472779642 182:1.0793701536447649 432:0.522300770234843 50:0.09574737733035595 3:0.3033544529513326 25:5.897574932699497E-4 1300:0.7027809234078984 52:0.423218570972732 271:0.8641213872966302 42:0.37178588581315275 557:0.6125408468213708 1301:0.7027809234078984 182:1.0793701536447649 1302:0.7027809234078984 50:0.09574737733035595 1303:0.7027809234078984 25:5.897574932699497E-4 3348:-0.2 3349:-0.8 3357:0.0 3358:0.0 3359:0.0 3360:0.0 3361:0.0 3362:0.0 3363:1.0 3364:0.2 
135.8368572266945 26:0.5669972487913352 44:0.5147902678341946 96:0.528294742665843 8:0.08426018397304606 3:0.4403493549525167 1304:2.0403137206972235 4:0.1896840308928057 5:0.4360047443822495 1304:2.0403137206972235 6:0.18852105961341095 21:0.07899204531396739 409:0.7160016841414991 169:0.38056721917708924 185:0.6815461485755746 12:0.1896840308928057 55:0.7359129500297944 20:0.20804625338274774 23:0.11228221909969062 80:0.39383457699330815 1261:0.8469941885505848 46:0.535426994254459 25:4.280460187962023E-4 3348:-0.25 3349:-0.6 3357:0.0 3358:0.0 3359:0.0 3360:0.0 3361:0.0 3362:0.0 3363:3.0 3364:0.4 
55.956466266282675 1321:0.8643978273335193 14:0.4804272842823705 284:0.48787644850096973 17:0.5314206923187231 23:0.09513880659959709 1322:0.8643978273335193 8:0.14279043309503292 32:0.4255121744272861 1323:0.799471448139779 1324:0.7534054489952541 1325:0.8643978273335193 12:0.3214455944109919 13:0.0831314677815873 1326:0.8643978273335193 1327:0.799471448139779 8:0.14279043309503292 1328:0.8643978273335193 647:0.4804272842823705 1329:0.8643978273335193 1330:0.8643978273335193 1331:0.8643978273335193 12:0.3214455944109919 19:0.36231692727025544 755:0.6424130706569886 21:0.06693142496016861 20:0.1762814488621605 25:3.6269133015462115E-4 3348:0.0 3349:-0.3 3357:2.0 3358:2.0 3359:0.0 3360:0.0 3361:0.0 3362:0.0 3363:2.0 3364:0.4 
40.106328769134116 1332:0.9382388200553392 1333:1.177975675875829 529:0.849759079599667 42:0.31158695087946403 58:0.664863528104501 52:0.3546917436000536 196:0.6547120284389093 219:0.34729381851766 593:0.7242043297813758 23:0.12965233884482985 98:0.24322045370335432 184:0.8059691438037271 20:0.24023112078884504 46:0.6182578385284083 8:0.09729527979761109 1334:1.177975675875829 76:0.5597178373474209 169:0.4394411728732796 1335:1.177975675875829 1336:0.9780246455234577 25:4.942649683550701E-4 3348:-0.3 3349:-0.2 3357:2.0 3358:1.0 3359:1.0 3360:0.0 3361:2.0 3362:0.0 3363:1.0 3364:0.0 
108.43344644302053 1:0.3464410415224003 2:0.1430996842289569 905:0.5432883955132715 321:0.4964693176506216 1082:0.4632506532564086 219:0.18377061513354534 20:0.12711836055712053 8:0.10296764563397026 1337:0.6233261377701342 50:0.08492240031721915 1338:0.6233261377701342 1339:0.6233261377701342 500:0.5432883955132715 4:0.2317977145841664 501:0.5765070599074845 6:0.2303765402057968 1340:0.6233261377701342 112:0.13275216344052604 13:0.05994695393821911 1341:0.6233261377701342 1342:0.6233261377701342 1238:0.4786695303518153 4:0.2317977145841664 1343:0.6233261377701342 6:0.2303765402057968 50:0.08492240031721915 504:0.39863178809495237 369:0.4071890396293621 417:0.41643157539375864 8:0.10296764563397026 654:0.5432883955132715 1344:0.6233261377701342 1345:0.6233261377701342 73:0.4964693176506216 21:0.04826493692675164 458:0.363369352580163 161:0.35744651311570796 1346:0.5432883955132715 23:0.13721113819251962 1347:0.6233261377701342 1348:0.4786695303518153 23:0.13721113819251962 71:0.2928276479542518 1349:0.5765070599074845 25:2.6154043760774496E-4 3348:0.9 3349:-0.5 3357:0.0 3358:2.0 3359:0.0 3360:0.0 3361:1.0 3362:0.0 3363:1.0 3364:0.0 
137.16422326639315 1354:0.7060740649427353 4:0.2838930621372492 20:0.15568756015204024 6:0.28215248610598787 458:0.44503475099343676 686:0.6080482505958805 1358:0.6653896760914445 1359:0.7060740649427353 1360:0.7634154904382991 21:0.1182244679381552 98:0.15762486930005531 1361:0.7060740649427353 4:0.2838930621372492 1362:0.7634154904382991 1363:0.7634154904382991 6:0.28215248610598787 1364:0.7634154904382991 8:0.06305454795473582 32:0.37580217702529745 49:0.179750548331588 1365:0.7634154904382991 23:0.08402431889954551 1366:0.7060740649427353 5:0.32627607449726564 7:0.4377807837352698 91:0.28720794730937527 160:0.44503475099343676 50:0.052004137127388814 467:0.6080482505958805 21:0.1182244679381552 1367:0.7634154904382991 25:3.203203096215976E-4 3348:0.25 3349:-0.5 3357:2.0 3358:0.0 3359:0.0 3360:0.0 3361:2.0 3362:0.0 3363:0.0 3364:0.0 
54.34772788142661 662:0.6392494223086422 82:0.4098381302784603 12:0.12851235088445462 139:0.3361703003397496 52:0.20811137042612268 236:0.34023530461387924 112:0.29439966894142455 980:0.6024155073392868 21:0.1605531060789104 316:0.6392494223086422 1386:1.2784988446172845 257:0.6024155073392868 115:0.4029155319603726 21:0.1605531060789104 203:0.43318201355486646 1387:0.6911639096724659 169:0.2578371398784008 691:0.46175261764228404 15:0.35326724322448794 112:0.29439966894142455 1388:0.6911639096724659 1386:1.2784988446172845 21:0.1605531060789104 1389:0.6911639096724659 25:2.900043820416186E-4 3348:-0.1 3349:-0.7 3357:0.0 3358:0.0 3359:1.0 3360:0.0 3361:0.0 3362:0.0 3363:1.0 3364:0.8 
156.97963040914564 1390:1.0201568603486117 2:0.23420183389409768 613:0.7834069127521985 49:0.2402017739076973 98:0.42127018325416354 653:0.6815461485755746 302:0.6049204456207088 98:0.42127018325416354 308:0.4276041508750413 23:0.22456443819938124 1391:0.8469941885505848 21:0.07899204531396739 1392:0.943531157393746 23:0.22456443819938124 570:0.5669972487913352 25:4.280460187962023E-4 3348:-0.55 3349:-0.7 3357:0.0 3358:1.0 3359:0.0 3360:0.0 3361:0.0 3362:0.0 3363:1.0 3364:0.4 
109.43802723857183 1393:1.177975675875829 8:0.09729527979761109 13:0.11328909426883704 174:0.8267675301586399 81:0.7382877897029676 50:0.08024412570644093 1394:1.089495935420157 939:0.8754614451461937 1395:0.904600383924991 1396:1.089495935420157 270:0.5597178373474209 65:0.8267675301586399 20:0.24023112078884504 82:0.6985019642348492 12:0.21902825259386935 58:0.664863528104501 52:0.3546917436000536 1346:1.0267185605110114 23:0.12965233884482985 76:0.5597178373474209 25:4.942649683550701E-4 3348:-0.3 3349:-0.7 3357:0.0 3358:0.0 3359:1.0 3360:0.0 3361:0.0 3362:0.0 3363:1.0 3364:0.2 
75.5362846212675 1397:1.3495406753794381 939:1.0029670850994656 1395:1.0363499332555963 1396:1.2481743983523972 1336:1.1204679924108996 76:0.6412373393653842 91:0.5077167178828197 13:0.1297889624749834 563:1.0029670850994656 230:1.0363499332555963 1398:1.2481743983523972 20:0.27521932382474046 82:0.8002345310453833 12:0.2509283867113285 58:0.7616968610885688 25:5.662516577130154E-4 3348:-0.55 3349:-0.7 3357:0.0 3358:0.0 3359:1.0 3360:0.0 3361:0.0 3362:0.0 3363:1.0 3364:0.2 
218.50379537527365 386:0.5673638617445897 2:0.17526060435717086 152:0.469338047397735 153:0.5223277031909751 13:0.07341972439138168 1410:0.7634154904382991 50:0.052004137127388814 351:0.6653896760914445 23:0.16804863779909102 1411:0.7634154904382991 1412:0.7634154904382991 4:0.2838930621372492 1308:0.7060740649427353 6:0.28215248610598787 82:0.4526810107534619 12:0.1419465310686246 15:0.3901964236960969 88:0.3295272833438449 8:0.06305454795473582 1413:0.469338047397735 21:0.0591122339690776 1414:0.7634154904382991 23:0.16804863779909102 98:0.15762486930005531 99:0.4987026879729278 1415:0.7634154904382991 4:0.2838930621372492 1416:0.7634154904382991 6:0.28215248610598787 100:0.4987026879729278 1417:0.6653896760914445 25:3.203203096215976E-4 3348:0.25 3349:-0.8 3357:0.0 3358:0.0 3359:0.0 3360:0.0 3361:0.0 3362:0.0 3363:1.0 3364:0.2 
298.5053547063824 1429:0.5820988543080242 329:0.447009949248597 50:0.0793055656330752 1430:0.5820988543080242 4:0.3246996457745685 1431:0.5820988543080242 1432:0.5820988543080242 1433:0.538376427263489 1434:0.5820988543080242 6:0.32270888060214936 135:0.25906073547565583 1435:0.5820988543080242 4:0.3246996457745685 641:0.447009949248597 6:0.32270888060214936 52:0.17527157971967355 1436:0.5820988543080242 1437:0.5820988543080242 365:0.3235271571907605 508:0.46363244454556557 50:0.0793055656330752 1438:0.5820988543080242 4:0.3246996457745685 102:0.31873380035896665 960:0.4326108888721776 2:0.1336349580004841 5:0.2487831744728371 8:0.048078642080329366 1129:0.538376427263489 1439:0.5820988543080242 6:0.32270888060214936 25:2.442419463289545E-4 3348:0.25 3349:-0.5 3357:1.0 3358:0.0 3359:1.0 3360:0.0 3361:0.0 3362:0.0 3363:2.0 3364:0.2 
65.74471220515274 95:0.21759258326035072 403:0.5210070336231788 1011:0.5210070336231788 50:0.1282414121914748 308:0.2630298687097286 458:0.3658163118950643 161:0.35985358753911995 1464:0.6275236676063952 1465:0.6275236676063952 12:0.3500379893878548 13:0.060350641690907945 1223:0.46637022152233654 50:0.1282414121914748 1466:0.5803893061958139 12:0.3500379893878548 1467:0.6275236676063952 1468:0.5210070336231788 21:0.048589957009368495 1469:0.546946944564366 12:0.3500379893878548 1179:0.5210070336231788 1470:0.6275236676063952 50:0.1282414121914748 1471:0.5210070336231788 1472:0.5803893061958139 25:2.633016725756457E-4 3348:-0.05 3349:-0.1 3357:1.0 3358:3.0 3359:0.0 3360:1.0 3361:1.0 3362:0.0 3363:2.0 3364:0.0 
88.81270106136519 26:0.5071377565411144 13:0.17550671016405117 201:0.64041137509789 96:0.4725211827026333 8:0.07536459966414773 13:0.17550671016405117 81:0.5718752628455754 50:0.062156832498404035 1484:0.9124560349809023 1485:0.9124560349809023 270:0.867111145048717 1486:0.7952927772202398 20:0.18608222601118782 21:0.07065263320150993 270:0.867111145048717 1487:0.9124560349809023 112:0.19432926897852745 1267:0.6781295194595772 624:0.700700444382865 625:0.7952927772202398 52:0.27474304320005577 546:0.7267566649679251 25:3.8285599821058443E-4 3348:-0.2 3349:-0.8 3357:0.0 3358:0.0 3359:0.0 3360:0.0 3361:1.0 3362:0.0 3363:0.0 3364:0.0 
144.8676153577346 1488:0.9396995095476878 8:0.15522956641552535 98:0.1940228017756626 1489:0.7484556575322189 1490:0.9396995095476878 1398:0.869117093956395 91:0.35352854455424637 1491:0.9396995095476878 1492:0.9396995095476878 8:0.15522956641552535 52:0.2829461289629535 1493:0.869117093956395 23:0.20685357383735967 1445:0.7801937667691042 21:0.07276213014372922 23:0.20685357383735967 321:0.7484556575322189 20:0.19163813906049187 42:0.2485603997766723 115:0.5477999103739821 25:3.942870450228395E-4 3348:-0.3 3349:-0.8 3357:0.0 3358:0.0 3359:0.0 3360:0.0 3361:1.0 3362:0.0 3363:0.0 3364:0.0 
130.66626207399167 26:0.5071377565411144 1494:0.7952927772202398 4:0.3393171098579869 1495:0.8439199227285878 6:0.33723672358870166 8:0.07536459966414773 88:0.39386043660880443 50:0.062156832498404035 13:0.08775335508202559 1496:0.8439199227285878 984:0.64041137509789 4:0.3393171098579869 1497:0.9124560349809023 6:0.33723672358870166 647:0.5071377565411144 55:0.6582205527156105 98:0.18839775333002065 1498:0.9124560349809023 112:0.19432926897852745 1499:0.9124560349809023 21:0.07065263320150993 20:0.18608222601118782 25:3.8285599821058443E-4 3348:-0.2 3349:-0.4 3357:1.0 3358:0.0 3359:0.0 3360:0.0 3361:1.0 3362:0.0 3363:3.0 3364:0.6 
116.64886405122726 1503:0.4514170427862513 1504:0.4514170427862513 1505:0.41751034708703993 468:0.3747929624489202 8:0.18642467914561672 1506:0.4514170427862513 8:0.18642467914561672 283:0.2402050029613693 8:0.18642467914561672 135:0.2009013249982612 1507:0.4514170427862513 1508:0.4514170427862513 20:0.09205998421919735 245:0.39345316363603167 91:0.16982961947061287 690:0.35954646793682027 8:0.18642467914561672 968:0.3747929624489202 139:0.2195615261853727 8:0.18642467914561672 21:0.03495379670052252 289:0.35954646793682027 25:1.8940936976631167E-4 3348:-0.2 3349:-0.7 3357:0.0 3358:1.0 3359:0.0 3360:0.0 3361:1.0 3362:0.0 3363:0.0 3364:0.0 
187.3202655721348 242:0.23742168326862506 2:0.0796639110714413 95:0.12032400112062336 434:0.9628282703764572 1535:0.30244985276883846 50:0.0709147324464393 168:0.15284677573947378 112:0.2956136933453133 98:0.14329533572732303 1536:0.30244985276883846 303:0.23742168326862506 50:0.0709147324464393 1537:0.3470070411083178 647:0.19286449492914562 1538:0.3470070411083178 1539:0.32094275679215245 12:0.06452115048573845 98:0.14329533572732303 945:0.30244985276883846 1540:0.276385568452673 50:0.0709147324464393 1527:0.30244985276883846 401:0.19585491479426717 112:0.2956136933453133 1199:0.26647638744991203 4:0.1290423009714769 434:0.9628282703764572 112:0.2956136933453133 1541:0.3470070411083178 135:0.6177363079789366 1452:0.28810564201317246 1542:0.3470070411083178 6:0.12825113004817632 135:0.6177363079789366 1529:0.32094275679215245 207:0.20943837779958221 4:0.1290423009714769 434:0.9628282703764572 112:0.2956136933453133 1543:0.3470070411083178 135:0.6177363079789366 1544:0.32094275679215245 1395:0.26647638744991203 8:0.05732231632248711 1545:0.3470070411083178 8:0.05732231632248711 135:0.6177363079789366 1546:0.3470070411083178 6:0.12825113004817632 25:1.4560014073708983E-4 3348:1.15 3349:-0.8 3357:0.0 3358:0.0 3359:0.0 3360:0.0 3361:1.0 3362:0.0 3363:0.0 3364:0.0 
151.28578614400732 164:0.4439175509352237 2:0.15254477593937632 1569:0.6644678954788428 76:0.315723440696422 112:0.28302856343277233 3:0.2868166852897279 135:0.8871562300565277 1570:0.6644678954788428 169:0.24787825190767496 1383:0.5292380708584682 112:0.28302856343277233 1571:0.6644678954788428 135:0.8871562300565277 1572:0.5791473755555985 1573:0.6644678954788428 343:0.5516803031219092 171:0.536503341836973 80:0.2565197987808639 328:0.5516803031219092 1574:0.6644678954788428 135:0.8871562300565277 171:0.536503341836973 1575:0.6644678954788428 1576:0.6644678954788428 1577:0.6145585907817126 1578:0.6644678954788428 50:0.04526379145567261 1579:0.6644678954788428 1580:0.6644678954788428 25:2.788030432696553E-4 3348:0.15 3349:-0.8 3357:0.0 3358:0.0 3359:0.0 3360:0.0 3361:0.0 3362:0.0 3363:1.0 3364:0.0 
238.94349140057201 164:0.18723512665079586 2:0.0643401919630209 1581:0.2802586433072186 839:0.23268719880114117 50:0.07636527736327088 560:1.0368317750621139 169:0.10454985569309863 547:0.24427223474985235 23:0.03084629787388753 331:0.17923202211652048 154:0.16618442710910566 1582:0.2802586433072186 1583:0.2802586433072186 50:0.07636527736327088 1584:0.2802586433072186 1585:0.2802586433072186 21:0.08680313513429568 552:0.25920794376552847 168:0.1234459965590618 1134:0.2152184306738868 59:0.19670079024377485 323:0.14912934573769734 20:0.1714641041523965 135:0.37418391938712686 855:0.2152184306738868 41:0.10725920500178793 997:0.23268719880114117 42:0.07413135764521211 401:0.1581813225748303 112:0.11937552099142085 504:0.17923202211652048 135:0.37418391938712686 284:0.3163626451496606 16:0.20217083566647195 88:0.12097327146143827 8:0.06944415833374737 12:0.15633063273297804 96:0.14513372756741547 13:0.053906457512684115 1586:0.2802586433072186 50:0.07636527736327088 560:1.0368317750621139 427:0.18307951632565422 20:0.1714641041523965 8:0.06944415833374737 12:0.15633063273297804 1522:0.24427223474985235 13:0.053906457512684115 1587:0.2802586433072186 818:0.17923202211652048 560:1.0368317750621139 21:0.08680313513429568 284:0.3163626451496606 1229:0.25920794376552847 50:0.07636527736327088 20:0.1714641041523965 135:0.37418391938712686 1588:0.2802586433072186 1589:0.2802586433072186 4:0.05211021091099268 1590:0.2802586433072186 1591:0.2802586433072186 21:0.08680313513429568 1592:0.2802586433072186 6:0.0517907181294051 8:0.06944415833374737 21:0.08680313513429568 12:0.15633063273297804 387:0.19670079024377485 388:0.23268719880114117 560:1.0368317750621139 49:0.0659885022508736 236:0.13796131936560618 112:0.11937552099142085 254:0.20217083566647195 1524:0.24427223474985235 25:1.1759328507567499E-4 3348:2.5 3349:-0.8 3357:0.0 3358:0.0 3359:0.0 3360:0.0 3361:1.0 3362:0.0 3363:0.0 3364:0.4 
451.43595194416747 95:0.1333603832651858 1605:0.3557149750121692 50:0.10479722316552628 13:0.14795329115734515 890:0.30633028318983613 17:0.23644909237090556 49:0.18111403599955267 228:0.25694559136750306 23:0.08466168064164892 13:0.14795329115734515 1606:0.3846031678379047 1607:0.3846031678379047 8:0.09529926701928176 1608:0.3846031678379047 50:0.10479722316552628 1609:0.3846031678379047 8:0.09529926701928176 21:0.02978031324649957 1610:0.3557149750121692 49:0.18111403599955267 1611:0.3352184760155717 8:0.09529926701928176 132:0.2321297669098519 416:0.26993546443827543 971:0.3352184760155717 98:0.07941026193748246 1612:0.3846031678379047 1613:0.3557149750121692 106:0.2321297669098519 23:0.08466168064164892 13:0.14795329115734515 1049:0.3557149750121692 50:0.10479722316552628 20:0.0784342596887199 427:0.251242784572719 13:0.14795329115734515 672:0.2774420903641005 1614:0.3846031678379047 50:0.10479722316552628 1615:0.3557149750121692 25:1.6137504065126364E-4 3348:0.7 3349:0.0 3357:2.0 3358:1.0 3359:1.0 3360:1.0 3361:2.0 3362:0.0 3363:2.0 3364:0.0 
36.83390056651262 349:0.8064162781674729 2:0.27711134693314515 165:0.7565198632195442 166:1.0021770390573959 1004:0.8970810325908886 270:0.5735401122128403 1486:1.0520734540053245 22:0.5870961897620169 21:0.09346464846153026 1633:1.20706587541976 314:0.8707439451584931 1634:0.8707439451584931 401:0.6812823838569018 50:0.08222576053713732 76:0.5735401122128403 112:0.25707345908908125 1267:0.8970810325908886 624:0.9269395596947533 625:1.0520734540053245 25:5.064708796072982E-4 3348:-0.35 3349:-0.6 3357:1.0 3358:0.0 3359:0.0 3360:0.0 3361:2.0 3362:0.0 3363:0.0 3364:0.0 
109.74539644992545 613:0.8129797742432102 8:0.1748818506169254 80:0.408701455503325 196:0.5884008525014224 1644:0.9227294597354149 21:0.16394783890979503 71:0.4973430311117672 244:0.5088826025658632 8:0.1748818506169254 568:0.5482373637953918 855:0.8129797742432102 21:0.16394783890979503 22:0.5149174213353783 25:4.442043465050658E-4 3348:-0.65 3349:0.0 3357:2.0 3358:1.0 3359:2.0 3360:0.0 3361:0.0 3362:0.0 3363:4.0 3364:0.8 
155.29160525245817 1660:0.5889878379379145 1661:0.5889878379379145 50:0.040122062853220467 13:0.05664454713441852 925:1.0267185605110114 1662:0.5889878379379145 112:0.3763170112172493 167:0.3492509821174246 71:0.27669611910390085 1663:0.5889878379379145 2:0.13521649184346135 681:0.41338376507931995 706:0.4691194100276696 4:0.21902825259386935 112:0.3763170112172493 116:0.41338376507931995 43:0.32735601421945465 925:1.0267185605110114 23:0.06482616942241493 1664:0.5889878379379145 6:0.21768536903143262 91:0.4431714840557259 254:0.4248795397998335 112:0.3763170112172493 1665:0.5889878379379145 20:0.12011556039442252 21:0.04560607862585819 298:0.4523001919624955 4:0.21902825259386935 91:0.4431714840557259 225:0.34335176463916356 1666:0.5889878379379145 6:0.21768536903143262 169:0.2197205864366398 932:0.5447479677100785 25:2.4713248417753504E-4 3348:0.45 3349:-0.1 3357:3.0 3358:0.0 3359:1.0 3360:0.0 3361:3.0 3362:0.0 3363:1.0 3364:0.0 
68.48300580814599 95:0.18908057318955096 139:0.26522302360777167 822:0.868640357994115 436:0.9054748748985418 1238:0.41874860884986176 1692:0.5452967788844993 1080:0.4343201789970575 122:0.7124324113898969 4:0.20278075866946368 1693:0.4752783400653175 6:0.2015374900757056 21:0.08444604852725371 13:0.10488532055911669 1554:0.5043386178162395 1694:0.5452967788844993 122:0.7124324113898969 4:0.20278075866946368 1695:0.5452967788844993 6:0.2015374900757056 8:0.0900779256496226 32:0.268430126446641 1696:0.5452967788844993 436:0.9054748748985418 1697:0.4527374374492709 12:0.20278075866946368 13:0.10488532055911669 822:0.868640357994115 1698:0.5452967788844993 8:0.0900779256496226 33:0.34176083756182896 594:0.3352414624269536 161:0.312700559810907 1699:0.5452967788844993 12:0.20278075866946368 195:0.26522302360777167 593:0.3352414624269536 885:0.34873017003067974 23:0.0600173706425325 1262:0.4527374374492709 50:0.03714581223384915 472:0.4752783400653175 21:0.08444604852725371 20:0.11120540010860018 25:2.2880022115828397E-4 3348:0.85 3349:2.9 3357:18.0 3358:5.0 3359:0.0 3360:0.0 3361:2.0 3362:1.0 3363:12.0 3364:0.0 
133.45951089643575 164:0.5100224362490259 347:0.6653896760914445 349:0.5100224362490259 2:0.17526060435717086 1715:0.6653896760914445 1634:0.5507068251003167 1716:0.6653896760914445 50:0.10400827425477763 58:0.8617616250947755 8:0.12610909590947164 76:0.3627386168122261 169:0.2847904293595947 1383:0.6080482505958805 112:0.1625875313399223 1717:0.7634154904382991 12:0.1419465310686246 55:0.5507068251003167 1718:0.7634154904382991 21:0.0591122339690776 57:0.6338324124289794 50:0.10400827425477763 13:0.07341972439138168 1719:0.6653896760914445 58:0.8617616250947755 93:0.5223277031909751 225:0.44503475099343676 8:0.12610909590947164 63:0.6653896760914445 64:0.7060740649427353 65:0.5358065980821245 20:0.15568756015204024 25:3.203203096215976E-4 3348:0.25 3349:-0.4 3357:1.0 3358:0.0 3359:1.0 3360:0.0 3361:1.0 3362:0.0 3363:2.0 3364:0.4 
71.23360330678122 5:0.37928823238909604 1753:0.8874524814390702 21:0.06871657619777456 8:0.14659884623593916 1140:0.8207944282784309 8:0.14659884623593916 284:0.5008887703865205 1754:0.7368152130416746 1755:0.8874524814390702 38:0.5008887703865205 1756:0.8874524814390702 39:0.6814995180847786 1757:0.8207944282784309 12:0.16500949064603793 13:0.08534869597720116 197:0.5928890392031936 50:0.1209071629193747 1758:0.8874524814390702 1759:0.7734997869014517 285:0.6814995180847786 50:0.1209071629193747 20:0.1809831124946101 135:0.3949571294288186 283:0.4722252501066601 25:3.7236479635199815E-4 3348:-0.1 3349:0.7 3357:3.0 3358:1.0 3359:2.0 3360:3.0 3361:1.0 3362:0.0 3363:6.0 3364:1.2 
170.48318474478083 139:0.3361703003397496 49:0.16273849994752104 98:0.28541370273869965 1265:0.5505010199754631 19:0.28970501321725556 50:0.09416466704251165 98:0.28541370273869965 578:0.6392494223086422 50:0.09416466704251165 1760:0.6911639096724659 18:0.21726075321763372 201:0.4850965009186902 12:0.12851235088445462 13:0.06647109522009836 1761:0.6911639096724659 1762:0.6911639096724659 8:0.17126071621367306 571:0.4098381302784603 1763:0.6911639096724659 8:0.17126071621367306 283:0.36777749449809366 8:0.17126071621367306 21:0.053517702026303474 20:0.14095289407904443 25:2.900043820416186E-4 3348:-0.1 3349:0.8 3357:5.0 3358:3.0 3359:1.0 3360:0.0 3361:2.0 3362:1.0 3363:5.0 3364:0.6 
336.73233934722373 95:0.17231335737824324 1713:0.3816149775262894 50:0.1354072395822436 44:0.25076581951535426 96:0.25734415036168157 52:0.14963036072944946 12:0.18479864297329918 1522:0.43313178654114154 1780:0.4596150679334911 309:0.3055130463628871 167:0.2946702390584591 1781:0.43313178654114154 1782:0.43313178654114154 32:0.24462638085573132 683:0.4423232946500092 1783:0.49694115663026867 219:0.2930189398628988 13:0.09558433963026214 1784:0.4596150679334911 1785:0.43313178654114154 50:0.1354072395822436 1693:0.43313178654114154 683:0.4423232946500092 50:0.1354072395822436 1294:0.4596150679334911 219:0.2930189398628988 13:0.09558433963026214 1223:0.36932241645201436 50:0.1354072395822436 43:0.2761970041786131 12:0.18479864297329918 1786:0.49694115663026867 308:0.20829551765513066 25:2.0851076137338054E-4 3348:0.35 3349:-0.7 3357:0.0 3358:1.0 3359:0.0 3360:0.0 3361:0.0 3362:0.0 3363:1.0 3364:0.0 
202.31338199872772 67:0.35883241303635544 1004:0.35883241303635544 1787:0.4828263501679041 78:0.4008708156229584 18:0.303543674786232 13:0.13930413255515145 1784:0.8931208967970757 1785:0.4208293816021298 35:0.3707758238779013 50:0.09867091264456478 1693:0.8416587632042596 49:0.2273684573567989 1788:0.44656044839853787 219:0.1423481063869028 13:0.13930413255515145 1223:0.7176648260727109 50:0.09867091264456478 43:0.26835207685180174 12:0.17954973765468332 1789:0.4828263501679041 308:0.2023792217729048 1790:0.4828263501679041 8:0.03987919767385537 21:0.037385859384612107 18:0.303543674786232 13:0.13930413255515145 1082:0.35883241303635544 1791:0.32256651126698915 50:0.09867091264456478 1792:0.44656044839853787 1693:0.8416587632042596 49:0.2273684573567989 834:0.4208293816021298 42:0.12771264579909358 1793:0.4828263501679041 83:0.2914130134509105 1223:0.7176648260727109 12:0.17954973765468332 1794:0.4828263501679041 1784:0.8931208967970757 25:2.025883518429193E-4 3348:0.7 3349:-0.7 3357:0.0 3358:1.0 3359:0.0 3360:0.0 3361:0.0 3362:0.0 3363:1.0 3364:0.0 
241.41264617476406 1827:1.0796325403035505 5:0.4614240496318874 1716:0.9410031041915616 8:0.08917259688689211 1828:1.0796325403035505 4:0.2007427093690628 179:1.200106971487753 362:0.7788170609482958 179:1.200106971487753 6:0.19951193625418717 76:0.5129898714923073 169:0.40275448763439575 1829:1.0796325403035505 12:0.2007427093690628 1830:1.0796325403035505 112:0.22993349189367876 374:0.8290799466044771 1517:0.8599100825699287 25:4.530013261704123E-4 3348:-0.4 3349:0.3 3357:3.0 3358:1.0 3359:1.0 3360:0.0 3361:0.0 3362:0.0 3363:7.0 3364:0.0 
108.26420592551044 1847:1.20706587541976 8:0.19939598836927686 98:0.24922680143726275 1848:1.1164011209963447 1849:1.20706587541976 142:0.8471846176429599 8:0.19939598836927686 568:0.6250867693206416 13:0.11608677712929288 308:0.505948054432262 71:0.5670583019179529 1850:1.20706587541976 1851:1.20706587541976 25:5.064708796072982E-4 3348:-0.65 3349:-0.1 3357:1.0 3358:1.0 3359:2.0 3360:0.0 3361:0.0 3362:0.0 3363:4.0 3364:0.4 
707.3113478344807 1865:0.23059808208213448 1866:0.23059808208213448 285:0.17708270031023457 8:0.1523705820176121 1867:0.23059808208213448 50:0.03141684818322771 1868:0.23059808208213448 671:0.20098830200032594 112:0.049111359891229805 284:0.13015230922596774 666:0.20098830200032594 960:0.17137852191851735 79:0.12626618745865906 171:0.09309452157135935 1869:0.23059808208213448 8:0.1523705820176121 1870:0.23059808208213448 8:0.1523705820176121 1871:0.23059808208213448 8:0.1523705820176121 1872:0.23059808208213448 8:0.1523705820176121 1873:0.23059808208213448 8:0.1523705820176121 295:0.17137852191851735 8:0.1523705820176121 3:0.09953735611154498 8:0.1523705820176121 1874:0.23059808208213448 21:0.017855503263411177 1875:0.23059808208213448 207:0.13917898634195605 1876:0.23059808208213448 1877:0.17708270031023457 50:0.03141684818322771 308:0.09665640737685048 1524:0.20098830200032594 25:9.675628799238498E-5 3348:0.55 3349:-0.1 3357:4.0 3358:1.0 3359:0.0 3360:0.0 3361:1.0 3362:0.0 3363:2.0 3364:0.4 
112.64711346848702 1914:0.6233261377701342 1915:0.6233261377701342 1916:0.5765070599074845 1624:0.5765070599074845 13:0.17984086181465733 1197:0.5175219976294338 1917:0.6233261377701342 50:0.12738360047582872 13:0.17984086181465733 691:0.41643157539375864 375:0.41643157539375864 1918:0.5765070599074845 1265:0.4964693176506216 1909:0.4964693176506216 50:0.12738360047582872 47:0.3518127102323025 750:0.41643157539375864 219:0.18377061513354534 13:0.17984086181465733 1919:0.6233261377701342 1920:0.5175219976294338 50:0.12738360047582872 1921:0.5765070599074845 21:0.04826493692675164 339:0.4632506532564086 199:0.4786695303518153 25:2.6154043760774496E-4 3348:0.0 3349:-0.3 3357:1.0 3358:0.0 3359:2.0 3360:0.0 3361:2.0 3362:0.0 3363:1.0 3364:0.2 
39.786976010430465 1927:1.150892154967722 1928:1.150892154967722 1929:1.150892154967722 1930:1.150892154967722 4:0.21399244720325147 1204:1.0644467034618565 1931:1.150892154967722 6:0.2126804386544379 1932:1.150892154967722 1839:1.0644467034618565 308:0.48240254200275434 199:0.8838021926607287 1933:1.150892154967722 1934:1.150892154967722 1716:1.00311267953247 112:0.24510992592939626 13:0.1106843990988716 102:0.6301820174380063 1935:1.0644467034618565 244:0.553213713555512 1936:1.150892154967722 25:4.8290103624786717E-4 3348:-0.25 3349:0.0 3357:5.0 3358:0.0 3359:1.0 3360:0.0 3361:2.0 3362:0.0 3363:1.0 3364:0.2 
145.20851278763573 1937:0.6801045735657412 8:0.16852036794609213 1938:0.6801045735657412 1939:0.6801045735657412 8:0.16852036794609213 21:0.10532272708528985 98:0.14042339441805451 155:0.5927762372930174 1355:0.5646627923670565 571:0.40328029708047247 103:0.4104815803354923 1940:0.6801045735657412 646:0.39646846748230813 50:0.09265793515499966 1941:0.6801045735657412 8:0.16852036794609213 1942:0.6801045735657412 21:0.10532272708528985 1943:0.6801045735657412 357:0.5054479010202937 850:0.6290207715958307 112:0.14484448515127615 13:0.06540748907236195 1877:0.5222712751681323 50:0.09265793515499966 1944:0.5416924353231068 25:2.853640125308015E-4 3348:0.0 3349:-0.3 3357:1.0 3358:1.0 3359:0.0 3360:1.0 3361:2.0 3362:0.0 3363:1.0 3364:0.0 
52.77691549016508 1884:0.38386070055258575 2:0.19594731256016495 1945:0.8535244658481889 609:0.6343320814188476 458:0.49756397778550837 161:0.4894537958375988 1946:0.7894148031807786 18:0.2682972385345359 13:0.16417149462842884 1947:0.7894148031807786 1948:0.7894148031807786 50:0.058142392864031014 465:0.46735549243186353 41:0.32665667176622065 42:0.22576619471953677 13:0.16417149462842884 1949:0.8535244658481889 17:0.5247358892041769 1950:0.8535244658481889 8:0.14099425551730962 1951:0.7894148031807786 8:0.14099425551730962 21:0.06608948672836486 115:0.49756397778550837 49:0.20096722253114607 1952:0.8535244658481889 1953:0.7894148031807786 25:3.581289934438361E-4 3348:0.05 3349:-0.8 3357:0.0 3358:0.0 3359:0.0 3360:0.0 3361:0.0 3362:0.0 3363:1.0 3364:0.8 
201.9646568367058 700:0.5506804141485018 13:0.18228778873761117 1534:0.5843510539360185 1954:0.6318071553370012 8:0.1565529455714993 13:0.18228778873761117 1946:0.5843510539360185 1948:0.5843510539360185 50:0.043038930118312016 761:0.5032243127475191 1955:0.6318071553370012 219:0.18627101054580428 1956:0.6318071553370012 8:0.1565529455714993 13:0.18228778873761117 1957:0.6318071553370012 41:0.24180211677397498 42:0.16711963507134034 1958:0.6318071553370012 8:0.1565529455714993 52:0.19023888704565492 1959:0.6318071553370012 491:0.3959805943237858 1960:0.6318071553370012 25:2.650989744817679E-4 3348:-0.1 3349:-0.4 3357:1.0 3358:1.0 3359:0.0 3360:0.0 3361:1.0 3362:0.0 3363:2.0 3364:0.2 
54.53815759960897 1961:0.8430513763827879 49:0.39700254730095447 98:0.17406754864153337 878:0.6714769624044381 1962:0.7347999736522606 653:0.5632255596739105 23:0.18557867526952762 13:0.08107852208534914 1963:0.7347999736522606 21:0.13055708413797246 1128:0.6999508058023373 44:0.4254195219525118 142:0.5916994030718096 49:0.39700254730095447 236:0.41500407911153236 112:0.1795478920660956 228:0.5632255596739105 465:0.4616208520316949 23:0.18557867526952762 395:0.5632255596739105 21:0.13055708413797246 570:0.4685630510149612 25:3.537346062428037E-4 3348:-0.2 3349:0.2 3357:2.0 3358:2.0 3359:1.0 3360:1.0 3361:2.0 3362:0.0 3363:3.0 3364:0.4 
194.4745903319565 95:0.27017137267596536 1713:0.5983369129397693 50:0.15922950059478594 44:0.39317756156279793 96:0.4034917745855737 52:0.2346065364134069 12:0.14487357161510403 1738:0.6791104943915895 13:0.07493369242277391 1964:0.7791576722126681 1791:0.5205394692421985 50:0.15922950059478594 98:0.16087520856584359 1260:0.6205866470632772 50:0.15922950059478594 1965:0.6791104943915895 21:0.06033117115843957 1966:0.6791104943915895 77:0.43305130190300045 1967:0.6469024970367925 1968:0.7791576722126681 23:0.08575696137032479 76:0.370218550497044 25:3.269255470096813E-4 3348:-0.15 3349:-0.8 3357:0.0 3358:0.0 3359:0.0 3360:0.0 3361:1.0 3362:0.0 3363:0.0 3364:0.0 
35.767602093859374 95:0.4185476907984045 2000:1.1164011209963447 50:0.16445152107427463 1014:0.8970810325908886 3:0.5210283832671082 23:0.13285411328344826 1862:1.1164011209963447 2001:1.20706587541976 193:1.1164011209963447 13:0.11608677712929288 1309:0.7885181846213557 50:0.16445152107427463 2002:1.20706587541976 25:5.064708796072982E-4 3348:-0.65 3349:-0.2 3357:2.0 3358:1.0 3359:1.0 3360:0.0 3361:2.0 3362:0.0 3363:1.0 3364:0.0 
252.2985605158168 2021:0.9124560349809023 1391:0.7575746328585528 647:0.5071377565411144 195:0.44380300393825195 622:0.6781295194595772 42:0.2413542143303425 1413:0.5609662616989145 984:0.64041137509789 4:0.3393171098579869 2022:0.9124560349809023 6:0.33723672358870166 21:0.07065263320150993 38:0.5150010743698878 39:0.700700444382865 12:0.16965855492899345 13:0.08775335508202559 1962:0.7952927772202398 50:0.062156832498404035 2023:0.8439199227285878 4:0.3393171098579869 2024:0.9124560349809023 6:0.33723672358870166 25:3.8285599821058443E-4 3348:-0.2 3349:0.2 3357:3.0 3358:1.0 3359:0.0 3360:0.0 3361:1.0 3362:0.0 3363:6.0 3364:0.2 
295.1818701814927 349:0.13005022673749092 2:0.04468956601679951 2025:0.18004127997700417 2026:0.15504575335724755 2027:0.18004127997700417 52:0.058613486695021186 691:0.13005022673749092 15:0.09949588443018699 28:0.27324982046084273 2028:0.16966719911558262 50:0.01326049472341699 2029:0.1946627257353392 2030:0.1946627257353392 4:0.25336385356080754 2031:0.1946627257353392 144:0.28071289459238363 6:0.25181045508260613 375:0.13005022673749092 28:0.27324982046084273 2032:0.1946627257353392 641:0.14948693766970023 4:0.25336385356080754 2033:0.1946627257353392 144:0.28071289459238363 6:0.25181045508260613 4:0.25336385356080754 2034:0.32324087370035604 4:0.25336385356080754 2035:0.16162043685017802 144:0.28071289459238363 2036:0.16162043685017802 6:0.25181045508260613 2037:0.1946627257353392 4:0.25336385356080754 2038:0.1946627257353392 12:0.07238967244594502 2039:0.1946627257353392 6:0.25181045508260613 6:0.25181045508260613 8:0.016078230437571363 2040:0.1946627257353392 219:0.057390965474238026 2041:0.18004127997700417 4:0.25336385356080754 2042:0.1946627257353392 2034:0.32324087370035604 326:0.1271638128754955 2043:0.1946627257353392 4:0.25336385356080754 2044:0.1946627257353392 12:0.07238967244594502 2045:0.1946627257353392 6:0.25181045508260613 6:0.25181045508260613 25:8.167822812126656E-5 3348:1.4 3349:-0.1 3357:3.0 3358:1.0 3359:1.0 3360:1.0 3361:2.0 3362:0.0 3363:0.0 3364:0.0 
599.6723487917459 95:0.17928613257705156 2097:0.5170502127414124 1713:0.3970572827037584 52:0.15568525330514704 12:0.19227664360019864 153:0.35376495949875486 13:0.1989044476641932 847:0.3970572827037584 50:0.07044329202623947 2098:0.5170502127414124 23:0.11381689920260685 895:0.3970572827037584 91:0.1945217671337506 2099:0.5170502127414124 2100:0.4782136989128089 8:0.04270592860984753 112:0.11011817119422503 2101:0.5170502127414124 12:0.19227664360019864 13:0.1989044476641932 265:0.35376495949875486 50:0.07044329202623947 880:0.42928547795205324 23:0.11381689920260685 13:0.1989044476641932 2102:0.4782136989128089 21:0.04003585666277748 13:0.1989044476641932 2103:0.45065875383468773 317:0.41182224000608414 25:2.1694828872303057E-4 3348:0.2 3349:0.3 3357:5.0 3358:0.0 3359:0.0 3360:0.0 3361:4.0 3362:0.0 3363:3.0 3364:0.0 
67.7175972439216 2114:0.7213598338264813 3:0.3113740149780466 4:0.13412686452710149 2115:0.7213598338264813 6:0.13330451964911627 683:0.32103826989289613 646:0.4205183128250675 50:0.09827858141826551 13:0.06937511859517821 890:0.5745515915016364 204:0.46132665228322434 960:0.5361084575219348 50:0.09827858141826551 1100:0.5062896461974425 23:0.23818655559619478 611:0.5203690373290646 447:0.5745515915016364 23:0.23818655559619478 2116:0.6287341456742082 2117:0.5989153343497159 21:0.05585581090130139 2118:0.7213598338264813 2119:0.7213598338264813 23:0.23818655559619478 877:0.5745515915016364 25:3.026742425506991E-4 3348:-0.05 3349:0.2 3357:2.0 3358:1.0 3359:2.0 3360:0.0 3361:2.0 3362:0.0 3363:4.0 3364:1.0 
136.46691185423333 2136:0.6498624219179951 129:0.4687927814000604 68:0.44463486853753476 2137:0.6010501589818802 18:0.20427802623642102 2138:0.6498624219179951 2139:0.5664173072722904 42:0.17189544290549194 2140:0.6498624219179951 1225:0.49904748324141973 50:0.08853772271232647 2141:0.6498624219179951 21:0.1006393504278329 2142:0.6498624219179951 440:0.49904748324141973 1177:0.6010501589818802 98:0.13417919940166625 878:0.5176050443361755 879:0.48297219262658575 50:0.08853772271232647 1178:0.6010501589818802 2143:0.6010501589818802 219:0.19159411067739704 2144:0.6498624219179951 8:0.16102678722152866 571:0.3853476667543557 2145:0.6498624219179951 8:0.16102678722152866 2146:0.6498624219179951 8:0.16102678722152866 21:0.1006393504278329 2147:0.6498624219179951 25:2.7267475550004933E-4 3348:0.3 3349:0.0 3357:2.0 3358:1.0 3359:2.0 3360:0.0 3361:2.0 3362:0.0 3363:2.0 3364:0.0 
101.25479230954782 1884:0.29883515008529055 2:0.15254477593937632 2232:0.6644678954788428 8:0.16464581857959829 80:0.2565197987808639 105:0.5102634338430532 2233:0.6644678954788428 19:0.27851523748305 50:0.09052758291134522 2234:0.6644678954788428 8:0.16464581857959829 2235:0.6644678954788428 50:0.09052758291134522 763:0.5516803031219092 1500:0.5516803031219092 2236:0.6145585907817126 21:0.05145059563820903 13:0.0639036676148255 2237:0.6644678954788428 2238:0.6644678954788428 2239:0.6644678954788428 686:0.5292380708584682 2240:0.6644678954788428 236:0.3270938103980599 8:0.16464581857959829 2241:0.5791473755555985 2242:0.6644678954788428 18:0.20886911692058846 11:0.6145585907817126 12:0.12354859699734402 2243:0.5791473755555985 1072:0.5516803031219092 4:0.12354859699734402 2244:0.6644678954788428 6:0.12279110850850741 25:2.788030432696553E-4 3348:0.45 3349:-0.3 3357:1.0 3358:1.0 3359:1.0 3360:0.0 3361:1.0 3362:0.0 3363:2.0 3364:0.2 
75.06351880899705 349:0.9016008080724245 2:0.30981990453952024 2267:1.2481743983523972 52:0.4063504408557786 268:1.0363499332555963 81:0.845814920243872 50:0.09193119503132934 2252:1.1204679924108996 2253:1.0748876032124108 270:0.6412373393653842 2166:0.9735213261853697 1476:1.0363499332555963 12:0.2509283867113285 2113:1.0363499332555963 2254:1.0363499332555963 25:5.662516577130154E-4 3348:-0.55 3349:-0.4 3357:1.0 3358:0.0 3359:1.0 3360:0.0 3361:1.0 3362:0.0 3363:2.0 3364:0.2 
298.71674177520003 242:0.41554160900035897 2:0.13942985042538797 2268:0.6073407542707763 1451:0.5617223655327606 50:0.1241168102969031 2252:0.5042499926545501 2253:0.4837372148918625 1020:0.4837372148918625 23:0.0668461589484379 268:0.4663939084125456 2269:0.6073407542707763 81:0.3806464532756361 270:0.2885793488567954 13:0.17522878962521468 503:0.5617223655327606 50:0.1241168102969031 13:0.17522878962521468 2166:0.4381188261538467 261:0.41554160900035897 12:0.11292659675512087 2113:0.4663939084125456 2254:0.4663939084125456 132:0.3665644994976935 85:0.5293556036298783 13:0.17522878962521468 2190:0.5617223655327606 50:0.1241168102969031 599:0.5617223655327606 453:0.4663939084125456 1519:0.4837372148918625 25:2.5483315558888714E-4 3348:0.2 3349:0.5 3357:3.0 3358:1.0 3359:2.0 3360:0.0 3361:3.0 3362:0.0 3363:5.0 3364:0.2 
236.9291017885763 95:0.15544470997206772 2274:0.41462096740931204 50:0.12215152327847201 44:0.22621705408424633 96:0.2321513980379947 169:0.16723469844422786 12:0.16670774626693682 739:0.6663350628767358 13:0.08622709334763237 100:0.2928483019040354 50:0.12215152327847201 2275:0.8292419348186241 23:0.049340778988764565 2028:0.3907302716572355 2276:0.44829301187610304 2277:0.44829301187610304 2278:0.44829301187610304 2279:0.41462096740931204 4:0.16670774626693682 2280:0.44829301187610304 6:0.16568564482777753 21:0.06942379801465252 2281:0.41462096740931204 2282:0.3721992083620793 308:0.1879043901356407 4:0.16670774626693682 2283:0.44829301187610304 6:0.16568564482777753 2284:0.44829301187610304 21:0.06942379801465252 12:0.16670774626693682 739:0.6663350628767358 13:0.08622709334763237 106:0.27057019040980296 50:0.12215152327847201 2285:0.41462096740931204 171:0.18097992441032026 80:0.17306484479352388 959:0.3907302716572355 616:0.24546713035450826 50:0.12215152327847201 2275:0.8292419348186241 25:1.8809856253101232E-4 3348:0.8 3349:-0.4 3357:1.0 3358:0.0 3359:1.0 3360:0.0 3361:2.0 3362:0.0 3363:1.0 3364:0.2 
88.85817010197125 2287:1.150892154967722 12:0.42798489440650295 810:0.9555383145421458 416:0.8077588391068937 2288:1.00311267953247 440:0.8838021926607287 2289:1.150892154967722 12:0.42798489440650295 2290:1.150892154967722 2291:1.150892154967722 4:0.21399244720325147 2292:1.150892154967722 6:0.2126804386544379 23:0.1266714268431638 895:0.8838021926607287 25:4.8290103624786717E-4 3348:-0.55 3349:-0.4 3357:1.0 3358:2.0 3359:0.0 3360:0.0 3361:0.0 3362:0.0 3363:2.0 3364:0.0 
213.13569471892677 2370:0.4104147102687187 160:0.9570086574146862 169:0.15310428333831239 41:0.15707189268095645 42:0.108559005748255 1770:0.37958776894264507 8:0.10169500496424425 571:0.243362819067068 763:1.0222512478360057 160:0.9570086574146862 112:0.2622227950727189 2371:0.4104147102687187 8:0.10169500496424425 2372:0.4104147102687187 160:0.9570086574146862 50:0.055915194646255356 2373:0.4104147102687187 8:0.10169500496424425 763:1.0222512478360057 50:0.055915194646255356 2374:0.4104147102687187 112:0.2622227950727189 2375:0.4104147102687187 650:0.32688876466789335 310:0.23535240739583183 1076:0.30501670171921536 763:1.0222512478360057 160:0.9570086574146862 112:0.2622227950727189 22:0.19961869316971195 21:0.03177893385923702 167:0.243362819067068 2335:0.37958776894264507 2376:0.37958776894264507 25:1.7220526530193513E-4 3348:0.4 3349:0.1 3357:3.0 3358:1.0 3359:0.0 3360:0.0 3361:2.0 3362:0.0 3363:4.0 3364:0.0 
85.21478082443647 1884:0.37915057492643445 2:0.1935429599996228 670:0.7797283651349657 788:0.7347999736522606 50:0.057428962251831334 2377:0.8430513763827879 112:0.3590957841321912 2378:0.8430513763827879 984:0.5916994030718096 4:0.31350744093877664 2379:0.8430513763827879 6:0.3115852962649618 647:0.4685630510149612 195:0.4100457654606779 2380:0.8430513763827879 23:0.09278933763476381 168:0.37134025941165827 112:0.3590957841321912 1494:0.7347999736522606 4:0.31350744093877664 1495:0.7797283651349657 6:0.3115852962649618 25:3.537346062428037E-4 3348:-0.2 3349:-0.8 3357:0.0 3358:0.0 3359:0.0 3360:0.0 3361:1.0 3362:0.0 3363:0.0 3364:0.0 
48.52928010110378 2058:0.7734997869014517 2:0.2037363142133584 1998:0.8207944282784309 8:0.14659884623593916 98:0.3664703772686912 2385:0.8874524814390702 50:0.06045358145968735 1800:0.7734997869014517 1680:0.8207944282784309 41:0.33964143447192263 42:0.23474051154445227 13:0.08534869597720116 88:0.3830676859038746 189:0.6814995180847786 21:0.06871657619777456 2386:0.8874524814390702 8:0.14659884623593916 49:0.2089557680645387 98:0.3664703772686912 2387:0.8874524814390702 308:0.3719804076385128 23:0.09767628669129833 2388:0.8874524814390702 2389:0.8874524814390702 25:3.7236479635199815E-4 3348:-0.1 3349:-0.5 3357:0.0 3358:1.0 3359:1.0 3360:0.0 3361:0.0 3362:0.0 3363:2.0 3364:0.8 
134.62895763699615 1332:0.7068417337408123 212:0.5675468235471599 2390:0.8874524814390702 49:0.2089557680645387 750:0.5928890392031936 219:0.26164102310753967 98:0.1832351886343456 198:0.7068417337408123 459:0.659547092363833 50:0.06045358145968735 71:0.41690955514976413 160:0.5173423896193061 8:0.07329942311796958 594:0.5455943978262143 137:0.659547092363833 683:0.3949571294288186 2391:0.8207944282784309 171:0.3582725555690414 2392:0.8874524814390702 491:0.5562044653434164 2393:0.8874524814390702 2394:0.8874524814390702 21:0.13743315239554912 640:0.659547092363833 465:0.4859331021761314 2395:0.8874524814390702 696:0.7368152130416746 1540:0.7068417337408123 21:0.13743315239554912 282:0.5562044653434164 25:3.7236479635199815E-4 3348:0.2 3349:1.2 3357:6.0 3358:3.0 3359:3.0 3360:0.0 3361:3.0 3362:0.0 3363:6.0 3364:0.2 
43.74504943321983 2411:1.2384234577213893 761:0.9863845132773776 1708:1.1454033823858483 49:0.29159389399384017 1115:0.9863845132773776 21:0.09589270600677904 2412:1.2384234577213893 80:0.47809704327589697 2413:1.2384234577213893 41:0.4739633146127493 42:0.32757602469347247 13:0.11910252029798846 2414:1.2384234577213893 577:0.7613668503959775 1265:0.9863845132773776 171:0.4999626981210413 2415:1.2384234577213893 308:0.5190917511271019 25:5.196281584386143E-4 3348:-0.4 3349:-0.6 3357:0.0 3358:1.0 3359:0.0 3360:0.0 3361:1.0 3362:0.0 3363:1.0 3364:0.2 
53.84374937958458 67:0.9203857195044483 96:0.6413254934978246 2310:1.1454033823858483 18:0.3892865490538128 2437:1.2384234577213893 91:0.46591281372576016 13:0.11910252029798846 2438:1.2384234577213893 2439:1.2384234577213893 2440:1.2384234577213893 683:0.5511553397042742 2441:1.2384234577213893 686:0.9863845132773776 2442:1.2384234577213893 8:0.1022879837797506 571:0.7343455688333658 2443:1.2384234577213893 7:0.7101742088127447 25:5.196281584386143E-4 3348:-0.4 3349:-0.7 3357:0.0 3358:1.0 3359:0.0 3360:0.0 3361:0.0 3362:0.0 3363:1.0 3364:0.0 
109.51052791977207 1922:0.5745515915016364 460:0.4712297466199319 2460:0.7213598338264813 18:0.22675255267937472 2191:1.2574682913484163 38:0.4071440981106526 133:0.43538146351109586 212:0.9226533045664487 195:0.3508570812173884 1754:0.5989153343497159 12:0.26825372905420297 2461:0.7213598338264813 8:0.11916189494273385 132:0.43538146351109586 577:0.4434827693696616 12:0.26825372905420297 163:0.4521070920248708 50:0.049139290709132755 2462:0.7213598338264813 2463:0.7213598338264813 8:0.11916189494273385 447:0.5745515915016364 23:0.07939551853206493 2464:0.6671772796539096 565:0.5989153343497159 2191:1.2574682913484163 49:0.1698483031831707 13:0.06937511859517821 212:0.9226533045664487 509:0.4434827693696616 244:0.3467450453618975 25:3.026742425506991E-4 3348:0.25 3349:-0.3 3357:0.0 3358:2.0 3359:0.0 3360:2.0 3361:0.0 3362:0.0 3363:2.0 3364:0.0 
350.5930878796848 1884:0.16221075214754344 2:0.08280285245642095 95:0.1250650436032747 81:0.2260535460124354 50:0.07370893606369913 2004:0.3143670728371041 54:0.2872757957508182 2493:0.36067991691324064 112:0.07681538825095618 98:0.07447075082267966 330:0.25314482309872127 2494:0.36067991691324064 4:0.26825372905420297 2495:0.36067991691324064 6:0.26660903929823254 270:0.1713778876794113 508:0.2872757957508182 50:0.07370893606369913 2496:0.36067991691324064 21:0.08378371635195209 2497:0.36067991691324064 1089:0.3335886398269548 12:0.06706343226355074 2498:0.36067991691324064 52:0.10860172347477655 1493:0.3335886398269548 42:0.09540363002054163 13:0.034687559297589106 2499:0.36067991691324064 2500:0.36067991691324064 73:0.2872757957508182 1738:0.3143670728371041 4:0.26825372905420297 2501:0.36067991691324064 6:0.26660903929823254 23:0.039697759266032466 2502:0.36067991691324064 50:0.07370893606369913 80:0.13924155002885183 2503:0.36067991691324064 2504:0.36067991691324064 490:0.29945766717485794 4:0.26825372905420297 345:0.3335886398269548 2193:0.3335886398269548 6:0.26660903929823254 21:0.08378371635195209 365:0.20046379976723458 2254:0.2769761702177488 4:0.26825372905420297 1641:0.3143670728371041 327:0.29945766717485794 21:0.08378371635195209 746:0.3335886398269548 6:0.26660903929823254 25:1.5133712127534955E-4 3348:1.45 3349:-0.4 3357:0.0 3358:1.0 3359:1.0 3360:0.0 3361:2.0 3362:0.0 3363:1.0 3364:0.0 
273.08898214657773 1884:0.18957528746321722 2:0.0967714799998114 2509:0.42152568819139397 2510:0.42152568819139397 41:0.16132423132327325 42:0.11149797622372039 2511:0.42152568819139397 135:0.3751965976107546 2512:0.42152568819139397 122:0.2753624944523922 8:0.17408024891502677 417:0.28161277983695526 8:0.17408024891502677 2513:0.42152568819139397 8:0.17408024891502677 135:0.3751965976107546 1270:0.34997540290116863 1271:0.38986418256748284 295:0.3132742854608665 1909:0.33573848120221905 8:0.17408024891502677 49:0.09925063682523862 80:0.16273124021725516 2514:0.42152568819139397 196:0.2342815255074806 308:0.1766847246505837 1355:0.34997540290116863 219:0.12427528755755488 32:0.20750203955576618 2515:0.42152568819139397 8:0.17408024891502677 1536:0.3673999868261303 2313:0.38986418256748284 2062:0.38986418256748284 683:0.1875982988053773 133:0.25441459646952935 2063:0.34997540290116863 25:1.7686730312140185E-4 3348:0.55 3349:-0.3 3357:1.0 3358:1.0 3359:1.0 3360:1.0 3361:0.0 3362:0.0 3363:2.0 3364:0.2 
