svm_type nu_svc
kernel_type rbf
gamma 0.0010152284263959391
nr_class 2
total_sv 1190
rho -7.111727009624954
label 1 0
nr_sv 567 623
SV
42.560532424756765 1:1.7744200963268029 2:0.1204207802718651 3:1.4697198702769785 4:0.7007421161378465 5:0.14853565775469374 6:1.255275578915741 7:0.8175657120031137 8:0.10583831782355582 9:0.7547977442819044 10:1.3280423334070435 11:0.12364790250194634 12:1.0630311403809578 13:6.936646336466315E-4 
77.47739666248758 14:0.26841108326028895 15:0.7494130298057369 16:0.9047802696481556 17:0.7494130298057369 18:0.4793778729829297 19:0.5791455629451262 20:0.6107028266075913 21:0.7276128315996628 22:0.5083252425584128 23:0.16052348567644414 18:0.4793778729829297 24:0.9047802696481556 25:0.9047802696481556 26:0.147578508762512 27:0.9047802696481556 28:0.1472445738818823 29:0.31773457636077546 18:0.4793778729829297 30:0.7751971916388356 8:0.05396716478681461 31:0.46135442515721586 32:0.26453628317109473 33:0.3317713471478959 34:0.22596988478291707 35:0.8067544553013009 13:3.537009502853364E-4 
55.00796592858611 36:0.9756496561591541 37:0.1956201842145493 18:0.17230881818704988 38:0.6170682911262632 11:0.13597347528981807 39:0.7024088987219691 11:0.13597347528981807 40:0.8081128527874366 41:0.715678009315559 42:0.30363127109418375 33:0.35775824432398295 34:0.24366959336603408 43:0.7846050944979807 2:0.13242466438457634 44:0.49421160539433107 45:0.8699457020936867 46:1.2985852516175813 47:0.8081128527874366 2:0.13242466438457634 46:1.2985852516175813 48:0.913816806852904 26:0.15913799865089603 49:0.5626758721021445 28:0.15877790740841946 13:3.8140554353959324E-4 
37.044279429698314 141:0.8363884285157316 142:0.24656537232989417 143:1.044898120145963 144:1.0935920351335169 145:0.6081393771505763 18:0.24656537232989417 146:0.771522828195125 147:0.9564183796902909 59:0.35598414876844603 148:1.3961062658631525 2:0.09474656324379079 149:0.7653754388573548 150:1.3961062658631525 151:1.3961062658631525 99:0.15253271418010203 152:0.5402615188580278 153:1.1227309739123141 154:0.2623048573033306 155:1.3961062658631525 156:1.2448491504983346 13:5.457724151380274E-4 
79.84688154482204 228:0.41950219557510887 229:0.2973420178120925 164:0.20170978991311803 230:0.5516018641186105 23:0.12169254043977842 231:0.6859121522890594 5:0.05741730096108479 232:0.6424417298048469 8:0.040912402042384444 233:0.61159897421248 234:0.4629726180593213 235:0.4338182635578186 26:0.33563693630145713 236:0.6859121522890594 28:0.3348774701623928 237:0.6859121522890594 238:0.6859121522890594 11:0.09559359602239047 239:0.6859121522890594 26:0.33563693630145713 240:0.6859121522890594 28:0.3348774701623928 11:0.09559359602239047 2:0.04654933560975092 241:0.6859121522890594 26:0.33563693630145713 242:0.6859121522890594 28:0.3348774701623928 99:0.07493988447439649 163:0.28020443821635804 243:0.47728868604203106 42:0.21346225803876165 13:2.681399984233125E-4 
10.157821117306023 244:0.6024544739145978 142:0.3261753285524732 245:1.1969830286715344 37:0.3703030322476637 246:1.3822702856525542 247:0.7967943173872198 8:0.11016001382699328 248:1.3065322462945324 2:0.12533792196056182 249:1.3822702856525542 250:0.8650338797116148 13:7.21989041447162E-4 
37.36976599471996 344:0.8154484079887402 345:0.6819744527290785 287:0.4325917028254081 346:0.8706252203980414 347:1.4002915472996371 154:0.3271516356385638 201:0.46640301121872146 11:0.12133652294669006 337:0.8154484079887402 8:0.10385985705689436 149:0.4772954440759948 135:0.35412456274683407 348:0.6386383889554184 349:0.6159052074625041 8:0.10385985705689436 350:0.3774148904161069 347:1.4002915472996371 11:0.12133652294669006 46:0.5793991028224045 351:0.6159052074625041 352:0.587649068894597 353:0.7762998365635599 154:0.3271516356385638 354:0.7001457736498186 355:0.46640301121872146 29:0.3057402386545757 356:0.8706252203980414 2:0.05908486303876236 357:0.8706252203980414 13:3.403488980997757E-4 
102.12493600182056 376:0.44168851475833204 11:0.04350746507491294 377:0.29744053854249297 378:0.5171441215913443 379:0.46729264524162323 5:0.2090584574870515 380:0.6243577028566806 8:0.07448176350946847 5:0.2090584574870515 381:0.3568791049277943 382:0.48906922604217645 383:0.6243577028566806 263:0.3903470856919934 384:0.5349368836488754 23:0.11077172893089982 5:0.2090584574870515 385:0.5847883599985964 386:0.37787182603381797 8:0.07448176350946847 359:0.6204551752531318 2:0.04237195120951984 387:0.5567134644494285 5:0.2090584574870515 359:0.6204551752531318 388:0.6243577028566806 29:0.2192576881588045 389:0.5021005556224956 390:0.5171441215913443 59:0.1592009511117287 221:0.42142498763492436 391:0.48906922604217645 392:0.5021005556224956 13:2.440768440985729E-4 
50.434460879262744 428:0.7349961622871561 429:1.0797328268294888 18:0.27404208988399253 200:0.8574996814593917 8:0.09255292405091331 426:1.3294522157250659 427:1.4533456276697252 430:1.4533456276697252 29:0.5449103029672743 431:1.3835724764158848 2:0.10530491753689897 416:1.0629995976203497 99:0.1695306334973335 432:0.5337143633152923 433:1.1171198583111686 19:0.9932264463665094 13:6.065921253749605E-4 
22.6962012194573 244:0.3875393958917697 142:0.20981799497756556 199:0.533205987140768 5:0.09944968249807219 434:1.0178837799697025 435:1.1127417169244316 436:0.8138765995000129 437:0.8018920969919249 438:0.8891695798691535 225:0.5125519052150175 439:0.9840275168238825 11:0.16557296518899442 172:0.5150114820755943 7:0.5473880932637583 440:1.059320497193023 11:0.16557296518899442 418:0.5726058063742552 419:0.5175040743755287 441:0.8404497590532893 99:0.1297996874229968 442:0.8404497590532893 372:0.8266882541025883 13:4.644321008106159E-4 
31.079672392697944 201:0.7307130863127066 477:1.2775621267393689 59:0.3477995110602382 478:0.8091122728571335 479:1.3640075782452346 12:0.8171585378185722 480:0.7938771705461105 481:1.0433371997982512 254:0.7419367680034323 176:1.0433371997982512 482:0.5884716031863152 185:0.8840305540568192 483:1.168653737819658 42:0.4244918779504394 354:1.096917615938241 92:0.7049951129036381 250:0.6388698600080365 11:0.09504889873368547 32:0.398803452142604 2:0.09256819014226081 484:0.6864442249983609 13:5.332242454948225E-4 
31.323207368208937 244:0.35276121902485563 142:0.1909887161570222 485:1.0814192634447626 486:0.6922113458010877 37:0.43365450742026956 18:0.3819774323140444 487:0.7299294901627748 42:0.33654775920087676 33:0.396542605868578 34:0.2700856711405391 488:0.7525004150860626 214:0.29800707866158876 37:0.43365450742026956 297:0.4379758635357959 154:0.20318046879302243 18:0.3819774323140444 489:0.9642560056841 212:0.6685872657515903 213:0.6685872657515903 99:0.1181513323542702 5:0.09052496752988783 490:1.0128831511924479 13:4.227534949297961E-4 
29.607875802929183 502:0.9542017812181581 503:0.7312198199658039 418:0.5367817929021692 420:0.6811407991329206 504:0.9930460875725657 505:0.6011464883988601 506:1.113707523996742 507:0.6672071522047642 508:0.4998469498168555 26:0.18165658680084124 509:1.113707523996742 28:0.1812455413773741 272:0.5024259252231155 510:0.5837241945333214 179:0.3609726471543898 511:0.9930460875725657 2:0.0755816107538236 512:0.5922174719456298 11:0.07760710083699987 513:1.113707523996742 214:0.3069047657358038 514:0.642296492778513 515:1.113707523996742 516:0.48749583793281276 99:0.12167901225842333 517:0.8956294829729665 120:0.6011464883988601 145:0.485127397915194 518:0.8723846511483896 23:0.1975907518911307 9:0.47374572044280105 42:0.3465961669781234 13:4.3537577331428907E-4 
6.996590896944336 182:0.6666201909638997 519:1.1534526738502886 520:1.249021716342895 142:0.2663210405460721 521:1.5079671160802595 522:1.3445907588355015 22:0.8472087375973548 23:0.2675391427940736 523:1.5079671160802595 524:0.833339898739147 34:0.3766164746381952 95:0.8544616871012279 26:0.24596418127085334 525:1.1812144015907438 526:1.249021716342895 28:0.24540762313647055 216:0.6733549994360866 13:5.895015838088941E-4 
45.48967895292677 14:0.24502467497676253 488:0.5747316854362619 272:0.3726090386517307 510:0.43290144883791515 179:0.26770447997093016 551:0.7364626892271928 552:0.6642166016622384 486:1.5860554445203685 582:0.707654980625409 482:0.35633725155267315 583:1.2117311461917861 8:0.09853011172778947 584:0.8259476054531693 585:0.7736022850807989 486:1.5860554445203685 11:0.05755496638152388 586:0.5842989835020143 587:0.6181700643994326 437:0.5574928567752399 583:1.2117311461917861 8:0.09853011172778947 355:0.4424687469036674 486:1.5860554445203685 13:3.228833151371534E-4 
93.12728218353496 588:0.6303902845435421 589:0.6303902845435421 142:0.11133279680936695 590:0.5620924634352675 37:0.12639482093903756 591:0.522140799205965 160:0.4821891349766626 23:0.3355260361198387 592:0.6303902845435421 5:0.05276959822010398 593:0.4318559906633457 154:0.11843971886364126 95:0.35719900011044375 26:0.3084684577643007 594:0.5904386203142395 28:0.307770467396426 23:0.3355260361198387 595:0.6303902845435421 26:0.3084684577643007 596:0.6303902845435421 28:0.307770467396426 2:0.042781351551236795 597:0.5904386203142395 26:0.3084684577643007 598:0.6303902845435421 28:0.307770467396426 23:0.3355260361198387 599:0.6303902845435421 282:0.40350983378437355 600:0.6303902845435421 13:2.4643512925011206E-4 
21.007162952295456 244:0.491902018115881 142:0.2663210405460721 601:0.8202419592121157 200:0.833339898739147 8:0.08994527464469103 602:1.5079671160802595 22:0.8472087375973548 23:0.2675391427940736 603:1.5079671160802595 282:0.9652426049085437 604:1.5079671160802595 605:1.0178380443459858 99:0.16475416143760016 18:0.2663210405460721 606:1.5079671160802595 37:0.30235115973738685 420:0.9222690018533792 13:5.895015838088941E-4 
46.633824118574346 199:0.35615359946906366 5:0.1328543311288556 434:0.6798929134711288 435:0.7432530341363103 11:0.165891069161771 607:0.4906089248989318 305:0.3617501006836263 419:0.34566554628744617 608:0.6572787075642993 214:0.21867741125771767 5:0.1328543311288556 609:0.41591825869177645 610:0.35255813802659497 611:0.44964748491764733 612:0.41591825869177645 11:0.165891069161771 117:0.4219699337550959 11:0.165891069161771 613:0.7935447912056912 614:0.4458307304020468 615:1.5870895824113824 616:0.6215961380616692 142:0.140147402592675 617:0.7935447912056912 2:0.0538538101182912 456:0.44964748491764733 618:0.7935447912056912 615:1.5870895824113824 13:3.1021625488427117E-4 
55.51303892584422 428:0.6318960115263328 634:0.7991968161156309 5:0.1116705054516564 635:0.807374900137688 487:0.9004321938434824 200:0.7372155888721423 8:0.07957024344301629 416:0.9138894057625931 636:1.142965903410126 23:0.23667896736937535 250:0.6248270493430524 33:0.48917016419631226 34:0.3331744184449002 637:1.3340257284727937 99:0.1457500550821169 18:0.23560137109992324 638:1.3340257284727937 639:1.1049492308252609 154:0.25064096974716066 640:1.2494804090350313 2:0.0905334759553188 641:1.3340257284727937 13:5.215036000391603E-4 
37.16332484386696 244:0.40928721895869813 142:0.22159250017472007 642:1.2547044827863691 37:0.5031427429057622 18:0.22159250017472007 643:1.2547044827863691 644:0.8876138741091897 8:0.07483899224241336 5:0.10503057084634815 645:1.2547044827863691 172:0.5439127465879242 37:0.5031427429057622 646:1.009017451160819 33:0.46008407841211624 34:0.31336384857519134 227:0.6120035234634874 26:0.20465456942298027 359:0.6234309965234834 28:0.20419148506345092 13:4.904949663208153E-4 
69.26556354158684 647:0.9537221446898283 37:0.19122366359270793 18:0.5053086461709845 648:0.9537221446898283 612:0.49987153603829865 611:0.5404090209179994 649:0.626179243572693 650:0.9537221446898283 11:0.06645875066714536 18:0.5053086461709845 42:0.29680722504719 651:0.8503938637468711 18:0.5053086461709845 652:0.9537221446898283 653:0.6866224131883033 8:0.05688638652932316 116:0.5147910971554118 354:0.7669712675398236 99:0.10419968082677952 654:0.7470655828039138 13:3.7283353782254864E-4 
80.61755313366805 117:0.5922174719456298 26:0.36331317360168247 661:1.043125108405449 28:0.3624910827547482 37:0.22330113030843207 18:0.19669112375990003 507:0.6672071522047642 612:0.5837241945333214 622:0.642296492778513 59:0.2839771116290194 471:0.816948972104929 662:0.9224636719812728 663:0.85188125638998 581:0.5966247366134714 8:0.06642898777536355 609:0.5837241945333214 26:0.36331317360168247 629:0.7878685886289405 28:0.3624910827547482 12:0.6672071522047642 13:4.3537577331428907E-4 
51.155263332735394 182:0.3682041765479396 142:0.1471010340833905 664:0.6371035526961173 601:0.4530563569115194 665:0.6698219044277768 26:0.13585702931405386 666:0.780130690147969 11:0.1741220127341212 476:0.6524375978402374 28:0.13554961733891527 11:0.1741220127341212 18:0.1471010340833905 667:0.8329177510132929 11:0.1741220127341212 668:0.8329177510132929 9:0.35430417009963955 482:0.3593443702795975 622:0.4803596444503951 59:0.2123803351067112 669:0.5996505369749133 454:0.533146705315719 2:0.056525850719870895 670:0.8329177510132929 671:0.4760907731258157 672:0.780130690147969 673:0.7426776744267651 674:0.780130690147969 675:0.8329177510132929 29:0.29249838622640656 676:0.43349128055672703 8:0.049680802102677724 536:0.46406479117427585 507:0.49898978744441147 677:0.8329177510132929 13:3.2560811715919745E-4 
37.30987788305862 709:1.1532181979932252 37:0.2468686881651091 18:0.43490043806996426 710:0.9215135237683694 507:0.7376252604349165 612:0.6453313781064838 214:0.33929598477252776 7:0.5672995816687341 711:1.1532181979932252 712:1.1532181979932252 11:0.08579787818120169 18:0.43490043806996426 713:1.0978537573362035 42:0.3831764798806012 99:0.13452120950741514 714:1.1532181979932252 2:0.08355861464037453 715:1.1532181979932252 716:1.0978537573362035 717:1.2312499944309752 13:4.813260276314413E-4 
79.50816495862534 718:0.8474388441525916 11:0.12609661353444848 719:0.7087286409544461 34:0.45193976956583415 227:0.44132201692244644 11:0.12609661353444848 720:0.7087286409544461 18:0.15979262432764324 721:0.5218041374495623 722:0.4553355867651728 99:0.09885249686256009 5:0.15147724347110456 723:0.5533614011120275 8:0.10793432957362922 454:0.5791455629451262 724:0.7494130298057369 671:0.5171669562351539 34:0.45193976956583415 725:0.8067544553013009 726:0.677171377291981 727:0.692071604310173 8:0.10793432957362922 5:0.15147724347110456 212:0.5593802395040706 263:0.5656666680539768 13:3.537009502853364E-4 
102.12493600182056 14:0.1826306098042776 516:0.26947346354717416 728:0.40419696368296626 510:0.3226656890532419 179:0.1995351383654103 5:0.051533604742714 152:0.23823293697272901 154:0.11566557001814955 350:0.26687262833400693 250:0.2883446265705383 52:0.2075031401625073 359:0.30588852655288185 26:0.30124336955750874 729:0.6156249972154876 730:0.7644863978634632 28:0.30056172783679214 11:0.08579787818120169 253:0.37651474335445534 26:0.30124336955750874 731:0.6156249972154876 730:0.7644863978634632 28:0.30056172783679214 11:0.08579787818120169 2:0.04177930732018727 732:0.4515855355564283 26:0.30124336955750874 733:0.6156249972154876 730:0.7644863978634632 28:0.30056172783679214 13:2.4066301381572066E-4 
98.57017974579352 14:0.1826306098042776 516:0.26947346354717416 728:0.40419696368296626 510:0.3226656890532419 179:0.1995351383654103 5:0.051533604742714 152:0.23823293697272901 154:0.11566557001814955 350:0.26687262833400693 250:0.2883446265705383 52:0.2075031401625073 359:0.30588852655288185 26:0.30124336955750874 740:0.6156249972154876 730:0.7644863978634632 28:0.30056172783679214 11:0.08579787818120169 253:0.37651474335445534 26:0.30124336955750874 741:0.6156249972154876 730:0.7644863978634632 28:0.30056172783679214 11:0.08579787818120169 2:0.04177930732018727 732:0.4515855355564283 26:0.30124336955750874 742:0.6156249972154876 730:0.7644863978634632 28:0.30056172783679214 13:2.4066301381572066E-4 
101.25879115768086 14:0.1826306098042776 516:0.26947346354717416 728:0.40419696368296626 510:0.3226656890532419 179:0.1995351383654103 5:0.051533604742714 152:0.23823293697272901 154:0.11566557001814955 350:0.26687262833400693 250:0.2883446265705383 52:0.2075031401625073 359:0.30588852655288185 26:0.30124336955750874 743:0.6156249972154876 730:0.7644863978634632 28:0.30056172783679214 11:0.08579787818120169 253:0.37651474335445534 26:0.30124336955750874 744:0.6156249972154876 730:0.7644863978634632 28:0.30056172783679214 11:0.08579787818120169 2:0.04177930732018727 732:0.4515855355564283 26:0.30124336955750874 745:0.6156249972154876 730:0.7644863978634632 28:0.30056172783679214 13:2.4066301381572066E-4 
39.75537573689583 182:0.507965093479839 142:0.20293683583304423 769:1.076248408322738 770:1.076248408322738 37:0.23039181411181808 5:0.19237629158469058 771:1.076248408322738 772:1.076248408322738 8:0.1370767356353133 773:0.9845014178832314 11:0.08007142966584449 5:0.19237629158469058 774:1.1490720915258237 247:0.49574233065974993 8:0.1370767356353133 775:1.1490720915258237 99:0.12554279655831063 776:0.924069220201254 13:4.4920065606325794E-4 
15.131751835704373 790:1.4565460934403625 37:0.40564664774921666 5:0.169356706722838 791:1.0758164631833442 247:0.8728444426498221 8:0.12067424901625043 609:1.06038765856445 99:0.22104090273026905 654:1.584765418775183 13:7.908993685442859E-4 
34.34344884044753 852:1.2312499944309752 37:0.2468686881651091 432:0.8469962059781058 853:0.6079660357057266 146:0.6804191780711709 147:0.8434817273306195 59:0.3139485094407761 749:0.761220088322677 11:0.08579787818120169 854:0.9901556487337766 315:0.5766892531410766 336:1.0549097608631408 154:0.2313311400362991 432:0.8469962059781058 143:0.9215135237683694 855:1.1532181979932252 856:0.6079660357057266 857:1.0978537573362035 163:0.502982359828542 858:1.2312499944309752 13:4.813260276314413E-4 
45.4027416605841 859:1.0359008208220941 11:0.0842518438354193 607:0.7475032875556364 37:0.2424202393352274 860:1.2090634926201214 214:0.33318204283171976 254:0.6576566540631306 146:1.3363167376331904 561:0.697290109049057 92:0.6249113766537591 861:1.2090634926201214 784:0.8413210406146221 23:0.21450853068998862 5:0.1012099905288952 862:1.0359008208220941 146:1.3363167376331904 8:0.07211665741708265 749:0.7475032875556364 863:1.2090634926201214 34:0.30196496020944935 143:0.9049083164130085 13:4.726527761943184E-4 
56.906621880672915 601:0.5645292330722248 864:1.0378541477646819 865:0.7767688423878943 99:0.11339159056330814 866:0.88921216307111 867:0.9720790217084372 868:0.700524185715035 164:0.3052072213729334 738:0.583089042832348 18:0.18329471088614627 869:0.6416531407925848 146:1.1470877065971663 147:0.7109937163316497 59:0.5292714951170143 749:0.6416531407925848 870:0.9254108270814663 287:0.5156835370111069 871:0.9720790217084372 59:0.5292714951170143 254:0.5645292330722248 146:1.1470877065971663 561:0.598550395648434 11:0.07232136783149527 92:0.5364208482053772 143:0.7767688423878943 13:4.0572281540212767E-4 
53.793294481987004 199:0.4853555432275561 892:1.0814192634447626 893:1.0814192634447626 11:0.15071428003655532 5:0.18104993505977565 894:0.9265378613224129 895:0.8271837811794709 896:0.9642560056841 571:0.9642560056841 897:0.9642560056841 7:0.49826493282077083 898:0.8957198934317854 730:0.447637398865869 8:0.06450309931786448 248:0.7650269486810668 250:0.5065119757881105 11:0.15071428003655532 5:0.18104993505977565 899:0.8696636728467253 779:0.6353371573254001 900:1.0814192634447626 832:0.7785566356711227 13:4.227534949297961E-4 
37.997145655179054 227:1.103305042306116 44:1.1457824711183733 901:0.9280782525591693 5:0.1893465543388807 902:1.692928443229952 903:1.465998825508233 671:1.2929173905878846 13:8.84252375713341E-4 
40.56543665727608 439:0.9840275168238825 37:0.47640782707339724 18:0.20981799497756556 916:0.7906343873418661 917:0.9840275168238825 11:0.08278648259449721 918:0.8891695798691535 612:0.6226810736328987 214:0.3273871304652845 7:0.5473880932637583 869:0.7345022386149677 919:0.8553133167233334 920:0.9087345364547421 2:0.08062581433466377 37:0.47640782707339724 8:0.07086235899709456 921:1.0178837799697025 29:0.41720593818128554 432:0.40863386222513187 922:0.8553133167233334 59:0.30292931903858805 923:1.188034697293572 13:4.644321008106159E-4 
44.233372912737536 934:0.8233903180021528 31:0.4708678884209291 935:0.7426167365503326 8:0.05508000691349664 42:0.28738235991045097 99:0.10089090713056136 716:0.8233903180021528 936:0.9234374958232314 937:0.864913648494919 26:0.3012433695575088 938:0.9234374958232314 939:0.9234374958232314 28:0.3005617278367922 940:0.7911823206473557 941:0.9234374958232314 418:0.44507595033768815 419:0.4022463886015352 297:0.3739930925274951 154:0.17349835502722433 18:0.1630876642762366 916:0.614545551928686 917:0.7648664706738404 942:0.7426167365503326 912:0.5232487845389169 26:0.3012433695575088 943:0.9234374958232314 28:0.3005617278367922 11:0.06434840863590127 172:0.4003089425010104 37:0.18515151612383185 944:0.8233903180021528 945:0.7063426233455281 179:0.29930270754811544 946:0.9234374958232314 272:0.4165895697280583 13:3.60994520723581E-4 
65.18348358565792 947:0.605313460108994 948:0.3952581436514482 949:0.6462716211772539 950:0.6462716211772539 951:0.535295021289812 952:0.6462716211772539 8:0.03854797484772472 953:0.576253182358072 954:0.6462716211772539 955:1.2925432423545078 11:0.1801380193349264 92:0.3340291812193729 956:0.35429998258318823 957:0.6462716211772539 297:0.26174064114795975 154:0.12142355457969718 5:0.054099015525394485 42:0.20112575510213518 11:0.1801380193349264 355:0.3462144481002611 29:0.2269532688291253 958:0.535295021289812 11:0.1801380193349264 959:0.6462716211772539 11:0.1801380193349264 2:0.043859136317736365 955:1.2925432423545078 960:0.5197234511426162 518:0.5062347435388901 23:0.11465963262603152 961:0.576253182358072 13:2.5264353591809743E-4 
51.109082247856506 962:1.0115750938169328 11:0.14098029979777343 963:0.8378692389348519 23:0.3589414259577429 5:0.169356706722838 964:0.8666968082356841 965:1.0115750938169328 11:0.14098029979777343 37:0.20282332387460833 5:0.169356706722838 791:0.5379082315916721 247:0.43642222132491104 8:0.060337124508125214 966:1.0115750938169328 967:1.0115750938169328 968:0.9474654311495225 969:0.5833947611389325 23:0.3589414259577429 307:0.6929909533536032 970:0.7571006160210134 971:0.7737595762674417 13:3.9544968427214294E-4 
85.50830892326042 972:1.3076265254074801 11:0.1945712988724066 18:0.24656537232989417 973:1.0678896695869904 297:0.5654244085049833 154:0.2623048573033306 974:1.2448491504983346 975:1.044898120145963 11:0.1945712988724066 164:0.4105603037412987 98:1.0935920351335169 99:0.15253271418010203 676:0.7266022272259505 976:1.196155235510781 13:5.457724151380274E-4 
40.80762443853574 180:0.8789318164061757 37:0.23039181411181808 432:0.39523236804865675 977:0.8272625908957849 978:0.9517554996092614 979:1.1490720915258237 214:0.31665019178259113 7:0.5294360363681295 980:0.9517554996092614 99:0.12554279655831063 512:0.6110226917428021 11:0.08007142966584449 2:0.15596324470919323 607:0.7104136145841394 542:0.9517554996092614 23:0.20386503067421666 5:0.09618814579234529 363:1.076248408322738 8:0.06853836781765665 981:0.9517554996092614 982:1.076248408322738 2:0.15596324470919323 423:0.842890295539773 983:1.1490720915258237 13:4.4920065606325794E-4 
48.28847808286816 439:0.7211230241542588 26:0.14200748626773307 1004:0.8706252203980414 28:0.14168615727902747 11:0.12133652294669006 5:0.07287952274512059 1005:0.6516084616117247 247:0.751224886713879 8:0.05192992852844718 440:0.7762998365635599 2:0.11816972607752473 18:0.3075210489002719 1006:0.8154484079887402 49:0.5021062653679421 1007:0.8154484079887402 247:0.751224886713879 11:0.12133652294669006 305:0.3968884486761874 419:0.3792415321172596 1008:0.6267976403197772 1009:0.8706252203980414 2:0.11816972607752473 157:0.6267976403197772 18:0.3075210489002719 149:0.4772954440759948 1010:0.8706252203980414 59:0.2219951199689816 532:0.516444015501175 122:0.5443130051209369 13:3.403488980997757E-4 
64.42602848931897 1011:0.8125166679901191 37:0.16291161408833707 18:0.4304940383102601 978:0.6729927678052992 977:0.5849629878443622 612:0.4258619317443148 963:0.6729927678052992 23:0.1441543456365421 5:0.13603058031905527 1012:0.8125166679901191 1013:0.6534156118900717 11:0.05661905089602033 18:0.4304940383102601 1014:0.724486888029182 214:0.22390549787349096 738:0.4564895435876868 1015:0.7610225477662362 5:0.13603058031905527 1016:0.8125166679901191 1017:0.8125166679901191 1018:0.724486888029182 622:0.468593948527247 59:0.2071783942863476 18:0.4304940383102601 580:0.548427328107308 8:0.04846394465532285 31:0.4143085043587544 9:0.3456260157670348 2:0.05514133397486373 442:0.574797553804384 1019:0.460397548146371 13:3.176328300157757E-4 
43.0359624120905 141:0.6883935874955621 142:0.20293683583304423 1032:1.076248408322738 1033:0.7871848259666692 751:0.9000862740988708 1047:0.4594860993051028 524:0.6350056378451854 1048:1.1490720915258237 2:0.15596324470919323 1034:0.7995763114877775 1043:0.860008509169755 350:0.4981212436106005 1049:0.8789318164061757 11:0.08007142966584449 124:0.860008509169755 72:0.9000862740988708 862:0.9845014178832314 1050:1.0245791828123472 1051:0.9517554996092614 2:0.15596324470919323 876:0.6816152244896134 1052:1.076248408322738 1053:1.1490720915258237 349:0.8128864962090387 13:4.4920065606325794E-4 
32.33512073567339 1054:0.678161483679513 214:0.18688119348676946 420:0.4147619056006143 1055:0.5617088139857999 1056:1.2703645363567853 11:0.09451340771913358 1057:0.6351822681783926 1058:1.2703645363567853 11:0.09451340771913358 135:0.8275213028056639 1059:0.678161483679513 1058:1.2703645363567853 1060:0.5453688746039566 5:0.056768497071667166 1056:1.2703645363567853 8:0.04045010017297914 1061:0.4289162049102434 610:0.301295342893163 297:0.27465606677388593 1062:0.37784146984898115 99:0.07409307893485276 152:0.26243314148954666 154:0.12741512272720226 1063:1.090737749207913 135:0.8275213028056639 1064:1.16206972070781 1065:0.678161483679513 632:0.4645821906601918 1066:0.4974585473077513 1063:1.090737749207913 135:0.8275213028056639 1064:1.16206972070781 52:0.228581747065588 1067:0.5187295984846796 13:2.651100706668094E-4 
45.63526209842857 1068:0.7646788944875532 1069:0.6818319604190812 8:0.04561057893521135 1061:0.4836357966232726 610:0.3397335225641808 297:0.30969570310219524 1062:0.4260451299711574 99:0.08354560831392999 152:0.2959134208305445 154:0.14367028728820788 1063:0.6149450804215186 2:0.1037896598694281 1064:0.6551612047671592 52:0.2577433868667639 1070:0.7646788944875532 26:0.24945320917425334 1071:1.0477038419378262 730:0.6330548805015267 1072:1.0819114864056705 1073:0.7646788944875532 1074:0.7646788944875532 28:0.24888875620392048 2:0.1037896598694281 1075:0.7646788944875532 26:0.24945320917425334 1071:1.0477038419378262 730:0.6330548805015267 1072:1.0819114864056705 1076:0.7646788944875532 1077:0.7646788944875532 28:0.24888875620392048 11:0.053285544717748295 1000:0.47807559126392196 13:2.989318630351716E-4 
61.01103731352802 1078:0.531958134650732 1079:0.531958134650732 164:0.17544366179020934 1080:0.4465135833288635 1081:0.38187727545982686 23:0.10584605197647558 1082:0.531958134650732 2:0.12146340388526133 1083:0.5965944425197687 503:0.39170219420478714 154:0.2241800985204478 1084:0.5965944425197687 168:0.3866603998245146 11:0.08314564472595025 5:0.049940568254332914 1085:0.5587846262313144 1069:0.531958134650732 8:0.03558489466495827 1061:0.3773275691915439 610:0.265056526289093 297:0.24162133501388194 1062:0.33239593590946465 99:0.06518140617759043 152:0.23086854313250563 154:0.2241800985204478 1063:0.47977369334903475 2:0.12146340388526133 1064:0.5111498911979001 52:0.201088683510719 1086:0.5965944425197687 26:0.19462077394173893 1071:0.8174075340808186 730:0.49390276917519216 1072:0.8440959790324534 1087:0.5965944425197687 1088:0.5587846262313144 28:0.19418039366239298 2:0.12146340388526133 1089:0.5965944425197687 26:0.19462077394173893 1071:0.8174075340808186 730:0.49390276917519216 1072:0.8440959790324534 1090:0.5965944425197687 1091:0.5965944425197687 28:0.19418039366239298 11:0.08314564472595025 1000:0.37298955536564876 13:2.3322350003968486E-4 
38.08623927901248 14:0.39575055169551965 1085:1.2494804090350313 1092:1.1894945502630232 8:0.07957024344301629 1093:1.1894945502630232 1061:0.8437300944970475 610:0.592684410662372 297:0.5402817299052901 1062:0.7432599081382264 99:0.1457500550821169 152:0.5162377563106249 154:0.25064096974716066 1063:1.0728065921445804 164:0.39230395398439055 1094:1.3340257284727937 26:0.21759264018367397 1071:0.9138894057625931 730:0.5522000830755587 1072:0.9437279943254014 1095:1.3340257284727937 1096:1.3340257284727937 28:0.21710028006339005 13:5.215036000391603E-4 
39.262520571592454 1097:1.6619643088117615 411:0.776705187910886 5:0.14853565775469374 146:0.980588401183003 8:0.10583831782355582 1093:1.5821756577920196 1061:1.1222659380529378 610:0.7883439626482199 297:0.7186418813073949 1062:0.9886280973788424 52:0.5980877053736494 1080:1.3280423334070435 13:6.936646336466315E-4 
36.68518218646808 1098:0.8936410047811454 142:0.24656537232989417 228:0.853855179313027 1079:1.2448491504983346 836:1.2448491504983346 289:0.9423349197686991 876:0.8281528137665003 1056:1.3076265254074801 8:0.08327314314561739 1099:1.3961062658631525 2:0.09474656324379079 1093:1.2448491504983346 1061:0.8829941180918242 610:0.6202657128303073 297:0.5654244085049833 1062:0.7778484273347441 99:0.15253271418010203 152:0.5402615188580278 154:0.2623048573033306 1063:1.1227309739123141 13:5.457724151380274E-4 
74.08006853382476 1100:1.0022936560800295 11:0.08916377051486792 5:0.10711058605386373 1101:1.2795525283040077 8:0.1526421927286739 876:0.7590145912151309 146:0.7071123521181141 8:0.1526421927286739 1061:0.809277476871312 610:0.568482916006125 297:0.5182200303499437 1062:0.7129098594927644 99:0.1397985417374763 1064:1.0962943819291766 152:0.4951578610477449 37:0.25655346641990795 870:1.1409230921920186 360:0.9386029098563227 13:5.002086809177746E-4 
38.985929398768505 1031:0.2966955180873447 142:0.24854584890295778 14:0.13916466383559295 1109:0.41828269982800254 1110:0.40192102081007847 8:0.027980671492741773 1062:0.2613654354122306 164:0.13795267661336202 289:0.3166346655137015 1034:0.3264256622602864 99:0.051252632074982866 5:0.07853729216522758 1104:0.367458682670852 256:0.5460572493936574 755:0.30027298649577744 23:0.08322755025811195 5:0.07853729216522758 756:0.2730286246968287 256:0.5460572493936574 26:0.07651589238353787 1111:0.3885525556550608 1112:0.4691067169851531 11:0.06537804855215693 1113:0.4691067169851531 1114:0.4691067169851531 1115:1.3764340888107705 988:0.7021940073058559 1071:0.6427337189599724 730:0.388359478474312 1072:0.6637190448369991 142:0.24854584890295778 1116:0.4691067169851531 1117:0.4691067169851531 1115:1.3764340888107705 992:0.7021940073058559 1118:0.367458682670852 1119:0.4691067169851531 1120:0.4691067169851531 1115:1.3764340888107705 988:0.7021940073058559 1071:0.6427337189599724 730:0.388359478474312 1072:0.6637190448369991 142:0.24854584890295778 1121:0.4691067169851531 1122:0.4691067169851531 1115:1.3764340888107705 992:0.7021940073058559 11:0.06537804855215693 757:0.3264256622602864 758:0.2932845050455421 1123:0.40192102081007847 28:0.0763427552133386 13:1.8338539991307075E-4 
69.6880556844085 1098:0.835924616665865 142:0.23064078667520393 1104:1.0229616790936178 1105:1.2231726119831103 1106:1.2231726119831103 37:0.2618437851962638 1135:0.8574312418657144 11:0.18200478442003512 1136:1.3059378305970621 11:0.18200478442003512 2:0.08862729455814355 1137:1.3059378305970621 99:0.14268128918416428 1107:1.2231726119831103 535:0.798708384727944 154:0.2453637267289229 1108:1.2231726119831103 13:5.105233471496636E-4 
102.12493600182056 1151:0.3421400989782792 5:0.16060165126328568 1152:0.3178219178195761 1153:0.30056789370234605 1049:0.29350373666087304 8:0.06866152760758636 609:0.6033419481521884 11:0.08021531375253961 607:0.23723006331454174 37:0.07693527196954562 815:0.29350373666087304 23:0.20423136525660196 1154:0.3287568381335317 5:0.16060165126328568 1155:0.3178219178195761 496:0.26286645169889544 1156:0.3287568381335317 59:0.19568066033635861 5:0.16060165126328568 1157:0.3421400989782792 8:0.06866152760758636 117:0.20404022230573232 26:0.06258722869552064 118:0.28718463285759854 28:0.06244560876102859 11:0.08021531375253961 5:0.16060165126328568 826:0.3085765744279655 247:0.1655443843921183 8:0.06866152760758636 609:0.6033419481521884 11:0.08021531375253961 99:0.041922796755023764 1013:0.3085765744279655 23:0.20423136525660196 1158:0.3837123042542123 5:0.16060165126328568 1159:0.3593941230955092 59:0.19568066033635861 586:0.27144906995636786 1160:0.29350373666087304 1161:0.3178219178195761 2:0.05208116744604026 392:0.3085765744279655 23:0.20423136525660196 1162:0.3287568381335317 2:0.05208116744604026 544:0.26700436915203235 609:0.6033419481521884 13:1.5000261522465406E-4 
18.164191484896577 1163:1.307892396038725 142:0.3019796752237955 1164:1.1379172484027875 7:0.7878260329522111 539:1.1898076259470443 1165:1.1898076259470443 662:1.4162575043838683 437:1.1541198601199187 581:0.9159973299707695 8:0.10198835499225256 609:0.8961911412973544 1166:1.4649849900800274 1167:1.3750590022515907 13:6.684319663873003E-4 
42.1216027886576 1182:2.261950674120389 37:0.4535267396060802 432:0.7780156945198642 644:1.6001686679569604 33:0.8294283678697397 34:0.5649247119572927 1183:1.7301790107754325 13:8.84252375713341E-4 
31.212210388662054 1184:0.6462716211772539 221:0.4362163047197081 1185:1.2925432423545078 275:0.3515322682337638 507:0.38717260916852103 1186:0.605313460108994 582:0.5537122797420254 1187:1.2925432423545078 2:0.13157740895320913 1188:1.2925432423545078 495:0.38336026033411025 105:0.8486368428047404 11:0.0900690096674632 2:0.13157740895320913 676:0.33635147325264375 1185:1.2925432423545078 1189:0.6462716211772539 1190:0.6462716211772539 912:0.3661978659005262 1191:0.4362163047197081 154:0.12142355457969718 1187:1.2925432423545078 11:0.0900690096674632 1188:1.2925432423545078 2:0.13157740895320913 1192:0.6462716211772539 105:0.8486368428047404 52:0.21783292003858357 510:0.33872841243599244 179:0.20946826060752627 1193:0.6462716211772539 1194:0.6462716211772539 26:0.10541322054465142 550:0.605313460108994 1195:0.6462716211772539 28:0.10517469562991592 411:0.28288820781902557 486:0.41367540210366155 1196:0.576253182358072 8:0.03854797484772472 5:0.054099015525394485 1197:0.6462716211772539 585:0.605313460108994 13:2.5264353591809743E-4 
33.847128447760745 228:0.6710492664484327 229:0.47563789901875936 326:0.7899230272099823 1233:1.0972072410982865 29:0.3853097703665757 18:0.19377702008750447 386:0.6640483521455137 1234:1.0972072410982865 612:0.5750759505940974 99:0.23975252112963152 1235:0.859459719575187 2:0.07446182128263144 738:0.616434902128251 1236:1.0972072410982865 432:0.3773930455169039 1237:1.0972072410982865 1238:1.0972072410982865 1239:1.0276705487330817 1240:1.0972072410982865 856:0.5417784688205647 297:0.4443700099876166 154:0.20614676392884104 1241:1.0972072410982865 99:0.23975252112963152 5:0.09184656981011283 1242:1.0276705487330817 1243:1.0972072410982865 13:4.2892540526699496E-4 
102.12493600182056 834:0.5657450580773059 1262:0.511897193565749 99:0.08737408858592269 163:0.32669662595022214 229:0.3466777135679591 164:0.23517795865482033 23:0.4256521697306823 1263:0.5757503965364978 5:0.06694411628366483 1264:0.7130769326200116 2:0.108545824475398 1265:0.7490371916764842 8:0.09540137045542119 1266:0.7997203301900048 8:0.09540137045542119 507:0.4791016605073127 1267:0.7130769326200116 2:0.108545824475398 23:0.4256521697306823 1268:0.7997203301900048 379:0.5985405911357422 514:0.4612140550522285 1269:0.5985405911357422 784:0.5564815615580906 23:0.4256521697306823 42:0.24888042428197313 723:0.4891069989665047 13:3.126304255736091E-4 
45.74183491269352 182:0.3621177378955369 142:0.14466944455595077 199:0.367645368081085 1301:0.7672350798076447 926:0.6587497053898488 1302:0.6587497053898488 11:0.1712437646966465 486:0.5243337560845137 1303:0.7672350798076447 33:0.3003716642956616 34:0.20458352101963354 488:0.5700013030566696 1304:0.7672350798076447 23:0.14533113533062408 1305:0.8191495671714685 1306:0.7304011648382894 1307:0.8191495671714685 11:0.1712437646966465 1275:0.626572190110642 1308:0.7018305607508719 2:0.11118294956458988 1309:0.7672350798076447 781:0.7304011648382894 11:0.1712437646966465 573:0.5794898565893862 1310:0.8191495671714685 1311:0.8191495671714685 2:0.11118294956458988 1312:0.8191495671714685 1235:0.6416527625051103 13:3.202257941003069E-4 
30.106016136468593 1324:1.997432511137291 157:1.5353343907639943 1325:1.997432511137291 8:0.1272018272738949 1326:2.1325875471733458 33:0.7819925645722444 34:0.5326161262464784 790:1.5353343907639943 13:8.336811348629576E-4 
37.49430682295279 251:0.9238578111937562 11:0.09100239221001756 170:0.9774126924175872 1327:1.3059378305970621 8:0.07789489279267078 1328:0.9238578111937562 398:1.0502186604747281 280:0.7216935222952531 179:0.423277948269533 18:0.23064078667520393 1329:1.0502186604747281 649:0.8574312418657144 609:0.684477290357332 1330:1.1189007681693093 1331:1.0502186604747281 1332:1.2231726119831103 1333:1.2231726119831103 154:0.2453637267289229 272:0.5891466194525922 1008:0.9401964604796661 896:1.16444975484534 99:0.14268128918416428 1324:1.2231726119831103 13:5.105233471496636E-4 
36.87281036810462 141:0.9582033210146254 142:0.28247612061417754 3:1.324787588212982 164:0.47035591730964066 1352:1.0644241195059418 29:0.5616806839053481 791:0.8505075919915118 247:0.6900441204484131 8:0.09540137045542119 1353:1.5994406603800095 2:0.108545824475398 1354:1.5994406603800095 10:1.1970811822714844 99:0.17474817717184538 1355:1.5994406603800095 13:6.252608511472182E-4 
102.12493600182056 14:0.15601077320839632 1262:0.33662152090665437 8:0.09410333214248685 163:0.21483437784917453 229:0.22797386012763682 164:0.1546520729575746 23:0.18660476172813928 1356:0.49256382306265123 5:0.08804435938469261 116:0.28386145646427957 2:0.07137929447992199 1357:0.4355874757938419 1022:0.37203165848367853 8:0.09410333214248685 891:0.49256382306265123 1358:0.4355874757938419 135:0.4278111202576015 99:0.11491369344203414 1359:0.3935978681754637 154:0.09880641055439744 1360:0.5258928496429709 135:0.4278111202576015 1361:0.49256382306265123 99:0.11491369344203414 5:0.08804435938469261 126:0.2906213864983179 8:0.09410333214248685 1362:0.4689165023741616 250:0.24631614705752536 26:0.25733479759464095 1363:0.4689165023741616 28:0.25675251047412995 22:0.29545804580647345 23:0.18660476172813928 1364:0.38576341965560246 26:0.25733479759464095 1365:0.49256382306265123 28:0.25675251047412995 2:0.07137929447992199 1366:0.45057421544427306 1367:0.45057421544427306 26:0.25733479759464095 1368:0.5258928496429709 28:0.25675251047412995 1369:0.41194015510535226 13:2.0558450146057684E-4 
54.55715862129264 1198:0.8238803102107045 142:0.18575515266766698 1370:1.0517856992859418 37:0.4217713006911185 5:0.08804435938469261 1005:0.7871957363509274 247:0.45377021839094045 8:0.0627355547616579 1371:1.0517856992859418 11:0.0732921678848578 172:0.45594772025527364 37:0.4217713006911185 18:0.18575515266766698 1372:1.0517856992859418 42:0.3273255176966723 518:0.8238803102107045 23:0.18660476172813928 1373:0.8238803102107045 99:0.22982738688406829 1374:1.0517856992859418 450:0.8238803102107045 99:0.22982738688406829 1375:1.0517856992859418 1376:1.0517856992859418 13:4.111690029211537E-4 
17.569807039931238 1377:1.729827296989838 377:0.8798409783727523 634:1.1064378906523749 614:1.0376145563705028 581:0.9893901959957502 8:0.11016001382699328 1378:1.8468749916464628 1379:1.8468749916464628 33:0.6772254264901069 34:0.46125909579471003 1380:1.729827296989838 13:7.21989041447162E-4 
16.552094586847026 1390:0.8060423284134142 1391:0.8060423284134142 37:0.1616134928901516 18:0.14235458408750468 482:0.34774954978453354 214:0.22212136188781317 7:0.3713847535305365 1392:2.4181269852402427 1393:0.8060423284134142 34:0.2013099734729662 1394:0.8060423284134142 1392:2.4181269852402427 1395:0.8060423284134142 1396:0.8060423284134142 47:0.6676301901707797 11:0.11233579178055907 1397:0.6906005472147294 99:0.08806480359210613 5:0.06747332701926347 1398:0.7549585264435036 1399:0.8060423284134142 11:0.11233579178055907 2:0.0547019537935945 1400:0.6676301901707797 710:0.6032722109420057 1401:0.5440573195952427 1402:0.8060423284134142 1403:0.8060423284134142 23:0.14300568712665906 1404:0.8060423284134142 1392:2.4181269852402427 750:0.4607289433315854 13:3.151018507962122E-4 
16.554807550800202 244:0.5577644611480329 142:0.3019796752237955 1414:1.2310061280793219 44:0.8661301357589322 901:0.7015612152797019 1415:1.5246226127290117 99:0.18681365941151906 512:0.909230861166388 185:1.1081909470307307 1416:1.3750590022515907 8:0.10198835499225256 1417:1.3750590022515907 1418:1.7098739890335581 13:6.684319663873003E-4 
97.59311310533099 520:0.7081287521919342 142:0.15098983761189774 1169:0.4975888499646959 1419:0.6155030640396609 5:0.07156627062680805 779:0.502278124821249 8:0.05099417749612628 1420:0.8007544403442074 99:0.2802204891172786 105:0.5613205098670893 297:0.3462503222380505 154:0.32125652872335675 112:0.6155030640396609 104:0.5121812191579564 99:0.2802204891172786 987:0.6398668068877404 1421:0.8007544403442074 280:0.47245931349675674 179:0.277100462564391 152:0.3308412622157999 154:0.32125652872335675 980:0.7081287521919342 99:0.2802204891172786 1422:0.8007544403442074 1423:0.8549369945167791 13:3.3421598319365015E-4 
65.55886637881481 264:0.46825266923489256 142:0.1380398027974349 14:0.23187185990465317 1424:0.7816111070380306 99:0.17079110165889225 5:0.13085640782878746 1425:0.7816111070380306 11:0.10893088300514524 1426:0.7816111070380306 2:0.05304393225342564 1427:0.7816111070380306 105:0.5131774012988471 164:0.2298524842696762 1428:0.6696683774561328 34:0.19520824859621994 1429:0.6473942541684389 1430:0.6969297011318826 8:0.09324105935495072 5:0.13085640782878746 1431:0.5201604129579613 1432:0.7816111070380306 179:0.5066684462008113 1433:0.7816111070380306 280:0.4319376157787502 8:0.09324105935495072 987:0.5849869715499847 1421:0.7320756600745869 1434:0.7320756600745869 179:0.5066684462008113 152:0.3024658037642979 154:0.14685156489255752 980:0.6473942541684389 99:0.17079110165889225 1422:0.7320756600745869 11:0.10893088300514524 1181:0.628561751266796 13:3.0555108304962446E-4 
70.24778699195593 1452:0.39764872482247116 26:0.25998325293352464 629:0.37586055858329487 28:0.2593949729918037 37:0.1065280286349081 18:0.18766691986901843 1453:0.5313052685553625 679:0.47374252833649494 8:0.06338122070539891 1454:0.47374252833649494 1214:0.31516365471725416 154:0.19964662584872703 472:0.3036908935661581 1275:0.40639843940291287 1455:0.40639843940291287 512:0.28252324438473597 26:0.25998325293352464 210:0.9952664481771429 11:0.07404648107975957 117:0.28252324438473597 28:0.2593949729918037 135:0.21610704756087523 1456:0.5313052685553625 2:0.1081708809561511 1457:0.49763322408857147 26:0.25998325293352464 210:0.9952664481771429 11:0.07404648107975957 790:0.3825077436508363 28:0.2593949729918037 2:0.1081708809561511 154:0.19964662584872703 18:0.18766691986901843 1458:0.47374252833649494 339:0.41617978811762735 8:0.06338122070539891 1459:0.5313052685553625 1460:0.5313052685553625 505:0.28678292063042926 1461:0.5313052685553625 2:0.1081708809561511 1462:0.5313052685553625 13:2.0770034966911447E-4 
43.375056471469286 182:0.5656459890077337 142:0.22598089649134204 1463:0.7313845235189675 37:0.5131069328398159 18:0.22598089649134204 299:0.9576649458171875 901:0.52500034068508 8:0.07632109636433695 1464:1.1984595066823747 1386:0.7250347838560515 37:0.5131069328398159 1465:1.2795525283040077 297:0.5182200303499437 154:0.24040637274942053 869:0.7910831212301668 1466:1.0022936560800295 2:0.0868366595803184 1289:0.7447227984187019 13:5.002086809177746E-4 
59.25182861941002 520:0.6784866774744657 142:0.14466944455595077 428:0.38801151528894906 1467:0.8191495671714685 23:0.4359934059918722 1021:0.5009898728081076 5:0.06857052623060336 787:0.626572190110642 11:0.05708125489888217 146:0.4526822966360731 561:0.47241926872069007 2:0.11118294956458988 371:0.6130821584176929 8:0.048859575257737965 1464:0.7672350798076447 22:0.460216050672701 23:0.4359934059918722 736:0.460216050672701 467:0.4355853537513347 910:0.5897382751412865 1468:0.8191495671714685 99:0.089496845516176 1013:0.6587497053898488 23:0.4359934059918722 1469:0.7672350798076447 1470:0.8191495671714685 392:0.6587497053898488 2:0.11118294956458988 126:0.4526822966360731 1471:0.7018305607508719 13:3.202257941003069E-4 
102.12493600182056 199:0.3272266404897905 163:0.2978442865656482 229:0.31606073667131096 11:0.05080577343594608 377:0.34733571780924827 1477:0.6828856812252837 5:0.18309576197441949 1478:0.6828856812252837 8:0.13046394206567125 5:0.18309576197441949 614:0.4096201536473406 272:0.3289149762061641 8:0.13046394206567125 508:0.3272266404897905 214:0.20091633144671572 52:0.2457486770029131 510:0.38213718663229607 179:0.2363120684847967 5:0.18309576197441949 1479:0.6828856812252837 8:0.13046394206567125 152:0.28214237641761153 154:0.13698424411547278 1062:0.4062180927577746 2:0.049479778918012134 1480:0.5863271286225401 1481:0.7290927186795595 1146:0.5348186433696006 13:2.8502034813752345E-4 
82.47901650495412 1031:0.3948869743571592 142:0.11026738668543781 1482:0.6243577028566806 168:0.40465411980782934 8:0.1117226452642027 1483:0.5349368836488754 105:0.40993054032600795 2:0.1271158536285595 1484:0.6243577028566806 794:0.5567134644494285 1485:0.6243577028566806 1259:0.5021005556224956 8:0.1117226452642027 5:0.10452922874352576 1486:0.6243577028566806 181:0.48906922604217645 1487:0.5171441215913443 1488:0.48906922604217645 214:0.17205446708568228 272:0.28166595786495235 1489:0.6243577028566806 2:0.1271158536285595 1490:0.6243577028566806 11:0.08701493014982588 510:0.32724273594990716 179:0.20236556538884373 1062:0.3478643919423587 152:0.24161229635876696 11:0.08701493014982588 1491:0.5567134644494285 23:0.11077172893089982 5:0.10452922874352576 1492:0.6243577028566806 256:0.3633875166516235 8:0.1117226452642027 1047:0.24966552366245798 2:0.1271158536285595 1493:0.5171441215913443 18:0.11026738668543781 1494:0.6243577028566806 1014:0.5567134644494285 154:0.11730629835172589 912:0.35378074922767233 1495:0.6243577028566806 13:2.440768440985729E-4 
42.1487729414953 1496:1.5079671160802595 1497:0.9900763166055306 1498:1.5079671160802595 418:0.7268059834077615 419:0.6568656019673579 832:1.085645359098137 26:0.24596418127085334 1499:1.5079671160802595 28:0.24540762313647055 2:0.10233798474138488 1500:1.1812144015907438 8:0.08994527464469103 632:1.033049919660695 901:0.6187188350394464 42:0.4692934285716488 99:0.16475416143760016 512:0.8018662476637859 13:5.895015838088941E-4 
15.462043718727136 244:0.6292431758344578 142:0.34067901974996484 14:0.57225435228879 605:1.3020228011313464 612:1.0110399625389315 37:0.38676890308176287 5:0.16147528409806353 247:0.8322245222975253 8:0.1150583819223015 692:1.5110145395322614 13:7.540929597649388E-4 
55.156096376401926 182:0.38487334670024714 142:0.15376052445013594 1505:0.6819744527290785 5:0.07287952274512059 1022:0.6159052074625041 8:0.10385985705689436 1506:0.8706252203980414 1033:0.5964316492024235 11:0.12133652294669006 1507:0.7762998365635599 180:0.6659462117449576 7:0.40114138116225345 1508:0.8706252203980414 99:0.0951208594561095 1509:0.6659462117449576 980:0.7211230241542588 152:0.6738245009416163 11:0.12133652294669006 2:0.11816972607752473 514:0.5021062653679421 152:0.6738245009416163 1334:0.550643577406036 1510:0.7211230241542588 2:0.11816972607752473 1511:0.6386383889554184 8:0.10385985705689436 920:0.6659462117449576 287:0.4325917028254081 1512:0.8706252203980414 13:3.403488980997757E-4 
66.98068953164592 502:0.5111498911979001 1513:1.063916269301464 59:0.30424355218989174 18:0.2107282725486331 532:0.3538923779163329 225:0.2573877840864414 1514:0.47977369334903475 11:0.12471846708892538 5:0.049940568254332914 826:0.47977369334903475 612:0.31269126132250735 8:0.03558489466495827 1515:0.4465135833288635 11:0.12471846708892538 418:0.2875450040437802 419:0.259874610949587 352:0.40268551891265886 11:0.12471846708892538 2:0.12146340388526133 18:0.2107282725486331 1516:0.5965944425197687 1517:0.531958134650732 37:0.11961867050364201 1518:0.5111498911979001 1519:0.5111498911979001 23:0.10584605197647558 1007:0.5587846262313144 2:0.12146340388526133 1520:0.5965944425197687 1513:1.063916269301464 59:0.30424355218989174 628:0.4673218267816955 99:0.13036281235518085 1521:0.47977369334903475 1522:0.5587846262313144 1523:0.5965944425197687 372:0.4151373854799981 2:0.12146340388526133 99:0.13036281235518085 9:0.2537776372107242 116:0.322024091955478 1524:0.5587846262313144 13:2.3322350003968486E-4 
55.44504791099032 1539:0.6246716986705573 610:0.3239232040775697 1146:1.0696372867392012 26:0.3567664540723589 1540:0.7290927186795595 28:0.237306117924305 37:0.14618490462965536 18:0.25752913233019115 726:0.5456802464025732 1541:0.6828856812252837 1146:1.0696372867392012 622:0.42048175668031323 59:0.1859066585249865 18:0.25752913233019115 1542:0.5711098141435913 1543:0.6246716986705573 263:0.45582719110161646 26:0.3567664540723589 1544:0.6828856812252837 831:0.6828856812252837 99:0.07965761202309778 1545:0.7290927186795595 1531:0.46112863890028016 154:0.13698424411547278 583:0.5348186433696006 8:0.04348798068855708 1546:0.7290927186795595 1547:0.6038942289572996 26:0.3567664540723589 1548:0.6246716986705573 28:0.237306117924305 1549:0.6501012664115754 2:0.049479778918012134 1550:0.7290927186795595 13:2.8502034813752345E-4 
77.26447190372396 428:0.3176792406719655 418:0.3232466631277217 694:0.48284032834067386 59:0.34201850715700044 5:0.05614120160633176 635:0.4058994526548871 540:0.5019528206801376 214:0.18481614453747766 1551:0.6706677566051422 26:0.10939246877407635 1552:0.628163464140182 28:0.1091449397720003 11:0.0934690286156889 18:0.3553385207710488 1553:0.6706677566051422 112:0.48284032834067386 59:0.34201850715700044 126:0.37062757829209436 8:0.08000624804072676 1554:0.6706677566051422 11:0.0934690286156889 1555:0.41930003115297226 1556:0.5393425142170989 1557:0.6706677566051422 1558:0.5980061887053881 1047:0.2681837925442952 610:0.29796601039234033 33:0.24592528436111083 1559:0.5746143885798917 99:0.14654869149923264 18:0.3553385207710488 1560:0.42929125278038355 268:0.33751719254116586 8:0.08000624804072676 1561:0.628163464140182 99:0.14654869149923264 18:0.3553385207710488 1562:0.628163464140182 1563:0.628163464140182 411:0.29356696703227086 1564:0.6706677566051422 1565:0.6706677566051422 13:2.621805877013877E-4 
39.443222397912294 1552:0.9595355410760207 164:0.30126889868036394 1566:0.7667455986877751 23:0.18175705627227665 877:0.9595355410760207 1567:0.9134695419314958 5:0.08575710198893055 1568:0.8485431627377553 370:0.6479405414372115 8:0.06110578128600712 1569:0.9134695419314958 99:0.22385682393065498 1570:1.0244619202697611 931:0.6726244052057495 154:0.38495828631342316 1571:0.9134695419314958 26:0.16709975620509931 1572:1.0244619202697611 28:0.1667216494088625 2:0.06952496990598608 99:0.22385682393065498 1573:0.6639667208823692 1227:0.4798344628175039 154:0.38495828631342316 1574:1.0244619202697611 1559:0.8777379770260406 13:4.004874629632058E-4 
102.12493600182056 1583:0.6818319604190812 26:0.37417981376138 1584:0.6551612047671592 28:0.37333313430588067 2:0.05189482993471405 1585:0.7646788944875532 508:0.3431981959026854 26:0.37417981376138 1586:0.7646788944875532 28:0.37333313430588067 418:0.3685579015435279 419:0.3330916549725124 1587:0.5989850263506094 29:0.2685347290856721 1588:0.5989850263506094 807:0.6818319604190812 99:0.08354560831392999 1589:0.6818319604190812 26:0.37417981376138 1590:0.7162165447577791 28:0.37333313430588067 13:2.989318630351716E-4 
50.604616409970724 244:0.22504306351918454 142:0.12184073379830289 488:0.4800556001551107 11:0.0961477664389318 432:0.23729256222121556 39:0.49667809545207925 612:0.361589190392652 214:0.19011280808529343 37:0.1383243587950694 18:0.24368146759660578 791:0.3668503691000929 247:0.2976374845627195 8:0.12344873212339971 486:0.4415943518180162 11:0.0961477664389318 18:0.24368146759660578 42:0.21469973077098828 172:0.5981315081897651 305:0.628993429824816 419:0.30051319560206347 1620:0.5404005224966146 23:0.12239801035232037 145:0.30051319560206347 676:0.35905183160205445 8:0.12344873212339971 5:0.0577501576681683 315:0.32312794205555756 1621:0.6898884879324613 99:0.0753743222267435 339:0.5404005224966146 2:0.046819189091343305 172:0.5981315081897651 305:0.628993429824816 33:0.252973280586882 1622:0.6461660608879259 8:0.12344873212339971 1623:0.6898884879324613 13:2.696944462189874E-4 
60.96462147258809 14:0.3039157052854981 53:0.783616783544015 1634:0.9595355410760207 272:0.4621646321470753 120:0.5529743425441037 1635:0.9134695419314958 29:0.35976356376696844 1636:1.0244619202697611 59:0.26122094968712506 1637:1.0244619202697611 8:0.06110578128600712 221:0.6914847852549649 1638:0.8024771635932303 1639:1.0244619202697611 225:0.44198196420583824 1593:0.8777379770260406 26:0.33419951241019863 1594:0.8485431627377553 28:0.333443298817725 2:0.06952496990598608 1061:0.6479405414372115 297:0.4149080836237635 42:0.31882210286799306 26:0.33419951241019863 1640:1.0244619202697611 28:0.333443298817725 13:4.004874629632058E-4 
65.06839694131627 1164:0.8877910863479967 164:0.39230395398439055 510:0.6991989162872772 179:0.4323817413487244 5:0.1116705054516564 1653:1.3340257284727937 99:0.2915001101642338 1382:0.9004321938434824 152:0.5162377563106249 2:0.0905334759553188 1654:1.1894945502630232 99:0.2915001101642338 676:0.6942924684073191 154:0.25064096974716066 297:0.5402817299052901 1655:1.0204039113874985 13:5.215036000391603E-4 
43.55625336211451 95:1.0930310627304314 37:0.38676890308176287 432:0.6634940136301714 853:0.9524997215669788 9:0.8205516576752531 482:0.8322245222975253 297:0.781246090689705 154:0.36242624346370406 307:1.3214818974165958 1688:1.652725965742572 13:7.540929597649388E-4 
33.18605849592854 244:0.33418161489719456 142:0.18092951875188545 14:0.3039157052854981 1697:0.9595355410760207 1698:0.8238592989692174 297:0.4149080836237635 1273:0.6404913772186124 601:0.5572446797145881 26:0.16709975620509931 1699:0.8485431627377553 28:0.1667216494088625 8:0.12221156257201424 95:0.5804924069166996 814:0.783616783544015 18:0.18092951875188545 1700:0.9595355410760207 722:0.515566027722959 99:0.11192841196532749 5:0.08575710198893055 122:0.6404913772186124 8:0.12221156257201424 749:0.6333733985447627 11:0.0713881497942313 1701:0.8777379770260406 607:0.6333733985447627 305:0.4670173718121803 419:0.44625230137632266 432:0.35237172124355987 853:0.5058583189563618 1284:0.8777379770260406 59:0.26122094968712506 1702:1.0244619202697611 13:4.004874629632058E-4 
99.8195999741878 244:0.21299982193059308 142:0.11532039333760197 95:0.36999276379508683 26:0.10650561470079982 525:0.5114808395468089 526:0.5408422681156941 28:0.10626461795927063 216:0.29157126763845365 37:0.1309218925981319 916:0.43454932711680344 1713:0.5114808395468089 11:0.18200478442003512 2:0.08862729455814355 305:0.2976663365071406 18:0.11532039333760197 591:0.5408422681156941 593:0.4473237369018177 154:0.12268186336446145 669:0.47009823023983305 1688:0.5594503840846546 11:0.18200478442003512 92:0.3374907159648417 1714:0.4994596588087183 11:0.18200478442003512 1715:0.6529689152985311 1716:0.5594503840846546 11:0.18200478442003512 2:0.08862729455814355 1717:0.5408422681156941 13:2.552616735748318E-4 
28.147641860486075 244:0.45541277549036435 142:0.24656537232989417 1169:0.8125591894078669 901:0.572822333587377 5:0.2337344611061485 1718:1.3961062658631525 11:0.0972856494362033 605:0.9423349197686991 1719:1.3076265254074801 1720:1.3076265254074801 1721:1.2448491504983346 5:0.2337344611061485 1141:1.0240997337910502 1142:1.2448491504983346 13:5.457724151380274E-4 
68.97776013892157 1722:1.3340257284727937 720:1.0449633720532527 18:0.23560137109992324 1723:1.1049492308252609 722:0.6713556961959496 99:0.1457500550821169 5:0.2233410109033128 756:0.7764271897361031 8:0.07957024344301629 1514:1.0728065921445804 11:0.09295965682013581 5:0.2233410109033128 482:0.5755365817953215 214:0.3676179291787522 7:0.6146535968495148 1515:0.9984347252003556 13:5.215036000391603E-4 
19.389540543391313 244:0.2814061031087401 142:0.15235628933378295 1735:0.8080012345730221 1736:0.8080012345730221 2:0.05854526394581804 1737:0.8626741385970557 26:0.14071058708170803 1738:0.8626741385970557 28:0.14039219266578343 935:0.6937516143853316 99:0.18850431522393668 1739:1.2421466821058047 4:0.3406815007727229 297:0.3493838731876292 154:0.16208194344294624 876:0.5117275330048352 890:0.6002876676252719 8:0.05145567267187982 1739:1.2421466821058047 23:0.15305313828779019 636:0.7391215215158758 350:0.7479362137810858 119:0.4554001300332391 11:0.06011420181782803 92:0.44587805921261187 1740:0.6456575747558161 610:0.38327110378403223 432:0.296723543428247 853:0.42597082519467744 918:0.6456575747558161 482:0.3721821208799112 611:0.48881835155681636 350:0.7479362137810858 484:0.4341454475327827 99:0.18850431522393668 512:0.4587296812356964 13:3.372406238776834E-4 
44.848989625301066 182:0.4082198300245589 142:0.1630876642762366 14:0.27394591470641644 593:0.6326112954979647 505:0.49844433651468856 1741:0.9234374958232314 526:0.7648664706738404 26:0.3012433695575088 594:0.864913648494919 28:0.3005617278367922 216:0.4123440410926167 2:0.12533792196056182 1742:0.864913648494919 26:0.3012433695575088 1743:0.9234374958232314 28:0.3005617278367922 305:0.4209637701503117 1458:0.8233903180021528 419:0.4022463886015352 1744:0.9234374958232314 11:0.06434840863590127 2:0.12533792196056182 5:0.077300407114071 1624:0.5532189453261874 179:0.29930270754811544 1002:0.7233431401810742 1079:0.8233903180021528 4:0.36467775938952585 1745:0.9234374958232314 13:3.60994520723581E-4 
52.33517589965133 182:0.4471824186507512 142:0.17865358514984844 199:0.4540085383822661 1753:1.0115750938169328 11:0.14098029979777343 1362:0.9019789016022621 250:0.47379856892426186 26:0.1649977888055126 1363:0.9019789016022621 28:0.16462443825893947 33:0.37093164260468814 34:0.252642011621199 1361:0.9474654311495225 113:0.7156171834034107 1754:0.7737595762674417 2:0.13730081433724367 1463:0.5782102349292314 280:0.5590213985830572 4:0.39948447007616933 297:0.4096889062568516 154:0.1900579254769012 869:0.6254061204006075 1289:0.5887550671143851 11:0.14098029979777343 1466:0.7923827093875915 2:0.13730081433724367 1755:0.9474654311495225 13:3.9544968427214294E-4 
34.16640610095977 244:0.32997790523293286 142:0.17865358514984844 1770:0.9474654311495225 37:0.20282332387460833 18:0.17865358514984844 1771:0.9474654311495225 8:0.12067424901625043 5:0.169356706722838 449:0.9019789016022621 1438:0.7923827093875915 8:0.12067424901625043 5:0.169356706722838 9:0.43030091947524535 132:0.6122223304397647 447:0.6122223304397647 26:0.1649977888055126 1772:1.0115750938169328 28:0.16462443825893947 11:0.07049014989888672 2:0.06865040716862184 1509:0.7737595762674417 1773:1.0115750938169328 272:0.45635100912285753 4:0.39948447007616933 1774:0.7156171834034107 29:0.35523805577239587 1775:0.9019789016022621 13:3.9544968427214294E-4 
36.726617365199296 244:0.40928721895869813 142:0.22159250017472007 201:0.6721582780402849 26:0.20465456942298027 1785:1.2547044827863691 28:0.20419148506345092 157:0.9033115405841189 5:0.2100611416926963 315:0.5876747974526761 1786:0.8730801050274735 350:0.5439127465879242 482:0.5413151439086813 2:0.08515035032601104 5:0.2100611416926963 1787:1.0750050857882718 247:0.5413151439086813 8:0.07483899224241336 248:0.8876138741091897 250:0.5876747974526761 13:4.904949663208153E-4 
31.816813998822187 488:0.7525004150860626 11:0.15071428003655532 5:0.09052496752988783 791:0.5750480880404251 247:0.46655497947789865 8:0.12900619863572896 486:0.6922113458010877 11:0.15071428003655532 44:0.5477887958218153 1788:1.0814192634447626 145:0.47106273597542664 1789:0.9265378613224129 29:0.37976545584114235 18:0.1909887161570222 1790:1.0814192634447626 135:0.43986449604376915 1791:1.0814192634447626 185:0.7008814949992239 1416:0.8696636728467253 8:0.12900619863572896 1417:0.8696636728467253 1792:1.0814192634447626 13:4.227534949297961E-4 
11.943361666292109 244:0.45541277549036435 142:0.24656537232989417 605:0.9423349197686991 1793:1.2448491504983346 18:0.24656537232989417 1794:1.3961062658631525 1795:1.3076265254074801 1796:1.2448491504983346 1797:1.3961062658631525 23:0.24769311587467208 756:0.8125591894078669 748:1.0240997337910502 8:0.08327314314561739 495:0.8281528137665003 561:0.8051612643254732 692:1.0935920351335169 1146:1.0240997337910502 2:0.09474656324379079 1798:1.3961062658631525 1799:1.3961062658631525 13:5.457724151380274E-4 
102.12493600182056 182:0.2235912093253756 142:0.08932679257492422 1800:0.5057875469084664 1801:0.47373271557476127 272:0.22817550456142877 1480:0.4067479381894883 5:0.084678353361419 1802:0.5057875469084664 1146:0.3710153767009605 11:0.17622537474721675 1803:0.5057875469084664 11:0.17622537474721675 172:0.21925823777884187 11:0.17622537474721675 34:0.1263210058105995 727:0.38687978813372087 8:0.030168562254062607 5:0.084678353361419 902:0.3785503080105067 1804:0.5057875469084664 1805:0.5057875469084664 1806:0.5057875469084664 26:0.0824988944027563 1807:0.47373271557476127 28:0.08231221912946973 1808:0.45098945080113106 11:0.17622537474721675 807:0.45098945080113106 432:0.17396959805081272 1440:0.3237522119031714 11:0.17622537474721675 1809:0.5057875469084664 1062:0.2818023652984684 13:1.9772484213607147E-4 
13.858822992025866 244:0.50616300081371 142:0.27404208988399253 1810:1.551685361095163 11:0.10812695406209823 1811:1.551685361095163 366:1.2852327429904469 99:0.1695306334973335 1812:1.4533456276697252 23:0.2752955067565395 1255:1.1382232170146205 730:0.6422970464631125 8:0.09255292405091331 152:0.6004671066043425 154:0.29153554938749177 110:1.4533456276697252 1813:1.551685361095163 13:6.065921253749605E-4 
42.121731284916656 1097:0.8932789750742178 855:0.8932789750742178 856:0.4709284662696046 1346:0.8503938637468711 5:0.1596710343508535 1814:0.9537221446898283 214:0.5256350793836181 38:1.2063996339625118 11:0.06645875066714536 1815:0.9537221446898283 216:0.4258670944158856 154:0.17918833056395245 325:0.6636429865968664 37:0.19122366359270793 622:0.5500298556133938 59:0.24318346972615357 5:0.1596710343508535 587:0.7138013061719615 1298:0.6437373018609566 214:0.5256350793836181 1816:0.9537221446898283 1817:0.9537221446898283 29:0.3349216508962481 38:1.2063996339625118 338:0.6746903508242253 42:0.29680722504719 13:3.7283353782254864E-4 
29.23869116722501 244:0.3220254617882234 142:0.1743480467802541 1818:0.8802412758716854 1819:0.9871962078488641 788:0.8458094783814649 11:0.13758268485695316 18:0.3486960935605082 1820:0.8802412758716854 1821:0.9871962078488641 1822:0.9871962078488641 33:0.3619922170768344 34:0.24655335757099223 773:0.8458094783814649 11:0.13758268485695316 37:0.19793529656489425 18:0.3486960935605082 421:0.5137853620967182 901:0.40504655649473686 8:0.058883004208984124 1823:0.9871962078488641 975:0.7388545464042864 99:0.10785691654953959 5:0.08263761122257048 1824:0.9246315833750325 2:0.06699593736380456 131:0.817676651397854 1825:0.9871962078488641 460:0.7241478663749897 461:0.7388545464042864 13:3.859193757286587E-4 
9.953689943384052 244:0.3430946885957435 142:0.18575515266766698 95:0.5959749211354674 26:0.17155653172976063 139:0.5812427729966358 28:0.17116834031608663 37:0.21088565034555926 676:0.5474009037507462 8:0.1254711095233158 5:0.08804435938469261 969:0.6065849886526694 7:0.48461124053513405 8:0.1254711095233158 1688:0.9011484308885461 355:0.5634525692690989 29:0.3693589424920789 38:0.6652219882333921 1714:0.8045168984270444 11:0.1465843357697156 1831:0.9011484308885461 1832:0.9011484308885461 11:0.1465843357697156 2:0.07137929447992199 1833:0.9851276461253025 13:4.111690029211537E-4 
59.158155215546834 1871:1.0940388434440833 1872:1.041515523286858 37:0.23420020127387953 1873:0.9674880612894871 59:0.2978377073543183 5:0.19555628043099804 1855:0.7884139589776656 2:0.07927066211756245 723:0.7143864969802949 8:0.13934262030757621 768:0.9674880612894871 11:0.08139501403867862 5:0.19555628043099804 791:0.6211229246175349 247:0.5039369739245436 8:0.13934262030757621 1874:1.0940388434440833 13:4.5662596333094843E-4 
37.99160570367554 1452:0.9984347252003556 11:0.18591931364027162 174:0.7256284739193581 1875:1.1894945502630232 2:0.0905334759553188 1876:1.3340257284727937 11:0.18591931364027162 37:0.26747547862429255 432:0.4588486236768787 644:0.9437279943254014 8:0.07957024344301629 1153:1.0449633720532527 921:1.142965903410126 33:0.48917016419631226 34:0.3331744184449002 117:0.7093723687808148 13:5.215036000391603E-4 
62.745605540596095 182:0.4416953100026944 142:0.17646143360006292 1877:0.9991626593965699 11:0.13925041465479296 5:0.16727863162125162 246:0.7478106860855914 247:0.4310671446381723 8:0.11919352730681317 1878:0.9991626593965699 2:0.06780803898249295 254:0.5434834278384958 9:0.4250209536312316 671:0.5711153621253141 11:0.13925041465479296 37:0.20033459988179597 41:0.7329257367592705 34:0.2495419922353478 5:0.16727863162125162 1479:0.9358396481487474 8:0.11919352730681317 1879:0.8275882454182198 1880:0.9991626593965699 13:3.905973571413313E-4 
23.88878397388048 244:0.491902018115881 142:0.2663210405460721 1414:1.085645359098137 37:0.30235115973738685 432:0.5186771296799095 1915:1.1534526738502886 1916:1.1286189621533016 350:0.6537017657337373 482:0.6505798358493063 622:0.8696735624159372 59:0.38450682681862447 1415:1.3445907588355015 11:0.10508051127870709 18:0.2663210405460721 9:0.6414547378182078 1917:1.1286189621533016 42:0.4692934285716488 13:5.895015838088941E-4 
25.710670507607 14:0.4744882427974433 315:0.7491413149644707 421:0.8324274265966053 671:0.9142306543987093 297:0.6477750379374296 154:0.30050796593677565 1918:1.5994406603800095 4:0.6316404076530369 1919:1.5994406603800095 11:0.11145471314358489 1920:1.5994406603800095 2:0.108545824475398 1921:1.5994406603800095 1922:1.5994406603800095 1923:1.5994406603800095 13:6.252608511472182E-4 
63.667158880099066 376:0.6216884818294606 11:0.12247585801713748 377:0.41865556984698876 1934:0.6883781092067311 214:0.2421712968764872 1925:0.752938072777856 234:0.5931670215855732 601:0.47801365121697104 235:0.5558140530700778 1935:0.752938072777856 23:0.155914192213839 876:0.5212933614729702 1043:0.657726985156698 1047:0.3514109495371315 2:0.11927932531372866 736:0.49372912157631355 350:0.3809587699530956 1049:0.6721993650053818 11:0.12247585801713748 172:0.3809587699530956 164:0.25843341623302074 297:0.35591497809187506 154:0.16511177468859575 1936:0.783589196827889 8:0.10483508837787564 947:0.8231053685377933 897:0.783589196827889 1937:0.7278942809166353 2:0.11927932531372866 1938:0.8788002844490469 8:0.10483508837787564 1939:0.5931670215855732 1862:0.8231053685377933 748:0.644635125108725 13:3.435447325144768E-4 
64.799470929483 1950:0.5223751322388248 1951:0.4892690447932441 142:0.09225631467008157 1952:0.5223751322388248 1232:0.4475603072677237 8:0.06231591423413663 1953:0.5223751322388248 11:0.10920287065202107 18:0.09225631467008157 721:0.3012637592207653 1954:0.5223751322388248 8:0.06231591423413663 1885:0.7819301539340697 1955:0.5223751322388248 11:0.10920287065202107 573:0.3695431244775025 5:0.043727713647072355 956:0.2863772664455969 1956:0.4892690447932441 2:0.14180367129302968 1957:0.5223751322388248 418:0.25177297810146104 419:0.22754491927035578 138:0.334369846666346 99:0.057072515673665704 669:0.3760785841918664 903:0.33855792661554146 1958:0.5223751322388248 92:0.26999257277187333 1959:1.0447502644776496 2:0.14180367129302968 1593:0.4475603072677237 26:0.08520449176063985 1594:0.43267381449255526 28:0.0850116943674165 11:0.10920287065202107 2:0.14180367129302968 1555:0.3265878030725622 145:0.22754491927035578 432:0.1796750282659189 853:0.2579381439471732 1960:0.465779901938136 505:0.2819626963148526 1959:1.0447502644776496 2:0.14180367129302968 1885:0.7819301539340697 1046:0.4091846716374471 13:2.0420933885986542E-4 
39.67331350131787 1961:0.7739158120039228 728:0.7938270778922183 1138:1.0780709882110355 5:0.1012099905288952 9:0.5143079695797084 1962:1.1324377896652553 29:0.4245906873834944 18:0.42706375226251403 1963:1.0359008208220941 1386:0.6850934749837785 738:0.6792781781079789 37:0.2424202393352274 18:0.42706375226251403 12:0.7243336265259684 901:0.4960786927417525 8:0.07211665741708265 1964:1.2090634926201214 2:0.08205293069039175 1965:1.0780709882110355 487:0.8160859793928642 32:0.35350147785601777 13:4.726527761943184E-4 
66.24412129808073 244:0.3111061525759184 142:0.16843621539032816 1582:0.7899506941312605 37:0.19122366359270793 1974:0.8503938637468711 34:0.23819317283994712 18:0.16843621539032816 591:0.7899506941312605 593:0.653358136556351 154:0.17918833056395245 669:0.6866224131883033 1688:0.8171295871149187 11:0.19937625200143608 92:0.49293674155336714 1714:0.7295075245156502 11:0.19937625200143608 1716:0.8171295871149187 11:0.19937625200143608 2:0.06472422458686677 749:0.5896385449744533 13:3.7283353782254864E-4 
42.21068707498696 14:0.24709243041201556 1624:0.49898978744441147 8:0.09936160420535545 163:0.3402582236285519 229:0.36106875192587673 1975:0.5996505369749133 214:0.22952743134442094 1976:0.7136268584887746 876:0.49407641524426554 5:0.0697230527643517 1977:0.780130690147969 8:0.09936160420535545 1717:0.6898906135614411 122:0.5207383768016075 2:0.056525850719870895 1978:0.6371035526961173 42:0.25921177121372385 29:0.5849967724528131 1979:0.780130690147969 29:0.5849967724528131 1980:1.6658355020265858 1981:0.7426776744267651 26:0.13585702931405386 1982:0.6371035526961173 11:0.11608134182274749 1980:1.6658355020265858 191:0.4396919243867794 1071:0.5705997210369228 730:0.3447738986497575 1072:0.5892298640309394 11:0.11608134182274749 1983:0.8329177510132929 1984:0.8329177510132929 28:0.13554961733891527 13:3.2560811715919745E-4 
66.49709191122443 527:0.556623728488184 1828:0.6534156118900717 164:0.23894104493446186 1985:0.556623728488184 869:0.5023382843196914 1986:0.724486888029182 505:0.4385725436916699 1976:0.696147628673004 2:0.16542400192459117 1717:1.3459855356105983 11:0.05661905089602033 163:0.33192410388969557 612:0.4258619317443148 876:0.4819747473965965 5:0.06801529015952763 1977:0.7610225477662362 8:0.04846394465532285 1717:1.3459855356105983 2:0.16542400192459117 1978:0.6214986475814165 42:0.2528627639333751 2:0.16542400192459117 1555:0.5079836638115697 145:0.35392963449703985 1774:0.574797553804384 29:0.2853340727581323 18:0.14349801277008672 6:0.574797553804384 386:0.49174880939495175 146:0.44901679261201954 147:0.556623728488184 13:3.176328300157757E-4 
30.928487145899044 244:0.4016363159430652 142:0.21745021903498213 1987:1.2312499944309752 37:0.2468686881651091 18:0.21745021903498213 1988:1.2312499944309752 482:0.5311962115914798 8:0.07344000921799551 1989:1.2312499944309752 2:0.16711722928074907 254:0.6697247552301518 233:1.0978537573362035 956:0.674997690271161 214:0.33929598477252776 44:0.6236849801033819 901:0.5051818133652937 1990:1.1532181979932252 2:0.16711722928074907 1991:1.2312499944309752 671:0.7037750858913367 13:4.813260276314413E-4 
26.872342328141283 244:0.46665922886387756 142:0.25265432308549224 1992:1.4305832170347423 37:0.28683549538906183 432:0.49206033000811056 840:0.9656059527914348 612:0.749807304057448 214:0.3942263095377136 305:0.6521542684595376 419:0.623157425650329 1620:1.1205983742058707 23:0.25380991634348904 145:0.623157425650329 297:0.5793876075822391 154:0.2687824958459286 1593:1.225694380672378 26:0.23334211069032754 1594:1.1849260411968907 28:0.2328141132838444 13:5.592503067338229E-4 
102.12493600182056 1993:0.8259476054531693 1994:0.8259476054531693 8:0.14779516759168423 1995:0.707654980625409 152:0.31962302493026695 154:0.31036329266021273 18:0.2917400828906632 478:0.48994181188410535 31:0.4211570427723933 1533:0.6841173688548224 8:0.14779516759168423 5:0.06913958599818842 42:0.2570425969176314 1996:0.7736022850807989 23:0.1465372235239098 145:0.35978010744673167 18:0.2917400828906632 146:0.4564390606085017 147:0.5658247440270622 8:0.14779516759168423 1997:0.8259476054531693 154:0.31036329266021273 736:0.4640353364975463 13:3.228833151371534E-4 
102.12493600182056 14:0.16582492102803748 2044:0.4495207085841368 8:0.10002307725350877 514:0.3223716727105755 2045:0.47891842439311344 418:0.2694133416638872 419:0.2434877544903229 1587:0.43785401664137247 99:0.12214255303133047 5:0.18716590709320385 837:0.3889601582322983 8:0.10002307725350877 1047:0.22352061125811162 23:0.19834348129081056 2046:0.5589751173450496 5:0.18716590709320385 2047:0.5589751173450496 1547:0.46298891601435005 8:0.10002307725350877 5:0.18716590709320385 2048:0.5235494663661886 2:0.037934770871108886 23:0.19834348129081056 306:0.4495207085841368 608:0.46298891601435005 99:0.12214255303133047 5:0.18716590709320385 132:0.3383011810893389 447:0.3383011810893389 11:0.03895137400301697 2049:0.5589751173450496 611:0.3167329159376955 307:0.382932223062414 119:0.2950793697586212 13:2.1851717684746318E-4 
47.52541793398971 199:0.367645368081085 163:0.33463373337016655 229:0.35510026230009345 377:0.39023829976237245 2066:0.7018305607508719 2067:0.7672350798076447 1287:0.6587497053898488 609:0.8586768267193337 112:0.5897382751412865 104:0.4907414542562071 2:0.11118294956458988 5:0.06857052623060336 2068:0.7672350798076447 558:0.6587497053898488 8:0.048859575257737965 117:0.4355853537513347 1214:0.48590930041363917 26:0.1336113039065638 2069:0.7672350798076447 28:0.13330897347108953 280:0.4526822966360731 214:0.22573332818399822 874:0.5009898728081076 419:0.3568189039426966 71:0.5794898565893862 179:0.26550111344863525 2070:0.8191495671714685 437:0.5529043601719312 609:0.8586768267193337 152:0.3169923380139985 2071:0.7672350798076447 99:0.178993691032352 614:0.460216050672701 116:0.4421527871261962 1524:0.7672350798076447 2072:0.7304011648382894 99:0.178993691032352 2073:0.8191495671714685 505:0.4421527871261962 2074:0.7304011648382894 2:0.11118294956458988 2075:0.7304011648382894 13:3.202257941003069E-4 
77.82301222826679 2076:0.8626741385970557 37:0.34593662354953986 18:0.15235628933378295 124:0.6456575747558161 487:0.5822822983168762 2077:0.8626741385970557 33:0.3163315676891311 34:0.2154538314366483 439:0.7145372878129622 11:0.06011420181782803 2:0.17563579183745412 37:0.34593662354953986 2078:0.6937516143853316 23:0.15305313828779019 926:0.6937516143853316 1302:0.6937516143853316 2:0.17563579183745412 587:0.6456575747558161 2079:0.8080012345730221 8:0.05145567267187982 2080:0.8080012345730221 776:0.6937516143853316 2:0.17563579183745412 2081:0.8626741385970557 13:3.372406238776834E-4 
30.188247325236247 2144:1.970255292250605 37:0.21088565034555926 89:0.8711749515876838 99:0.22982738688406829 2145:0.9378330047483232 46:0.6999609892406938 1352:0.6999609892406938 2146:0.9011484308885461 272:0.4744911852653756 2:0.07137929447992199 2147:0.9378330047483232 2148:1.0517856992859418 2130:0.9851276461253025 214:0.28984094718620657 1625:0.7572222570500651 18:0.18575515266766698 386:0.6365584679535318 2149:1.0517856992859418 722:0.5293168679748278 59:0.2681880641912624 2144:1.970255292250605 99:0.22982738688406829 42:0.3273255176966723 122:0.6575741447735863 13:4.111690029211537E-4 
36.23479565858508 2150:0.9432986388804363 305:0.4300177902639331 694:0.6791181177783916 18:0.166595327161604 722:0.47472016536837164 59:0.24052564708509178 2144:1.7670321403768234 99:0.20612170461375537 2151:0.8410996626754264 2152:0.6791181177783916 2:0.06401683477239517 649:0.6193355490863671 2153:0.9432986388804363 11:0.06573240371429233 1386:0.5345027340603963 1828:0.7585888162070635 37:0.1891337247363547 1080:0.7059999647612986 70:0.589748269204464 2154:0.7059999647612986 23:0.1673573027911149 1021:0.5769191415733816 2155:0.7585888162070635 2144:1.7670321403768234 738:0.5299657005124393 2156:0.8081989409663085 99:0.20612170461375537 284:0.8081989409663085 42:0.293563332838359 422:0.8410996626754264 33:0.3458955402573493 34:0.23558989060027327 2146:0.8081989409663085 13:3.6875873200088727E-4 
66.70277160470228 1377:0.7213878505035389 377:0.3669190521375956 634:0.4614164969198513 5:0.12894599276611077 2166:0.7213878505035389 2:0.05226952671347582 1895:0.6867549987939493 8:0.09187980294261902 18:0.2720490300519712 2167:0.770200113439654 2168:0.770200113439654 26:0.25125433876745107 2169:0.770200113439654 28:0.25068581027148273 179:0.49927142952073034 2170:0.770200113439654 11:0.05367028288888064 18:0.2720490300519712 612:0.40368268253555406 2171:0.770200113439654 510:0.40368268253555406 179:0.49927142952073034 5:0.12894599276611077 2172:0.7213878505035389 2173:0.770200113439654 8:0.09187980294261902 152:0.2980500075717877 154:0.14470763135347203 2174:0.7213878505035389 26:0.25125433876745107 2175:0.770200113439654 28:0.25068581027148273 13:3.0109024386596806E-4 
43.88187719684462 182:0.4780581142800058 142:0.1909887161570222 2194:1.0814192634447626 1125:0.8093746035617503 2086:0.9642560056841 26:0.3527801115917216 2195:1.0814192634447626 28:0.3519818545457551 11:0.07535714001827766 573:0.7650269486810668 201:0.5793275786680896 26:0.3527801115917216 2196:1.0128831511924479 28:0.3519818545457551 610:0.4804557552030504 1474:0.7196820587488814 250:0.5065119757881105 901:0.443706271663916 2197:1.0128831511924479 1466:0.8470927479234374 2:0.07339037231071789 1289:0.6294056416768933 13:4.227534949297961E-4 
55.254526429843594 244:0.32997790523293286 142:0.17865358514984844 199:0.4540085383822661 5:0.169356706722838 1334:0.6397900214968956 229:0.43851647555768375 11:0.07049014989888672 377:0.48190875087217144 2193:0.7282730467201812 5:0.169356706722838 2198:0.7571006160210134 787:0.7737595762674417 8:0.060337124508125214 2199:0.9019789016022621 2200:1.0115750938169328 26:0.1649977888055126 2201:1.0115750938169328 28:0.16462443825893947 99:0.22104090273026905 508:0.4540085383822661 510:0.530193829282225 179:0.32786968889294915 2202:0.8134958763789766 2203:0.9474654311495225 2204:1.0115750938169328 99:0.22104090273026905 1181:0.8134958763789766 13:3.9544968427214294E-4 
70.33674739655838 958:0.7348599351384892 37:0.1778878227067321 432:0.6103257243443433 853:0.43808615493190056 9:0.3773988721409522 482:0.3827676090168004 11:0.12364790250194634 2205:0.8872100481634014 23:0.31481245609773867 145:0.38646582948916486 432:0.6103257243443433 1005:0.6640211667035217 247:0.3827676090168004 99:0.09693284816722374 961:0.7910878288960098 11:0.12364790250194634 2:0.1204207802718651 305:0.40444890799799077 419:0.38646582948916486 518:0.6949656096286183 23:0.31481245609773867 2206:0.6387377158710977 1298:0.5988433903612268 2207:0.7348599351384892 2208:0.7910878288960098 2:0.1204207802718651 2209:0.7601433859709132 13:3.468323168233157E-4 
70.30812200299837 199:0.3407727365640523 163:0.3101740507772333 2218:0.7592747356433838 377:0.36171426289477154 1975:0.5466320082458828 835:0.6505310322272568 214:0.2092336002503551 2219:0.7592747356433838 263:0.4746969228406986 8:0.04528823864922033 5:0.0635584394635599 1976:0.6505310322272568 612:0.3979563969384041 11:0.10581792742245114 432:0.26115850692132864 853:0.37491431726174923 9:0.3229781149008781 482:0.3275726821970747 297:0.30750701346398757 154:0.14265493684596342 961:0.6770132996116511 2:0.15458423227311813 2220:0.6105991243359051 738:0.4265770675066628 254:0.4129990568781364 1298:0.5124904275481859 2207:0.6288934442776154 2208:0.6770132996116511 2:0.15458423227311813 2209:0.6505310322272568 11:0.10581792742245114 37:0.1522364741465997 663:0.5807735889435798 2:0.15458423227311813 2221:0.6288934442776154 208:0.5569583588724312 179:0.24609460323933624 2222:0.7592747356433838 1766:0.5682695961955242 2223:0.7592747356433838 13:2.968192438912783E-4 
43.26872734510117 1163:0.85188125638998 142:0.19669112375990003 2224:1.113707523996742 37:0.22330113030843207 2114:0.9930460875725657 1864:0.816948972104929 59:0.2839771116290194 536:0.6205083862410317 722:0.5604793627087444 99:0.12167901225842333 2225:1.113707523996742 2:0.0755816107538236 2152:0.8018022355570966 8:0.1328579755507271 9:0.47374572044280105 2226:1.113707523996742 2227:1.113707523996742 11:0.07760710083699987 676:0.5796280607006832 8:0.1328579755507271 5:0.09322779874148829 315:0.5216350563543368 421:0.5796280607006832 38:0.7043856309574974 671:0.636588517282284 12:0.6672071522047642 13:4.3537577331428907E-4 
71.31958133465612 14:0.2607038904707172 2228:0.8231053685377933 1061:0.5558140530700778 272:0.39645242263977115 214:0.4843425937529744 901:0.7211434286975645 42:0.27349084348128666 2229:0.8231053685377933 495:0.5212933614729702 561:0.5068209816242866 11:0.12247585801713748 1146:1.28927025021745 601:0.47801365121697104 2:0.11927932531372866 1146:1.28927025021745 948:0.5374721056743196 11:0.12247585801713748 214:0.4843425937529744 901:0.7211434286975645 2230:0.8788002844490469 2:0.11927932531372866 1046:0.6883781092067311 13:3.435447325144768E-4 
77.36428742708036 1163:0.6786320413809687 142:0.1566895595336258 1061:0.5611329690264689 37:0.1778878227067321 18:0.1566895595336258 249:0.6640211667035217 482:0.3827676090168004 214:0.24448877835796723 305:0.40444890799799077 306:0.7134830820513811 5:0.07426782887734687 315:0.4155488344112181 1713:0.6949656096286183 901:0.3640222399954075 8:0.05291915891177791 1207:0.5750120475515834 297:0.35932094065369746 1062:0.4943140486894212 99:0.2907985445016712 926:0.7134830820513811 1302:0.7134830820513811 2:0.06021039013593255 99:0.2907985445016712 436:0.607793272946001 2231:0.6276377894578705 99:0.2907985445016712 776:0.7134830820513811 13:3.468323168233157E-4 
60.114745291871714 428:0.8748204147045653 634:1.1064378906523749 18:0.3261753285524732 200:1.0206287671067567 8:0.11016001382699328 484:0.9294498744212089 33:0.6772254264901069 34:0.46125909579471003 2055:1.2851391174585078 2262:1.6467806360043056 2263:1.8468749916464628 13:7.21989041447162E-4 
23.0457050723268 508:0.9080170767645322 37:0.40564664774921666 5:0.169356706722838 969:1.166789522277865 507:1.21204198237748 516:0.8855801678030003 611:1.1463806499165006 1573:1.3112292115085047 2264:2.0231501876338656 13:7.908993685442859E-4 
33.82356900194595 325:0.8730801050274735 37:0.2515713714528811 5:0.2100611416926963 791:0.6671930473882354 247:0.5413151439086813 8:0.07483899224241336 2271:1.2547044827863691 11:0.08743227033861933 172:0.5439127465879242 2272:1.009017451160819 432:0.43156545841647664 2273:1.1187671366530236 2274:1.2547044827863691 1373:0.9828297905196781 2275:1.1751862328508098 99:0.13708374851753982 5:0.2100611416926963 460:0.9203758755523767 461:0.9390677396549263 13:4.904949663208153E-4 
50.518232740433234 2282:1.0662937735866729 1397:0.9135786516076472 1604:0.8352447134000245 8:0.1272018272738949 2276:0.8156142074572941 154:0.40067728791570084 2280:0.7980541215143229 76:0.5940915495773036 23:0.18917874210252544 1162:0.9135786516076472 5:0.0892588217115531 42:0.3318405657092975 164:0.3135706115397604 2283:1.0662937735866729 2284:1.0662937735866729 11:0.07430314209572325 154:0.40067728791570084 18:0.18831741374278502 1141:0.7821690915469355 2285:1.0662937735866729 8:0.1272018272738949 1507:0.9507692434933488 750:0.6094871029324729 13:4.168405674314788E-4 
44.360062865608135 428:0.4791588748997145 738:0.5683248985198401 138:0.6475044238063428 214:0.5575201935925284 2319:1.0115750938169328 2320:1.0115750938169328 2321:0.9474654311495225 2322:1.0115750938169328 2323:0.9474654311495225 2324:0.9474654311495225 5:0.084678353361419 1035:0.742030753401921 8:0.060337124508125214 42:0.3148116023040446 1203:0.6254061204006075 2325:0.9474654311495225 2326:0.8134958763789766 1674:0.742030753401921 11:0.07049014989888672 844:0.8134958763789766 214:0.5575201935925284 2327:1.0115750938169328 2:0.06865040716862184 2328:0.9474654311495225 120:0.5460184135395817 856:0.4994950679295266 720:0.7923827093875915 2329:0.742030753401921 2330:1.0115750938169328 99:0.11052045136513453 213:0.6254061204006075 23:0.17947071297887146 2315:0.9474654311495225 13:3.9544968427214294E-4 
25.49042453915851 834:1.0977066501759671 1624:0.9295937654966887 738:0.8717705989099043 1625:1.1171198583111686 214:0.42759846906087734 1643:1.2852327429904469 4:0.6127812042733338 1905:1.2154595917366064 99:0.1695306334973335 2331:1.551685361095163 1670:1.4533456276697252 1227:0.7267738282617932 179:0.5029291445703431 2326:1.247845711508767 2332:1.551685361095163 42:0.48289895410028877 13:6.065921253749605E-4 
59.24320222127614 2333:0.6364571080682451 37:0.16291161408833707 5:0.20404587047858289 969:0.468593948527247 901:0.3333755497107422 8:0.04846394465532285 2334:0.8125166679901191 365:0.5653858319291347 99:0.08877216277550462 5:0.20404587047858289 2335:0.8125166679901191 22:0.4564895435876868 23:0.2883086912730842 536:0.45269821347634526 837:0.5653858319291347 23:0.2883086912730842 2336:0.8125166679901191 2337:0.7610225477662362 5:0.20404587047858289 381:0.4644296368644134 2338:0.724486888029182 11:0.05661905089602033 172:0.35222490921013183 607:0.5023382843196914 44:0.41157721356439986 2339:0.8125166679901191 185:0.526602323652607 2340:0.8125166679901191 135:0.3304890589374004 2341:0.696147628673004 216:0.3628143841348715 13:3.176328300157757E-4 
51.642505090173096 244:0.46665922886387756 142:0.25265432308549224 227:0.6977913775271519 37:0.28683549538906183 18:0.5053086461709845 9:0.608537396223505 350:0.6201559470577261 482:0.6171942243186818 611:0.810613531376999 18:0.5053086461709845 1451:1.1504569013097352 8:0.08532957979398473 1019:0.810613531376999 13:5.592503067338229E-4 
102.12493600182056 244:0.13731211827599096 142:0.0743422569375033 325:0.2929103893128038 11:0.14666363484815306 5:0.14094718328454767 791:0.22383716469078674 247:0.18160627945842256 8:0.050215594714103355 338:0.2977863359016611 42:0.13100103759890452 99:0.09198068748907653 5:0.14094718328454767 460:0.30877768771706937 461:0.31504863715198694 11:0.14666363484815306 37:0.0843998940393913 1566:0.31504863715198694 23:0.07468228441002818 2342:0.3753361411632397 99:0.09198068748907653 5:0.14094718328454767 2343:0.36065437338258705 11:0.14666363484815306 2344:0.3942642318811585 11:0.14666363484815306 423:0.30877768771706937 11:0.14666363484815306 2:0.028567163677757475 1542:0.32973040493263955 1543:0.36065437338258705 263:0.26317195148646927 59:0.10733325934354479 5:0.14094718328454767 2345:0.4209418773938398 8:0.050215594714103355 536:0.23453012520339755 2346:0.3942642318811585 381:0.24060784345832384 13:1.6455657472172003E-4 
75.7488335134455 2391:0.9537221446898283 11:0.13291750133429073 1454:0.8503938637468711 33:0.3497177064565865 34:0.23819317283994712 233:0.8503938637468711 507:0.571362069881268 508:0.42804335494225776 26:0.15556140712688504 2392:0.9537221446898283 28:0.1552094088558963 11:0.13291750133429073 37:0.19122366359270793 676:0.4963638165880602 8:0.11377277305864632 5:0.1596710343508535 6:0.6746903508242253 7:0.43942836642268823 8:0.11377277305864632 970:0.7138013061719615 971:0.7295075245156502 99:0.10419968082677952 5:0.1596710343508535 517:0.7669712675398236 2393:0.7899506941312605 12:0.571362069881268 13:3.7283353782254864E-4 
63.57088987282035 2394:0.9991626593965699 280:0.5521619805409326 8:0.11919352730681317 2395:0.856062088816119 26:0.32594639876988624 2396:0.9991626593965699 28:0.3252088600003351 418:0.48157376344829217 1008:0.7193368426876923 419:0.43523202510796827 1352:0.6649404759528406 29:0.350879141542653 5:0.08363931581062581 791:0.5313078806245364 247:0.4310671446381723 8:0.11919352730681317 2397:0.9991626593965699 26:0.32594639876988624 2398:0.9991626593965699 28:0.3252088600003351 99:0.1091643208484149 2399:0.9991626593965699 13:3.905973571413313E-4 
59.49135060304477 2400:0.9642560056841 11:0.15071428003655532 2401:1.0814192634447626 11:0.15071428003655532 2:0.14678074462143578 2402:1.0814192634447626 52:0.364504193318953 76:0.6025188009882188 59:0.275744135938803 2403:0.9642560056841 8:0.06450309931786448 710:0.8093746035617503 42:0.33654775920087676 99:0.1181513323542702 1329:0.8696636728467253 2:0.14678074462143578 2404:0.9265378613224129 172:0.4687938314264234 2405:1.0814192634447626 34:0.2700856711405391 1271:0.8696636728467253 1298:0.7299294901627748 13:4.227534949297961E-4 
37.08988506712155 2406:1.0972072410982865 424:0.8392600956063276 425:0.730188921947319 216:0.4899377269787126 135:0.8925724304631342 1080:0.8211909162411252 431:0.9783334803367366 4:0.4333017449253333 5:0.09184656981011283 2407:0.9400646770026749 377:0.5227034297675843 418:0.5288290303978441 2408:1.0972072410982865 59:0.2797698107195763 119:0.5792086465953049 728:0.7203863348447779 33:0.40233185524830567 34:0.27402873622606466 359:0.545174591383964 2:0.07446182128263144 2409:0.8211909162411252 2410:1.0972072410982865 179:0.3556246085820391 38:0.6939497113556471 2411:1.0276705487330817 135:0.8925724304631342 2412:1.0972072410982865 13:4.2892540526699496E-4 
46.28544640770881 182:0.4780581142800058 142:0.1909887161570222 2413:1.0814192634447626 99:0.1181513323542702 1739:0.7785566356711227 11:0.15071428003655532 1454:0.9642560056841 172:0.4687938314264234 37:0.21682725371013478 297:0.4379758635357959 154:0.20318046879302243 149:0.5928572656581456 1466:0.8470927479234374 2:0.07339037231071789 1289:0.6294056416768933 11:0.15071428003655532 29:0.7595309116822847 101:0.683964302833748 29:0.7595309116822847 2414:1.0128831511924479 442:0.7650269486810668 2415:1.0814192634447626 13:4.227534949297961E-4 
45.678578312791814 2416:1.0592985551907395 2417:1.1309753370601945 37:0.2267633698030401 33:0.41471418393486986 34:0.5649247119572927 5:0.1893465543388807 612:0.5927747217629867 2418:1.0592985551907395 2:0.07675348855603864 41:0.8296156030010393 34:0.5649247119572927 5:0.1893465543388807 2419:1.0592985551907395 2420:1.0592985551907395 2386:1.008443069126626 26:0.18447313595313997 2421:1.1309753370601945 2422:1.1309753370601945 28:0.18405571735235288 13:4.421261878566705E-4 
26.86904892399735 2030:1.729827296989838 2423:1.8468749916464628 2:0.12533792196056182 2424:1.8468749916464628 1235:1.4466862803621483 52:0.6225094204875219 2425:1.8468749916464628 154:0.34699671005444865 2418:1.729827296989838 931:1.212590891048899 2426:1.6467806360043056 13:7.21989041447162E-4 
54.333470800309854 2427:0.8231053685377933 37:0.17620164415214803 18:0.31040863383681067 38:0.5558140530700778 644:0.6216884818294606 33:0.32224481901997537 34:0.43896270881629457 180:0.6721993650053818 11:0.12247585801713748 441:0.6216884818294606 34:0.43896270881629457 18:0.31040863383681067 1556:0.7067200566024894 1458:0.783589196827889 2428:0.8231053685377933 2429:0.752938072777856 11:0.12247585801713748 2430:0.8788002844490469 1510:0.7278942809166353 2:0.11927932531372866 1511:0.644635125108725 2:0.11927932531372866 2431:0.8788002844490469 23:0.155914192213839 2432:0.8231053685377933 5:0.07356385252616654 453:0.6020320692454444 540:0.657726985156698 13:3.435447325144768E-4 
66.11523958129436 428:0.5727043956966184 429:0.8413210406146221 18:0.42706375226251403 487:0.8160859793928642 200:0.6681583688165952 8:0.07211665741708265 2251:1.0014452852561697 484:0.6084677720289127 99:0.1320972053881592 18:0.42706375226251403 2433:1.2090634926201214 19:0.7739158120039228 179:0.39187923229841987 2434:1.2090634926201214 33:0.44334811134852364 34:0.30196496020944935 2435:1.2090634926201214 2436:1.2090634926201214 2:0.08205293069039175 117:0.6429233075948372 1214:0.7172013749373524 13:4.726527761943184E-4 
54.17959828804081 2445:1.1490720915258237 42:0.7152039003474507 26:0.18742489355337752 2446:1.1490720915258237 28:0.18700079583087986 11:0.16014285933168898 33:0.4213500322280707 34:0.28698204065648886 2447:1.076248408322738 11:0.16014285933168898 37:0.23039181411181808 432:0.39523236804865675 1285:0.7755933653853943 42:0.7152039003474507 1455:0.8789318164061757 2448:1.1490720915258237 2449:1.1490720915258237 940:0.9845014178832314 13:4.4920065606325794E-4 
36.038457378420226 244:0.4449421166479041 142:0.24089644507318583 227:0.6653179735702868 37:0.2734869141211971 18:0.48179289014637167 869:0.8432974407155188 9:0.5802176414560339 482:0.5884716031863152 214:0.3758800378405627 7:0.6284677620560057 18:0.48179289014637167 2459:1.0433371997982512 653:0.9820031758688648 8:0.08135856208961105 1019:0.7728896765042266 13:5.332242454948225E-4 
66.90100072145847 2460:1.0502186604747281 11:0.18200478442003512 622:0.7531593980519132 8:0.07789489279267078 2461:1.3059378305970621 11:0.18200478442003512 37:0.2618437851962638 23:0.23169569416638017 2462:1.2231726119831103 5:0.1093192841176809 39:0.9401964604796661 247:0.5634186650354094 315:0.6116713223001911 2409:0.9774126924175872 2463:1.2231726119831103 99:0.14268128918416428 2464:1.3059378305970621 13:5.105233471496636E-4 
102.12493600182056 2471:0.7997203301900048 8:0.09540137045542119 5:0.06694411628366483 2472:0.6851839887057354 382:0.6264335350500184 2473:0.6264335350500184 2474:0.7997203301900048 95:0.4531467399100321 26:0.1304422053792132 139:0.44194522007382125 28:0.13014704585600323 216:0.3571004146853405 11:0.16718206971537733 172:0.3466777135679591 37:0.16034591651244245 18:0.14123806030708877 6:0.5657450580773059 901:0.328125212928175 8:0.09540137045542119 1714:0.6117106555929706 11:0.16718206971537733 2475:0.6431249591280838 2:0.108545824475398 2476:0.6851839887057354 11:0.16718206971537733 2:0.108545824475398 2477:0.7997203301900048 13:3.126304255736091E-4 
51.698164855012685 1213:0.8742244889267271 1214:0.6928823551401494 26:0.1905230355651114 2483:1.0007752710813231 28:0.19009192748797923 37:0.23420020127387953 5:0.09777814021549902 315:0.5470954626201641 421:0.6079190387105821 2484:1.1680663054414542 2485:0.9149647411322618 99:0.2552360493864774 2486:1.1680663054414542 152:0.45201521670309747 2:0.07927066211756245 676:0.6079190387105821 8:0.06967131015378811 587:0.8742244889267271 1915:0.8934605992921164 472:0.6676596695691769 1587:0.9149647411322618 99:0.2552360493864774 2487:1.1680663054414542 13:4.5662596333094843E-4 
23.569860135202916 244:0.43516197472528284 142:0.23560137109992324 2488:1.142965903410126 37:0.26747547862429255 297:0.5402817299052901 154:0.25064096974716066 31:0.6802299892589799 2:0.1810669519106376 2409:0.9984347252003556 487:0.9004321938434824 581:0.7146514966778685 8:0.07957024344301629 2489:1.0728065921445804 484:0.6713556961959496 2:0.1810669519106376 2490:1.142965903410126 13:5.215036000391603E-4 
62.49268665253382 14:0.3039157052854981 1493:0.8485431627377553 8:0.06110578128600712 484:0.515566027722959 2491:1.0244619202697611 179:0.332046541215364 214:0.5646226479952605 22:0.5755649980248719 23:0.18175705627227665 1961:0.6557532203495098 2:0.13904993981197217 2492:0.7128669206309519 684:0.7667455986877751 11:0.0713881497942313 99:0.11192841196532749 214:0.5646226479952605 607:0.6333733985447627 37:0.20540716465057637 916:0.6817770764883676 454:0.6557532203495098 2:0.13904993981197217 1899:0.9595355410760207 705:0.9134695419314958 9:0.43578268084487976 2493:0.8777379770260406 750:0.585576267363528 13:4.004874629632058E-4 
34.45571716469796 2488:1.2575359008422797 912:0.8316719351001007 2494:1.4677474115339832 164:0.4316281917998099 76:0.817763692995458 172:0.6362665765980939 874:0.8976707288730301 419:0.6393460286583516 510:0.7692860621982724 179:0.4757233448455857 18:0.2592178660464434 487:0.9906908042085713 1330:1.2575359008422797 8:0.08754630166115111 1573:0.9512656513998973 484:0.7386518597645595 2:0.09960847992243446 2490:1.2575359008422797 13:5.737787081058845E-4 
96.84333581844125 527:0.6020320692454444 2499:0.7278942809166353 2:0.05963966265686433 2500:0.8788002844490469 44:0.44515292621361857 30:0.752938072777856 99:0.19202806532264086 250:0.8232197880062574 11:0.12247585801713748 516:0.3846714436350846 4:0.34704993043200394 5:0.07356385252616654 315:0.4116098940031287 421:0.4573708030546626 901:0.36057171434878227 8:0.10483508837787564 248:0.6216884818294606 250:0.8232197880062574 11:0.12247585801713748 154:0.16511177468859575 201:0.470782478297049 510:0.46060296544892 99:0.19202806532264086 2145:0.783589196827889 2501:0.6115089689813314 730:0.3637662900513429 8:0.10483508837787564 581:0.470782478297049 13:3.435447325144768E-4 
46.957432509233605 2506:0.9720790217084372 142:0.18329471088614627 2507:0.9254108270814663 2206:0.747192380342006 119:0.5478765303156218 355:0.5559892918125905 29:0.36446655505929676 632:0.7109937163316497 154:0.1949953171815141 95:0.5880808650318196 26:0.3385683189127482 139:0.5735438532985832 28:0.33780221975570185 120:0.5602030721314902 784:0.722185837992155 23:0.1841330663496102 5:0.08687815743903304 2508:1.0378541477646819 2:0.07043383161683749 2152:0.747192380342006 8:0.06190458357240307 2509:0.8346291586753706 26:0.3385683189127482 2510:0.88921216307111 28:0.33780221975570185 13:4.0572281540212767E-4 
36.717239180514376 182:0.4923316393360435 142:0.19669112375990003 14:0.3303912043388678 2511:1.043125108405449 59:0.2839771116290194 5:0.09322779874148829 338:0.7878685886289405 42:0.3465961669781234 247:0.48048505197468394 11:0.15521420167399974 325:0.7749680465487903 11:0.15521420167399974 4:0.43981792628456834 2512:1.043125108405449 34:0.278149700343573 436:0.762957929202689 1497:0.7312198199658039 1141:0.816948972104929 23:0.1975907518911307 2513:0.9224636719812728 2514:1.113707523996742 2515:0.9542017812181581 99:0.12167901225842333 2516:1.113707523996742 926:0.8956294829729665 1302:0.8956294829729665 13:4.3537577331428907E-4 
38.38459554867508 182:0.39220492637075455 142:0.1566895595336258 2517:0.6276377894578705 11:0.12364790250194634 135:0.3608703986622634 664:0.6786320413809687 948:0.5426154966037062 2492:0.6173608627839896 11:0.12364790250194634 37:0.1778878227067321 18:0.1566895595336258 969:0.5116710536786095 901:0.728044479990815 8:0.10583831782355582 1573:0.5750120475515834 119:0.9367049578128811 2:0.06021039013593255 432:0.30516286217217165 2518:0.7134830820513811 901:0.728044479990815 8:0.10583831782355582 119:0.9367049578128811 99:0.09693284816722374 2135:0.6276377894578705 154:0.16669182767237392 1155:0.7348599351384892 1019:0.5027211710938354 13:3.468323168233157E-4 
29.221044586357714 244:0.43516197472528284 142:0.23560137109992324 2519:1.2494804090350313 37:0.26747547862429255 18:0.4712027421998465 2520:1.1894945502630232 2521:1.1894945502630232 482:0.5755365817953215 214:0.3676179291787522 7:0.6146535968495148 18:0.4712027421998465 2522:1.3340257284727937 2523:1.3340257284727937 1062:0.7432599081382264 99:0.1457500550821169 512:0.7093723687808148 13:5.215036000391603E-4 
62.11259337025964 14:0.3586793972760198 315:0.5662976046399713 421:0.6292559872240262 216:0.5398850801916848 33:0.44334811134852364 34:0.30196496020944935 1369:0.9470784838019499 37:0.4848404786704548 2524:0.924819582301304 2525:1.0359008208220941 250:0.5662976046399713 11:0.0842518438354193 2:0.08205293069039175 5:0.1012099905288952 297:0.4896719016851055 1289:0.703696900105704 2526:0.924819582301304 37:0.4848404786704548 1111:1.0014452852561697 2501:0.8413210406146221 730:0.5004738265676352 13:4.726527761943184E-4 
29.334648514125554 2527:1.188034697293572 99:0.1297996874229968 1538:1.6808995181065787 2321:1.1127417169244316 2528:1.0178837799697025 1538:1.6808995181065787 748:0.8714709237986737 2529:1.059320497193023 305:0.5415846416288705 419:0.5175040743755287 2530:1.1127417169244316 467:0.6317411796680553 5:0.09944968249807219 2531:1.188034697293572 135:0.4832300487628971 2532:1.188034697293572 875:0.9306062970924739 59:0.30292931903858805 250:0.5564481992989148 33:0.435637121190549 34:0.29671299504567344 1369:0.9306062970924739 13:4.644321008106159E-4 
